{"learner":{"attributes":{"best_iteration":"299","best_score":"6.940196680924265"},"feature_names":["year","month","day","arr_delay","distance","hour","minute","temp","humid","wind_dir","wind_speed","precip","pressure","visib","distance_ratio_by_total","distance_category","airline_daily_performance_kpi","aircraft_count_by_airline","dep_delay_category","allegiant_air","american_airlines_inc","delta_air_lines_inc","frontier_airlines_inc","hawaiian_airlines_inc","horizon_air","jetblue_airways","skywest_airlines_inc","southwest_airlines_co","spirit_air_lines","united_air_lines_inc"],"feature_types":["int","int","int","float","int","int","int","float","float","float","float","float","float","float","float","int","float","int","int","int","int","int","int","int","int","int","int","int","int","int"],"gradient_booster":{"model":{"gbtree_model_param":{"num_parallel_tree":"1","num_trees":"300"},"iteration_indptr":[0,1,2,3,4,5,6,7,8,9,10,11,12,13,14,15,16,17,18,19,20,21,22,23,24,25,26,27,28,29,30,31,32,33,34,35,36,37,38,39,40,41,42,43,44,45,46,47,48,49,50,51,52,53,54,55,56,57,58,59,60,61,62,63,64,65,66,67,68,69,70,71,72,73,74,75,76,77,78,79,80,81,82,83,84,85,86,87,88,89,90,91,92,93,94,95,96,97,98,99,100,101,102,103,104,105,106,107,108,109,110,111,112,113,114,115,116,117,118,119,120,121,122,123,124,125,126,127,128,129,130,131,132,133,134,135,136,137,138,139,140,141,142,143,144,145,146,147,148,149,150,151,152,153,154,155,156,157,158,159,160,161,162,163,164,165,166,167,168,169,170,171,172,173,174,175,176,177,178,179,180,181,182,183,184,185,186,187,188,189,190,191,192,193,194,195,196,197,198,199,200,201,202,203,204,205,206,207,208,209,210,211,212,213,214,215,216,217,218,219,220,221,222,223,224,225,226,227,228,229,230,231,232,233,234,235,236,237,238,239,240,241,242,243,244,245,246,247,248,249,250,251,252,253,254,255,256,257,258,259,260,261,262,263,264,265,266,267,268,269,270,271,272,273,274,275,276,277,278,279,280,281,282,283,284,285,286,287,288,289,290,291,292,293,294,295,296,297,298,299,300],"tree_info":[0,0,0,0,0,0,0,0,0,0,0,0,0,0,0,0,0,0,0,0,0,0,0,0,0,0,0,0,0,0,0,0,0,0,0,0,0,0,0,0,0,0,0,0,0,0,0,0,0,0,0,0,0,0,0,0,0,0,0,0,0,0,0,0,0,0,0,0,0,0,0,0,0,0,0,0,0,0,0,0,0,0,0,0,0,0,0,0,0,0,0,0,0,0,0,0,0,0,0,0,0,0,0,0,0,0,0,0,0,0,0,0,0,0,0,0,0,0,0,0,0,0,0,0,0,0,0,0,0,0,0,0,0,0,0,0,0,0,0,0,0,0,0,0,0,0,0,0,0,0,0,0,0,0,0,0,0,0,0,0,0,0,0,0,0,0,0,0,0,0,0,0,0,0,0,0,0,0,0,0,0,0,0,0,0,0,0,0,0,0,0,0,0,0,0,0,0,0,0,0,0,0,0,0,0,0,0,0,0,0,0,0,0,0,0,0,0,0,0,0,0,0,0,0,0,0,0,0,0,0,0,0,0,0,0,0,0,0,0,0,0,0,0,0,0,0,0,0,0,0,0,0,0,0,0,0,0,0,0,0,0,0,0,0,0,0,0,0,0,0,0,0,0,0,0,0,0,0,0,0,0,0,0,0,0,0,0,0,0,0,0,0,0,0,0,0,0,0,0,0],"trees":[{"base_weights":[-5.7325583E-8,-3.9046175E0,1.194432E2,-1.0130616E1,1.6425772E1,9.749378E1,2.739219E2,-1.257176E0,-7.1529156E-1,8.734E-1,3.4129314E0,7.2910333E0,1.2792269E1,2.9590603E1,2.2624258E1],"categories":[],"categories_nodes":[],"categories_segments":[],"categories_sizes":[],"default_left":[0,0,0,0,0,0,0,0,0,0,0,0,0,0,0],"id":0,"left_children":[1,3,5,7,9,11,13,-1,-1,-1,-1,-1,-1,-1,-1],"loss_changes":[3.9263604E7,1.0319101E7,9.009556E6,5.22088E5,2.7515085E6,1.73394E6,3.4675E5,0E0,0E0,0E0,0E0,0E0,0E0,0E0,0E0],"parents":[2147483647,0,0,1,1,2,2,3,3,4,4,5,5,6,6],"right_children":[2,4,6,8,10,12,14,-1,-1,-1,-1,-1,-1,-1,-1],"split_conditions":[6.8E1,4E0,1.91E2,2E0,2.9E1,1.2E2,8E0,-1.257176E0,-7.1529156E-1,8.734E-1,3.4129314E0,7.2910333E0,1.2792269E1,2.9590603E1,2.2624258E1],"split_indices":[3,18,3,18,3,3,5,0,0,0,0,0,0,0,0],"split_type":[0,0,0,0,0,0,0,0,0,0,0,0,0,0,0],"sum_hessian":[8.4186E4,8.1522E4,2.664E3,6.241E4,1.9112E4,2.334E3,3.3E2,2.3688E4,3.8722E4,1.4448E4,4.664E3,1.669E3,6.65E2,1.04E2,2.26E2],"tree_param":{"num_deleted":"0","num_feature":"30","num_nodes":"15","size_leaf_vector":"1"}},{"base_weights":[8.863713E-4,-4.1819825E0,9.232318E1,-9.210683E0,1.3083351E1,6.8782745E1,1.966967E2,-1.1429375E0,-6.503546E-1,6.931168E-1,2.5042107E0,5.0423555E0,8.702684E0,1.3198297E1,2.2652912E1],"categories":[],"categories_nodes":[],"categories_segments":[],"categories_sizes":[],"default_left":[0,0,0,0,0,0,0,0,0,0,0,0,0,0,0],"id":1,"left_children":[1,3,5,7,9,11,13,-1,-1,-1,-1,-1,-1,-1,-1],"loss_changes":[3.2511052E7,6.9926935E6,8.952056E6,4.31164E5,1.4341382E6,1.063705E6,1.77801E6,0E0,0E0,0E0,0E0,0E0,0E0,0E0,0E0],"parents":[2147483647,0,0,1,1,2,2,3,3,4,4,5,5,6,6],"right_children":[2,4,6,8,10,12,14,-1,-1,-1,-1,-1,-1,-1,-1],"split_conditions":[5.5E1,4E0,1.43E2,2E0,2.4E1,9.1E1,1.91E2,-1.1429375E0,-6.503546E-1,6.931168E-1,2.5042107E0,5.0423555E0,8.702684E0,1.3198297E1,2.2652912E1],"split_indices":[3,18,3,18,3,3,3,0,0,0,0,0,0,0,0],"split_type":[0,0,0,0,0,0,0,0,0,0,0,0,0,0,0],"sum_hessian":[8.4186E4,8.0538E4,3.648E3,6.2372E4,1.8166E4,2.978E3,6.7E2,2.3676E4,3.8696E4,1.3189E4,4.977E3,1.995E3,9.83E2,3.4E2,3.3E2],"tree_param":{"num_deleted":"0","num_feature":"30","num_nodes":"15","size_leaf_vector":"1"}},{"base_weights":[1.4114644E-3,-3.2348635E0,9.899985E1,-8.375922E0,1.3552761E1,8.0870415E1,2.265927E2,-1.0392736E0,-5.914902E-1,7.581601E-1,3.0129588E0,6.0393524E0,1.0632432E1,2.4886332E1,1.8526205E1],"categories":[],"categories_nodes":[],"categories_segments":[],"categories_sizes":[],"default_left":[0,0,0,0,0,0,0,0,0,0,0,0,0,0,0],"id":2,"left_children":[1,3,5,7,9,11,13,-1,-1,-1,-1,-1,-1,-1,-1],"loss_changes":[2.6972668E7,7.0360515E6,6.146318E6,3.565055E5,1.9515692E6,1.208792E6,3.0019E5,0E0,0E0,0E0,0E0,0E0,0E0,0E0,0E0],"parents":[2147483647,0,0,1,1,2,2,3,3,4,4,5,5,6,6],"right_children":[2,4,6,8,10,12,14,-1,-1,-1,-1,-1,-1,-1,-1],"split_conditions":[6.8E1,4E0,1.91E2,2E0,3.2E1,1.2E2,8E0,-1.0392736E0,-5.914902E-1,7.581601E-1,3.0129588E0,6.0393524E0,1.0632432E1,2.4886332E1,1.8526205E1],"split_indices":[3,18,3,18,3,3,5,0,0,0,0,0,0,0,0],"split_type":[0,0,0,0,0,0,0,0,0,0,0,0,0,0,0],"sum_hessian":[8.4186E4,8.1522E4,2.664E3,6.241E4,1.9112E4,2.334E3,3.3E2,2.3688E4,3.8722E4,1.5096E4,4.016E3,1.669E3,6.65E2,1.04E2,2.26E2],"tree_param":{"num_deleted":"0","num_feature":"30","num_nodes":"15","size_leaf_vector":"1"}},{"base_weights":[2.022467E-3,-3.2915983E0,8.0759125E1,-7.612912E0,1.1280897E1,6.675557E1,2.0612411E2,-7.7469736E-1,-1.9158112E-1,4.8244447E-1,2.0225465E0,4.6208467E0,8.8727E0,2.8712706E1,1.7865686E1],"categories":[],"categories_nodes":[],"categories_segments":[],"categories_sizes":[],"default_left":[0,0,0,0,0,0,0,0,0,0,0,0,0,0,0],"id":3,"left_children":[1,3,5,7,9,11,13,-1,-1,-1,-1,-1,-1,-1,-1],"loss_changes":[2.2392602E7,5.0938545E6,5.77782E6,3.1207125E5,1.2119965E6,1.453505E6,2.86742E5,0E0,0E0,0E0,0E0,0E0,0E0,0E0,0E0],"parents":[2147483647,0,0,1,1,2,2,3,3,4,4,5,5,6,6],"right_children":[2,4,6,8,10,12,14,-1,-1,-1,-1,-1,-1,-1,-1],"split_conditions":[5.9E1,4E0,1.91E2,3E0,2E1,1.03E2,6E0,-7.7469736E-1,-1.9158112E-1,4.8244447E-1,2.0225465E0,4.6208467E0,8.8727E0,2.8712706E1,1.7865686E1],"split_indices":[3,18,3,18,3,3,5,0,0,0,0,0,0,0,0],"split_type":[0,0,0,0,0,0,0,0,0,0,0,0,0,0,0],"sum_hessian":[8.4186E4,8.0888E4,3.298E3,6.2388E4,1.85E4,2.968E3,3.3E2,5.355E4,8.838E3,1.1977E4,6.523E3,1.959E3,1.009E3,2.4E1,3.06E2],"tree_param":{"num_deleted":"0","num_feature":"30","num_nodes":"15","size_leaf_vector":"1"}},{"base_weights":[2.570255E-3,-2.5117872E0,8.7987885E1,-6.927959E0,1.16755495E1,7.154434E1,1.8752591E2,-8.748194E-1,-4.7993916E-1,6.7452234E-1,2.8958654E0,5.738219E0,1.0233918E1,2.6206821E1,1.6246792E1],"categories":[],"categories_nodes":[],"categories_segments":[],"categories_sizes":[],"default_left":[0,0,0,0,0,0,0,0,0,0,0,0,0,0,0],"id":4,"left_children":[1,3,5,7,9,11,13,-1,-1,-1,-1,-1,-1,-1,-1],"loss_changes":[1.862462E7,5.1282245E6,3.81496E6,2.7728825E5,1.6683735E6,6.87317E5,2.42419E5,0E0,0E0,0E0,0E0,0E0,0E0,0E0,0E0],"parents":[2147483647,0,0,1,1,2,2,3,3,4,4,5,5,6,6],"right_children":[2,4,6,8,10,12,14,-1,-1,-1,-1,-1,-1,-1,-1],"split_conditions":[7.4E1,4E0,1.91E2,2E0,3.7E1,1.43E2,6E0,-8.748194E-1,-4.7993916E-1,6.7452234E-1,2.8958654E0,5.738219E0,1.0233918E1,2.6206821E1,1.6246792E1],"split_indices":[3,18,3,18,3,3,5,0,0,0,0,0,0,0,0],"split_type":[0,0,0,0,0,0,0,0,0,0,0,0,0,0,0],"sum_hessian":[8.4186E4,8.1848E4,2.338E3,6.2419E4,1.9429E4,2.008E3,3.3E2,2.3691E4,3.8728E4,1.6046E4,3.383E3,1.668E3,3.4E2,2.4E1,3.06E2],"tree_param":{"num_deleted":"0","num_feature":"30","num_nodes":"15","size_leaf_vector":"1"}},{"base_weights":[3.0567718E-3,-3.032607E0,6.0572784E1,-6.290267E0,8.365077E0,4.540135E1,1.3618143E2,-6.4468724E-1,-1.302082E-1,3.369269E-1,1.4845228E0,3.337345E0,6.022326E0,9.3062725E0,1.5509941E1],"categories":[],"categories_nodes":[],"categories_segments":[],"categories_sizes":[],"default_left":[0,0,0,0,0,0,0,0,0,0,0,0,0,0,0],"id":5,"left_children":[1,3,5,7,9,11,13,-1,-1,-1,-1,-1,-1,-1,-1],"loss_changes":[1.5479591E7,2.9767468E6,4.602832E6,2.426565E5,6.611976E5,6.040645E5,7.63611E5,0E0,0E0,0E0,0E0,0E0,0E0,0E0,0E0],"parents":[2147483647,0,0,1,1,2,2,3,3,4,4,5,5,6,6],"right_children":[2,4,6,8,10,12,14,-1,-1,-1,-1,-1,-1,-1,-1],"split_conditions":[5.1E1,4E0,1.43E2,3E0,1.8E1,9.1E1,1.91E2,-6.4468724E-1,-1.302082E-1,3.369269E-1,1.4845228E0,3.337345E0,6.022326E0,9.3062725E0,1.5509941E1],"split_indices":[3,18,3,18,3,3,3,0,0,0,0,0,0,0,0],"split_type":[0,0,0,0,0,0,0,0,0,0,0,0,0,0,0],"sum_hessian":[8.4186E4,8.0169E4,4.017E3,6.2349E4,1.782E4,3.347E3,6.7E2,5.3522E4,8.827E3,1.1244E4,6.576E3,2.364E3,9.83E2,3.4E2,3.3E2],"tree_param":{"num_deleted":"0","num_feature":"30","num_nodes":"15","size_leaf_vector":"1"}},{"base_weights":[3.1974777E-3,-2.623885E0,5.7986916E1,-5.7195683E0,8.004709E0,4.3134922E1,1.23838036E2,-7.360916E-1,-3.8772264E-1,3.5529077E-1,1.5107949E0,3.1533906E0,5.4753876E0,8.462712E0,1.4104179E1],"categories":[],"categories_nodes":[],"categories_segments":[],"categories_sizes":[],"default_left":[0,0,0,0,0,0,0,0,0,0,0,0,0,0,0],"id":6,"left_children":[1,3,5,7,9,11,13,-1,-1,-1,-1,-1,-1,-1,-1],"loss_changes":[1.282419E7,2.6500015E6,3.563456E6,2.1566612E5,6.409906E5,4.281025E5,6.3148E5,0E0,0E0,0E0,0E0,0E0,0E0,0E0,0E0],"parents":[2147483647,0,0,1,1,2,2,3,3,4,4,5,5,6,6],"right_children":[2,4,6,8,10,12,14,-1,-1,-1,-1,-1,-1,-1,-1],"split_conditions":[5.5E1,4E0,1.43E2,2E0,2.1E1,9.1E1,1.91E2,-7.360916E-1,-3.8772264E-1,3.5529077E-1,1.5107949E0,3.1533906E0,5.4753876E0,8.462712E0,1.4104179E1],"split_indices":[3,18,3,18,3,3,3,0,0,0,0,0,0,0,0],"split_type":[0,0,0,0,0,0,0,0,0,0,0,0,0,0,0],"sum_hessian":[8.4186E4,8.0538E4,3.648E3,6.2372E4,1.8166E4,2.978E3,6.7E2,2.3676E4,3.8696E4,1.2312E4,5.854E3,1.995E3,9.83E2,3.4E2,3.3E2],"tree_param":{"num_deleted":"0","num_feature":"30","num_nodes":"15","size_leaf_vector":"1"}},{"base_weights":[3.2861857E-3,-1.7531906E0,7.1999565E1,-5.2167296E0,9.189325E0,5.8305187E1,1.4108138E2,-5.3835243E-1,-8.603304E-2,5.106786E-1,2.4060545E0,4.308193E0,6.79758E0,1.6474813E1,1.1081472E1],"categories":[],"categories_nodes":[],"categories_segments":[],"categories_sizes":[],"default_left":[0,0,0,0,0,0,0,0,0,0,0,0,0,0,0],"id":7,"left_children":[1,3,5,7,9,11,13,-1,-1,-1,-1,-1,-1,-1,-1],"loss_changes":[1.0646397E7,3.1147695E6,1.888568E6,1.8794075E5,1.2192199E6,2.97539E5,2.328305E5,0E0,0E0,0E0,0E0,0E0,0E0,0E0,0E0],"parents":[2147483647,0,0,1,1,2,2,3,3,4,4,5,5,6,6],"right_children":[2,4,6,8,10,12,14,-1,-1,-1,-1,-1,-1,-1,-1],"split_conditions":[8.1E1,4E0,1.91E2,3E0,3.9E1,1.2E2,8E0,-5.3835243E-1,-8.603304E-2,5.106786E-1,2.4060545E0,4.308193E0,6.79758E0,1.6474813E1,1.1081472E1],"split_indices":[3,18,3,18,3,3,5,0,0,0,0,0,0,0,0],"split_type":[0,0,0,0,0,0,0,0,0,0,0,0,0,0,0],"sum_hessian":[8.4186E4,8.2182E4,2.004E3,6.2424E4,1.9758E4,1.674E3,3.3E2,5.3578E4,8.846E3,1.6374E4,3.384E3,1.009E3,6.65E2,1.04E2,2.26E2],"tree_param":{"num_deleted":"0","num_feature":"30","num_nodes":"15","size_leaf_vector":"1"}},{"base_weights":[3.4738681E-3,-2.3888538E0,4.391121E1,-4.7244244E0,5.929292E0,3.3146496E1,1.0288324E2,-6.2014127E-1,-3.127982E-1,1.7642196E-1,1.0389766E0,2.3150024E0,4.238375E0,7.079454E0,1.1667391E1],"categories":[],"categories_nodes":[],"categories_segments":[],"categories_sizes":[],"default_left":[0,0,0,0,0,0,0,0,0,0,0,0,0,0,0],"id":8,"left_children":[1,3,5,7,9,11,13,-1,-1,-1,-1,-1,-1,-1,-1],"loss_changes":[8.84325E6,1.5510902E6,2.7580435E6,1.6778112E5,3.8390088E5,3.7973825E5,4.172065E5,0E0,0E0,0E0,0E0,0E0,0E0,0E0,0E0],"parents":[2147483647,0,0,1,1,2,2,3,3,4,4,5,5,6,6],"right_children":[2,4,6,8,10,12,14,-1,-1,-1,-1,-1,-1,-1,-1],"split_conditions":[4.8E1,4E0,1.43E2,2E0,1.5E1,8.1E1,1.91E2,-6.2014127E-1,-3.127982E-1,1.7642196E-1,1.0389766E0,2.3150024E0,4.238375E0,7.079454E0,1.1667391E1],"split_indices":[3,18,3,18,3,3,3,0,0,0,0,0,0,0,0],"split_type":[0,0,0,0,0,0,0,0,0,0,0,0,0,0,0],"sum_hessian":[8.4186E4,7.9837E4,4.349E3,6.2335E4,1.7502E4,3.679E3,6.7E2,2.3668E4,3.8667E4,1.0145E4,7.357E3,2.345E3,1.334E3,3.4E2,3.3E2],"tree_param":{"num_deleted":"0","num_feature":"30","num_nodes":"15","size_leaf_vector":"1"}},{"base_weights":[3.4620129E-3,-1.5728886E0,5.5164948E1,-4.3134665E0,7.231458E0,4.4997963E1,1.1670666E2,-4.4862354E-1,-5.0015382E-2,3.7535158E-1,1.769799E0,3.3082144E0,5.6639414E0,1.8878984E1,9.901966E0],"categories":[],"categories_nodes":[],"categories_segments":[],"categories_sizes":[],"default_left":[0,0,0,0,0,0,0,0,0,0,0,0,0,0,0],"id":9,"left_children":[1,3,5,7,9,11,13,-1,-1,-1,-1,-1,-1,-1,-1],"loss_changes":[7.3204695E6,1.9749659E6,1.458246E6,1.4594312E5,7.375629E5,2.9699325E5,2.1183E5,0E0,0E0,0E0,0E0,0E0,0E0,0E0,0E0],"parents":[2147483647,0,0,1,1,2,2,3,3,4,4,5,5,6,6],"right_children":[2,4,6,8,10,12,14,-1,-1,-1,-1,-1,-1,-1,-1],"split_conditions":[7.4E1,4E0,1.91E2,3E0,3.4E1,1.2E2,6E0,-4.4862354E-1,-5.0015382E-2,3.7535158E-1,1.769799E0,3.3082144E0,5.6639414E0,1.8878984E1,9.901966E0],"split_indices":[3,18,3,18,3,3,5,0,0,0,0,0,0,0,0],"split_type":[0,0,0,0,0,0,0,0,0,0,0,0,0,0,0],"sum_hessian":[8.4186E4,8.1848E4,2.338E3,6.2419E4,1.9429E4,2.008E3,3.3E2,5.3574E4,8.845E3,1.55E4,3.929E3,1.343E3,6.65E2,2.4E1,3.06E2],"tree_param":{"num_deleted":"0","num_feature":"30","num_nodes":"15","size_leaf_vector":"1"}},{"base_weights":[3.6151547E-3,-1.9017705E0,3.8021225E1,-3.9030945E0,5.1003313E0,2.8494839E1,8.5497116E1,-5.2300537E-1,-2.5190854E-1,1.08195096E-1,8.906689E-1,-2.5520542E0,2.7300906E0,5.9243383E0,9.653253E0],"categories":[],"categories_nodes":[],"categories_segments":[],"categories_sizes":[],"default_left":[0,0,0,0,0,0,0,0,0,0,0,0,0,0,0],"id":10,"left_children":[1,3,5,7,9,11,13,-1,-1,-1,-1,-1,-1,-1,-1],"loss_changes":[6.098428E6,1.12348E6,1.8147995E6,1.30564875E5,3.272818E5,2.9165825E5,2.752845E5,0E0,0E0,0E0,0E0,0E0,0E0,0E0,0E0],"parents":[2147483647,0,0,1,1,2,2,3,3,4,4,5,5,6,6],"right_children":[2,4,6,8,10,12,14,-1,-1,-1,-1,-1,-1,-1,-1],"split_conditions":[5.1E1,4E0,1.43E2,2E0,1.4E1,4E0,1.91E2,-5.2300537E-1,-2.5190854E-1,1.08195096E-1,8.906689E-1,-2.5520542E0,2.7300906E0,5.9243383E0,9.653253E0],"split_indices":[3,18,3,18,3,18,3,0,0,0,0,0,0,0,0],"split_type":[0,0,0,0,0,0,0,0,0,0,0,0,0,0,0],"sum_hessian":[8.4186E4,8.0169E4,4.017E3,6.2349E4,1.782E4,3.347E3,6.7E2,2.367E4,3.8679E4,9.725E3,8.095E3,8.8E1,3.259E3,3.4E2,3.3E2],"tree_param":{"num_deleted":"0","num_feature":"30","num_nodes":"15","size_leaf_vector":"1"}},{"base_weights":[3.476385E-3,-1.2132599E0,4.9876312E1,-3.5676107E0,6.2249484E0,4.0621357E1,9.655961E1,-3.7415203E-1,-2.2594461E-2,3.4894824E-1,1.7264246E0,2.9883373E0,4.7558937E0,1.1993358E1,7.2525144E0],"categories":[],"categories_nodes":[],"categories_segments":[],"categories_sizes":[],"default_left":[0,0,0,0,0,0,0,0,0,0,0,0,0,0,0],"id":11,"left_children":[1,3,5,7,9,11,13,-1,-1,-1,-1,-1,-1,-1,-1],"loss_changes":[5.1087035E6,1.4392234E6,8.62342E5,1.13537125E5,6.018988E5,1.500685E5,1.85939E5,0E0,0E0,0E0,0E0,0E0,0E0,0E0,0E0],"parents":[2147483647,0,0,1,1,2,2,3,3,4,4,5,5,6,6],"right_children":[2,4,6,8,10,12,14,-1,-1,-1,-1,-1,-1,-1,-1],"split_conditions":[8.1E1,4E0,1.91E2,3E0,4.1E1,1.2E2,8E0,-3.7415203E-1,-2.2594461E-2,3.4894824E-1,1.7264246E0,2.9883373E0,4.7558937E0,1.1993358E1,7.2525144E0],"split_indices":[3,18,3,18,3,3,5,0,0,0,0,0,0,0,0],"split_type":[0,0,0,0,0,0,0,0,0,0,0,0,0,0,0],"sum_hessian":[8.4186E4,8.2182E4,2.004E3,6.2424E4,1.9758E4,1.674E3,3.3E2,5.3578E4,8.846E3,1.6647E4,3.111E3,1.009E3,6.65E2,1.04E2,2.26E2],"tree_param":{"num_deleted":"0","num_feature":"30","num_nodes":"15","size_leaf_vector":"1"}},{"base_weights":[3.5009305E-3,-1.1943239E0,4.1919174E1,-3.2397184E0,5.376686E0,3.4332554E1,8.783943E1,-8.4839666E-1,-2.6878124E-1,2.0079018E-1,1.1782249E0,2.2326887E0,3.997828E0,1.5342135E1,7.360478E0],"categories":[],"categories_nodes":[],"categories_segments":[],"categories_sizes":[],"default_left":[0,0,0,0,0,0,0,0,0,0,0,0,0,0,0],"id":12,"left_children":[1,3,5,7,9,11,13,-1,-1,-1,-1,-1,-1,-1,-1],"loss_changes":[4.22688E6,1.1000932E6,8.118445E5,1.0766425E5,4.667755E5,1.8825325E5,1.70502E5,0E0,0E0,0E0,0E0,0E0,0E0,0E0,0E0],"parents":[2147483647,0,0,1,1,2,2,3,3,4,4,5,5,6,6],"right_children":[2,4,6,8,10,12,14,-1,-1,-1,-1,-1,-1,-1,-1],"split_conditions":[7.4E1,4E0,1.91E2,1E0,2.6E1,1.03E2,6E0,-8.4839666E-1,-2.6878124E-1,2.0079018E-1,1.1782249E0,2.2326887E0,3.997828E0,1.5342135E1,7.360478E0],"split_indices":[3,18,3,18,3,3,5,0,0,0,0,0,0,0,0],"split_type":[0,0,0,0,0,0,0,0,0,0,0,0,0,0,0],"sum_hessian":[8.4186E4,8.1848E4,2.338E3,6.2419E4,1.9429E4,2.008E3,3.3E2,2.771E3,5.9648E4,1.3705E4,5.724E3,9.99E2,1.009E3,2.4E1,3.06E2],"tree_param":{"num_deleted":"0","num_feature":"30","num_nodes":"15","size_leaf_vector":"1"}},{"base_weights":[3.5293794E-3,-1.5528159E0,2.687539E1,-3.424707E0,2.2889569E0,2.0356209E1,6.5105156E1,-7.700538E-1,-2.862945E-1,-4.500905E-4,5.601897E-1,-1.8843619E0,1.9634157E0,1.2412931E1,5.595462E0],"categories":[],"categories_nodes":[],"categories_segments":[],"categories_sizes":[],"default_left":[0,0,0,0,0,0,0,0,0,0,0,0,0,0,0],"id":13,"left_children":[1,3,5,7,9,11,13,-1,-1,-1,-1,-1,-1,-1,-1],"loss_changes":[3.5209015E6,5.722906E5,1.1473602E6,7.436244E4,2.3163223E5,2.0126825E5,1.620575E5,0E0,0E0,0E0,0E0,0E0,0E0,0E0,0E0],"parents":[2147483647,0,0,1,1,2,2,3,3,4,4,5,5,6,6],"right_children":[2,4,6,8,10,12,14,-1,-1,-1,-1,-1,-1,-1,-1],"split_conditions":[4.6E1,3E0,1.43E2,1E0,1.1E1,4E0,6E0,-7.700538E-1,-2.862945E-1,-4.500905E-4,5.601897E-1,-1.8843619E0,1.9634157E0,1.2412931E1,5.595462E0],"split_indices":[3,18,3,18,3,18,5,0,0,0,0,0,0,0,0],"split_type":[0,0,0,0,0,0,0,0,0,0,0,0,0,0,0],"sum_hessian":[8.4186E4,7.9578E4,4.608E3,5.3507E4,2.6071E4,3.938E3,6.7E2,2.769E3,5.0738E4,1.6374E4,9.697E3,1.15E2,3.823E3,3E1,6.4E2],"tree_param":{"num_deleted":"0","num_feature":"30","num_nodes":"15","size_leaf_vector":"1"}},{"base_weights":[3.4174228E-3,-9.246232E-1,3.8042896E1,-2.1137552E0,7.6522646E0,3.0944353E1,7.3849594E1,-2.834141E-1,5.1656842E-2,-2.6306883E-1,8.63696E-1,-5.5719466E0,2.8821182E0,4.306379E0,8.329359E0],"categories":[],"categories_nodes":[],"categories_segments":[],"categories_sizes":[],"default_left":[0,0,0,0,0,0,0,0,0,0,0,0,0,0,0],"id":14,"left_children":[1,3,5,7,9,11,13,-1,-1,-1,-1,-1,-1,-1,-1],"loss_changes":[2.97202E6,8.3820494E5,5.07336E5,1.94302E5,1.9507506E5,1.19099375E5,1.5142788E5,0E0,0E0,0E0,0E0,0E0,0E0,0E0,0E0],"parents":[2147483647,0,0,1,1,2,2,3,3,4,4,5,5,6,6],"right_children":[2,4,6,8,10,12,14,-1,-1,-1,-1,-1,-1,-1,-1],"split_conditions":[8.1E1,1.8E1,1.91E2,3E0,4E0,4E0,2.72E2,-2.834141E-1,5.1656842E-2,-2.6306883E-1,8.63696E-1,-5.5719466E0,2.8821182E0,4.306379E0,8.329359E0],"split_indices":[3,3,3,18,18,18,17,0,0,0,0,0,0,0,0],"split_type":[0,0,0,0,0,0,0,0,0,0,0,0,0,0,0],"sum_hessian":[8.4186E4,8.2182E4,2.004E3,7.2176E4,1.0006E4,1.674E3,3.3E2,5.252E4,1.9656E4,1.492E3,8.514E3,1.3E1,1.661E3,1.34E2,1.96E2],"tree_param":{"num_deleted":"0","num_feature":"30","num_nodes":"15","size_leaf_vector":"1"}},{"base_weights":[3.2292765E-3,-1.0369081E0,2.8367756E1,-2.4385736E0,3.613406E0,2.076977E1,5.445983E1,-3.5447156E-1,-1.404567E-1,-9.794835E-3,6.048649E-1,-3.709628E0,1.9785284E0,4.8655157E0,3.1109562E1],"categories":[],"categories_nodes":[],"categories_segments":[],"categories_sizes":[],"default_left":[0,0,0,0,0,0,0,0,0,0,0,0,0,0,0],"id":15,"left_children":[1,3,5,7,9,11,13,-1,-1,-1,-1,-1,-1,-1,-1],"loss_changes":[2.4837988E6,5.2935056E5,5.8924925E5,8.143525E4,2.1277197E5,1.4209594E5,1.6321338E5,0E0,0E0,0E0,0E0,0E0,0E0,0E0,0E0],"parents":[2147483647,0,0,1,1,2,2,3,3,4,4,5,5,6,6],"right_children":[2,4,6,8,10,12,14,-1,-1,-1,-1,-1,-1,-1,-1],"split_conditions":[6.3E1,4E0,1.43E2,2E0,1.1E1,4E0,9.07E2,-3.5447156E-1,-1.404567E-1,-9.794835E-3,6.048649E-1,-3.709628E0,1.9785284E0,4.8655157E0,3.1109562E1],"split_indices":[3,18,3,18,3,18,3,0,0,0,0,0,0,0,0],"split_type":[0,0,0,0,0,0,0,0,0,0,0,0,0,0,0],"sum_hessian":[8.4186E4,8.1209E4,2.977E3,6.2401E4,1.8808E4,2.307E3,6.7E2,2.3685E4,3.8716E4,8.457E3,1.0351E4,3.6E1,2.271E3,6.69E2,1E0],"tree_param":{"num_deleted":"0","num_feature":"30","num_nodes":"15","size_leaf_vector":"1"}},{"base_weights":[3.3436727E-3,-1.248759E0,1.9716242E1,-2.5951617E0,1.5551369E0,1.5116304E1,4.9562458E1,-6.4196956E-1,-2.1376134E-1,-1.3657362E-2,3.6709225E-1,1.1632409E0,2.5339198E0,4.4238477E0,2.9695463E1],"categories":[],"categories_nodes":[],"categories_segments":[],"categories_sizes":[],"default_left":[0,0,0,0,0,0,0,0,0,0,0,0,0,0,0],"id":16,"left_children":[1,3,5,7,9,11,13,-1,-1,-1,-1,-1,-1,-1,-1],"loss_changes":[2.0779764E6,2.988467E5,6.895486E5,5.8225625E4,1.0873598E5,1.28666625E5,1.5163562E5,0E0,0E0,0E0,0E0,0E0,0E0,0E0,0E0],"parents":[2147483647,0,0,1,1,2,2,3,3,4,4,5,5,6,6],"right_children":[2,4,6,8,10,12,14,-1,-1,-1,-1,-1,-1,-1,-1],"split_conditions":[4.3E1,3E0,1.43E2,1E0,9E0,1.03E2,9.07E2,-6.4196956E-1,-2.1376134E-1,-1.3657362E-2,3.6709225E-1,1.1632409E0,2.5339198E0,4.4238477E0,2.9695463E1],"split_indices":[3,18,3,18,3,3,3,0,0,0,0,0,0,0,0],"split_type":[0,0,0,0,0,0,0,0,0,0,0,0,0,0,0],"sum_hessian":[8.4186E4,7.9159E4,5.027E3,5.3479E4,2.568E4,4.357E3,6.7E2,2.767E3,5.0712E4,1.5224E4,1.0456E4,3.688E3,6.69E2,6.69E2,1E0],"tree_param":{"num_deleted":"0","num_feature":"30","num_nodes":"15","size_leaf_vector":"1"}},{"base_weights":[3.4829276E-3,-7.0268637E-1,2.8948673E1,-1.4719642E0,7.115789E0,2.3238499E1,5.7757114E1,-2.1471141E-1,6.285341E-2,-2.824556E-1,7.5897783E-1,-4.931123E0,2.1706946E0,7.4120483E0,3.6277442E0],"categories":[],"categories_nodes":[],"categories_segments":[],"categories_sizes":[],"default_left":[0,0,0,0,0,0,0,0,0,0,0,0,0,0,0],"id":17,"left_children":[1,3,5,7,9,11,13,-1,-1,-1,-1,-1,-1,-1,-1],"loss_changes":[1.7208198E6,4.9430678E5,3.2848288E5,1.4403181E5,9.28065E4,8.418156E4,1.37232E5,0E0,0E0,0E0,0E0,0E0,0E0,0E0,0E0],"parents":[2147483647,0,0,1,1,2,2,3,3,4,4,5,5,6,6],"right_children":[2,4,6,8,10,12,14,-1,-1,-1,-1,-1,-1,-1,-1],"split_conditions":[8.1E1,2.4E1,1.91E2,3E0,4E0,4E0,9E0,-2.1471141E-1,6.285341E-2,-2.824556E-1,7.5897783E-1,-4.931123E0,2.1706946E0,7.4120483E0,3.6277442E0],"split_indices":[3,3,3,18,18,18,5,0,0,0,0,0,0,0,0],"split_type":[0,0,0,0,0,0,0,0,0,0,0,0,0,0,0],"sum_hessian":[8.4186E4,8.2182E4,2.004E3,7.4821E4,7.361E3,1.674E3,3.3E2,5.3015E4,2.1806E4,7.92E2,6.569E3,1.3E1,1.661E3,1.4E2,1.9E2],"tree_param":{"num_deleted":"0","num_feature":"30","num_nodes":"15","size_leaf_vector":"1"}},{"base_weights":[3.2685886E-3,-1.0418638E0,1.645766E1,-2.143954E0,1.2532501E0,1.2608295E1,4.143392E1,-5.6408495E-1,-1.7475462E-1,-2.5157696E-2,2.969379E-1,-1.1918397E0,1.2356268E0,3.6888077E0,2.8008726E1],"categories":[],"categories_nodes":[],"categories_segments":[],"categories_sizes":[],"default_left":[0,0,0,0,0,0,0,0,0,0,0,0,0,0,0],"id":18,"left_children":[1,3,5,7,9,11,13,-1,-1,-1,-1,-1,-1,-1,-1],"loss_changes":[1.4477826E6,2.0023175E5,4.8288338E5,4.8133688E4,7.9094625E4,1.1039044E5,1.4098712E5,0E0,0E0,0E0,0E0,0E0,0E0,0E0,0E0],"parents":[2147483647,0,0,1,1,2,2,3,3,4,4,5,5,6,6],"right_children":[2,4,6,8,10,12,14,-1,-1,-1,-1,-1,-1,-1,-1],"split_conditions":[4.3E1,3E0,1.43E2,1E0,8E0,4E0,9.07E2,-5.6408495E-1,-1.7475462E-1,-2.5157696E-2,2.969379E-1,-1.1918397E0,1.2356268E0,3.6888077E0,2.8008726E1],"split_indices":[3,18,3,18,3,18,3,0,0,0,0,0,0,0,0],"split_type":[0,0,0,0,0,0,0,0,0,0,0,0,0,0,0],"sum_hessian":[8.4186E4,7.9159E4,5.027E3,5.3479E4,2.568E4,4.357E3,6.7E2,2.767E3,5.0712E4,1.4591E4,1.1089E4,1.6E2,4.197E3,6.69E2,1E0],"tree_param":{"num_deleted":"0","num_feature":"30","num_nodes":"15","size_leaf_vector":"1"}},{"base_weights":[3.342927E-3,-5.349909E-1,2.6866003E1,-1.2069458E0,6.3151383E0,2.136507E1,4.8788574E1,-1.7743196E-1,5.297399E-2,-2.8293598E-1,6.6690886E-1,-5.446569E0,1.9744556E0,2.2637534E0,5.9010887E0],"categories":[],"categories_nodes":[],"categories_segments":[],"categories_sizes":[],"default_left":[0,0,0,0,0,0,0,0,0,0,0,0,0,0,0],"id":19,"left_children":[1,3,5,7,9,11,13,-1,-1,-1,-1,-1,-1,-1,-1],"loss_changes":[1.2174491E6,3.7990978E5,1.9842112E5,1.0018248E5,7.097075E4,3.9343188E4,1.2585906E5,0E0,0E0,0E0,0E0,0E0,0E0,0E0,0E0],"parents":[2147483647,0,0,1,1,2,2,3,3,4,4,5,5,6,6],"right_children":[2,4,6,8,10,12,14,-1,-1,-1,-1,-1,-1,-1,-1],"split_conditions":[9.1E1,2.5E1,1.91E2,3E0,4E0,3E0,2.72E2,-1.7743196E-1,5.297399E-2,-2.8293598E-1,6.6690886E-1,-5.446569E0,1.9744556E0,2.2637534E0,5.9010887E0],"split_indices":[3,3,3,18,18,18,17,0,0,0,0,0,0,0,0],"split_type":[0,0,0,0,0,0,0,0,0,0,0,0,0,0,0],"sum_hessian":[8.4186E4,8.2533E4,1.653E3,7.5161E4,7.372E3,1.323E3,3.3E2,5.3074E4,2.2087E4,7.2E2,6.652E3,5E0,1.318E3,1.34E2,1.96E2],"tree_param":{"num_deleted":"0","num_feature":"30","num_nodes":"15","size_leaf_vector":"1"}},{"base_weights":[3.0978338E-3,-7.380026E-1,1.6360315E1,-1.3828784E0,2.6455898E0,1.3561231E1,4.437783E1,-2.4204972E-1,-6.626148E-2,-1.1062712E-1,3.556302E-1,-2.3488247E0,1.3051308E0,3.8852425E0,2.6632675E1],"categories":[],"categories_nodes":[],"categories_segments":[],"categories_sizes":[],"default_left":[0,0,0,0,0,0,0,0,0,0,0,0,0,0,0],"id":20,"left_children":[1,3,5,7,9,11,13,-1,-1,-1,-1,-1,-1,-1,-1],"loss_changes":[1.0205555E6,1.7573952E5,2.8556506E5,5.661117E4,6.3063227E4,1.04316625E5,1.2249919E5,0E0,0E0,0E0,0E0,0E0,0E0,0E0,0E0],"parents":[2147483647,0,0,1,1,2,2,3,3,4,4,5,5,6,6],"right_children":[2,4,6,8,10,12,14,-1,-1,-1,-1,-1,-1,-1,-1],"split_conditions":[5.5E1,1.1E1,1.91E2,2E0,4E0,4E0,9.07E2,-2.4204972E-1,-6.626148E-2,-1.1062712E-1,3.556302E-1,-2.3488247E0,1.3051308E0,3.8852425E0,2.6632675E1],"split_indices":[3,3,3,18,18,18,3,0,0,0,0,0,0,0,0],"split_type":[0,0,0,0,0,0,0,0,0,0,0,0,0,0,0],"sum_hessian":[8.4186E4,8.0538E4,3.648E3,6.7646E4,1.2892E4,3.318E3,3.3E2,2.2879E4,4.4767E4,3.183E3,9.709E3,6.5E1,3.253E3,3.29E2,1E0],"tree_param":{"num_deleted":"0","num_feature":"30","num_nodes":"15","size_leaf_vector":"1"}},{"base_weights":[3.1655834E-3,-4.0760824E-1,2.540002E1,-9.653859E-1,5.8656163E0,2.500131E1,2.5422075E1,-1.4816616E-1,5.2672077E-2,3.703527E-1,9.810058E-1,6.966513E0,2.1304433E0],"categories":[],"categories_nodes":[],"categories_segments":[],"categories_sizes":[],"default_left":[0,0,0,0,0,0,0,0,0,0,0,0,0],"id":21,"left_children":[1,3,5,7,9,11,-1,-1,-1,-1,-1,-1,-1],"loss_changes":[8.7827975E5,2.8989612E5,1.2884094E5,7.809047E4,5.9657984E4,1.06525125E5,0E0,0E0,0E0,0E0,0E0,0E0,0E0],"parents":[2147483647,0,0,1,1,2,2,3,3,4,4,5,5],"right_children":[2,4,6,8,10,12,-1,-1,-1,-1,-1,-1,-1],"split_conditions":[1.03E2,2.8E1,9.07E2,3E0,5.25E2,6E0,2.5422075E1,-1.4816616E-1,5.2672077E-2,3.703527E-1,9.810058E-1,6.966513E0,2.1304433E0],"split_indices":[3,3,3,18,17,5,0,0,0,0,0,0,0],"split_type":[0,0,0,0,0,0,0,0,0,0,0,0,0],"sum_hessian":[8.4186E4,8.2847E4,1.339E3,7.6083E4,6.764E3,1.338E3,1E0,5.3201E4,2.2882E4,4.961E3,1.803E3,3.8E1,1.3E3],"tree_param":{"num_deleted":"0","num_feature":"30","num_nodes":"13","size_leaf_vector":"1"}},{"base_weights":[3.302717E-3,-3.705371E-1,2.3116644E1,-8.4681326E-1,5.7816725E0,2.2735212E1,2.4266504E1,-1.3473949E-1,5.3361844E-2,-3.867273E-1,5.951186E-1,1.3263503E0,2.9031658E0],"categories":[],"categories_nodes":[],"categories_segments":[],"categories_sizes":[],"default_left":[0,0,0,0,0,0,0,0,0,0,0,0,0],"id":22,"left_children":[1,3,5,7,9,11,-1,-1,-1,-1,-1,-1,-1],"loss_changes":[7.2744206E5,2.4276202E5,1.1854675E5,7.004317E4,4.5700766E4,9.986756E4,0E0,0E0,0E0,0E0,0E0,0E0,0E0],"parents":[2147483647,0,0,1,1,2,2,3,3,4,4,5,5],"right_children":[2,4,6,8,10,12,-1,-1,-1,-1,-1,-1,-1],"split_conditions":[1.03E2,3.1E1,9.07E2,3E0,4E0,2.72E2,2.4266504E1,-1.3473949E-1,5.3361844E-2,-3.867273E-1,5.951186E-1,1.3263503E0,2.9031658E0],"split_indices":[3,3,3,18,18,17,0,0,0,0,0,0,0],"split_type":[0,0,0,0,0,0,0,0,0,0,0,0,0],"sum_hessian":[8.4186E4,8.2847E4,1.339E3,7.6895E4,5.952E3,1.338E3,1E0,5.3285E4,2.361E4,4.21E2,5.531E3,7.11E2,6.27E2],"tree_param":{"num_deleted":"0","num_feature":"30","num_nodes":"13","size_leaf_vector":"1"}},{"base_weights":[3.3423866E-3,-4.834218E-1,1.4893577E1,-1.114343E0,2.1706042E0,1.1956871E1,3.556522E1,-4.4917434E-1,-8.668182E-2,-9.502522E-2,3.0135688E-1,-3.5817432E0,1.1431785E0,8.865826E0,2.7640557E0],"categories":[],"categories_nodes":[],"categories_segments":[],"categories_sizes":[],"default_left":[0,0,0,0,0,0,0,0,0,0,0,0,0,0,0],"id":23,"left_children":[1,3,5,7,9,11,13,-1,-1,-1,-1,-1,-1,-1,-1],"loss_changes":[6.101973E5,1.3651116E5,1.6135775E5,4.053804E4,5.762132E4,7.458425E4,1.0287956E5,0E0,0E0,0E0,0E0,0E0,0E0,0E0,0E0],"parents":[2147483647,0,0,1,1,2,2,3,3,4,4,5,5,6,6],"right_children":[2,4,6,8,10,12,14,-1,-1,-1,-1,-1,-1,-1,-1],"split_conditions":[6.8E1,9E0,1.91E2,1E0,4E0,4E0,6E0,-4.4917434E-1,-8.668182E-2,-9.502522E-2,3.0135688E-1,-3.5817432E0,1.1431785E0,8.865826E0,2.7640557E0],"split_indices":[3,3,3,18,18,18,5,0,0,0,0,0,0,0,0],"split_type":[0,0,0,0,0,0,0,0,0,0,0,0,0,0,0],"sum_hessian":[8.4186E4,8.1522E4,2.664E3,6.5865E4,1.5657E4,2.334E3,3.3E2,2.656E3,6.3209E4,4.109E3,1.1548E4,2.7E1,2.307E3,2.4E1,3.06E2],"tree_param":{"num_deleted":"0","num_feature":"30","num_nodes":"15","size_leaf_vector":"1"}},{"base_weights":[3.1437003E-3,-3.1063676E-1,1.9403202E1,-6.744785E-1,5.331545E0,1.9039186E1,2.3037815E1,-1.8313001E-1,-8.267745E-3,6.9556284E-1,1.9293381E-1,1.2242966E0,2.7058635E0],"categories":[],"categories_nodes":[],"categories_segments":[],"categories_sizes":[],"default_left":[0,0,0,0,0,0,0,0,0,0,0,0,0],"id":24,"left_children":[1,3,5,7,9,11,-1,-1,-1,-1,-1,-1,-1],"loss_changes":[5.1248253E5,1.7007902E5,1.0932025E5,6.0853992E4,3.734517E4,7.961809E4,0E0,0E0,0E0,0E0,0E0,0E0,0E0],"parents":[2147483647,0,0,1,1,2,2,3,3,4,4,5,5],"right_children":[2,4,6,8,10,12,-1,-1,-1,-1,-1,-1,-1],"split_conditions":[1.03E2,3.5E1,9.07E2,2E0,4.6218812E-1,5.25E2,2.3037815E1,-1.8313001E-1,-8.267745E-3,6.9556284E-1,1.9293381E-1,1.2242966E0,2.7058635E0],"split_indices":[3,3,3,18,14,17,0,0,0,0,0,0,0],"split_type":[0,0,0,0,0,0,0,0,0,0,0,0,0],"sum_hessian":[8.4186E4,8.2847E4,1.339E3,7.7829E4,5.018E3,1.338E3,1E0,2.3611E4,5.4218E4,2.912E3,2.106E3,8.82E2,4.56E2],"tree_param":{"num_deleted":"0","num_feature":"30","num_nodes":"13","size_leaf_vector":"1"}},{"base_weights":[3.186467E-3,-5.651476E-1,8.950943E0,-1.0605111E0,9.740453E-1,7.437502E0,3.0404707E1,-3.9247563E-1,-8.312474E-2,2.0199949E-2,3.0175236E-1,-9.5053613E-1,7.3371255E-1,-2.930189E0,3.179021E0],"categories":[],"categories_nodes":[],"categories_segments":[],"categories_sizes":[],"default_left":[0,0,0,0,0,0,0,0,0,0,0,0,0,0,0],"id":25,"left_children":[1,3,5,7,9,11,13,-1,-1,-1,-1,-1,-1,-1,-1],"loss_changes":[4.2812247E5,6.0357367E4,1.6302812E5,2.8501062E4,3.3983434E4,5.331078E4,9.574722E4,0E0,0E0,0E0,0E0,0E0,0E0,0E0,0E0],"parents":[2147483647,0,0,1,1,2,2,3,3,4,4,5,5,6,6],"right_children":[2,4,6,8,10,12,14,-1,-1,-1,-1,-1,-1,-1,-1],"split_conditions":[4.3E1,4E0,1.91E2,1E0,5.25E2,4E0,1.0062E3,-3.9247563E-1,-8.312474E-2,2.0199949E-2,3.0175236E-1,-9.5053613E-1,7.3371255E-1,-2.930189E0,3.179021E0],"split_indices":[3,3,3,18,17,18,12,0,0,0,0,0,0,0,0],"split_type":[0,0,0,0,0,0,0,0,0,0,0,0,0,0,0],"sum_hessian":[8.4186E4,7.9159E4,5.027E3,5.9886E4,1.9273E4,4.697E3,3.3E2,2.571E3,5.7315E4,1.4595E4,4.678E3,1.6E2,4.537E3,2.2E1,3.08E2],"tree_param":{"num_deleted":"0","num_feature":"30","num_nodes":"15","size_leaf_vector":"1"}},{"base_weights":[2.895372E-3,-2.6280937E-1,1.6430584E1,-7.575799E-1,2.7384977E0,1.6083927E1,2.1846119E1,-1.561677E-1,-2.6555184E-2,1.4101511E-1,5.648274E-1,5.192677E0,1.3492516E0],"categories":[],"categories_nodes":[],"categories_segments":[],"categories_sizes":[],"default_left":[0,0,0,0,0,0,0,0,0,0,0,0,0],"id":26,"left_children":[1,3,5,7,9,11,-1,-1,-1,-1,-1,-1,-1],"loss_changes":[3.674734E5,1.230279E5,1.0012831E5,3.178959E4,4.8361477E4,6.741872E4,0E0,0E0,0E0,0E0,0E0,0E0,0E0],"parents":[2147483647,0,0,1,1,2,2,3,3,4,4,5,5],"right_children":[2,4,6,8,10,12,-1,-1,-1,-1,-1,-1,-1],"split_conditions":[1.03E2,1.6E1,9.07E2,2E0,5.25E2,6E0,2.1846119E1,-1.561677E-1,-2.6555184E-2,1.4101511E-1,5.648274E-1,5.192677E0,1.3492516E0],"split_indices":[3,3,3,18,17,5,0,0,0,0,0,0,0],"split_type":[0,0,0,0,0,0,0,0,0,0,0,0,0],"sum_hessian":[8.4186E4,8.2847E4,1.339E3,7.1123E4,1.1724E4,1.338E3,1E0,2.322E4,4.7903E4,8.739E3,2.985E3,3.8E1,1.3E3],"tree_param":{"num_deleted":"0","num_feature":"30","num_nodes":"13","size_leaf_vector":"1"}},{"base_weights":[2.975506E-3,-3.631044E-1,9.985966E0,-8.3189493E-1,1.3569921E0,9.835219E0,2.0853094E1,-3.4264323E-1,-6.4182185E-2,-8.2016364E-2,2.1086597E-1,7.260138E-1,2.240411E0],"categories":[],"categories_nodes":[],"categories_segments":[],"categories_sizes":[],"default_left":[0,0,0,0,0,0,0,0,0,0,0,0,0],"id":27,"left_children":[1,3,5,7,9,11,-1,-1,-1,-1,-1,-1,-1],"loss_changes":[3.076711E5,6.548603E4,9.623503E4,2.3596953E4,3.7821594E4,8.132784E4,0E0,0E0,0E0,0E0,0E0,0E0,0E0],"parents":[2147483647,0,0,1,1,2,2,3,3,4,4,5,5],"right_children":[2,4,6,8,10,12,-1,-1,-1,-1,-1,-1,-1],"split_conditions":[6.3E1,7E0,9.07E2,1E0,4E0,1.91E2,2.0853094E1,-3.4264323E-1,-6.4182185E-2,-8.2016364E-2,2.1086597E-1,7.260138E-1,2.240411E0],"split_indices":[3,3,3,18,18,3,0,0,0,0,0,0,0],"split_type":[0,0,0,0,0,0,0,0,0,0,0,0,0],"sum_hessian":[8.4186E4,8.1209E4,2.977E3,6.3817E4,1.7392E4,2.976E3,1E0,2.622E3,6.1195E4,5.196E3,1.2196E4,2.647E3,3.29E2],"tree_param":{"num_deleted":"0","num_feature":"30","num_nodes":"13","size_leaf_vector":"1"}},{"base_weights":[2.984702E-3,-2.2091076E-1,1.3845737E1,-5.701E-1,2.7185442E0,1.3529037E1,1.9905207E1,-1.3394949E-1,-1.3797495E-2,1.3472411E-1,5.652133E-1,6.457207E-1,1.8903375E0],"categories":[],"categories_nodes":[],"categories_segments":[],"categories_sizes":[],"default_left":[0,0,0,0,0,0,0,0,0,0,0,0,0],"id":28,"left_children":[1,3,5,7,9,11,-1,-1,-1,-1,-1,-1,-1],"loss_changes":[2.609263E5,8.503891E4,8.408056E4,2.7982875E4,3.805097E4,6.2359516E4,0E0,0E0,0E0,0E0,0E0,0E0,0E0],"parents":[2147483647,0,0,1,1,2,2,3,3,4,4,5,5],"right_children":[2,4,6,8,10,12,-1,-1,-1,-1,-1,-1,-1],"split_conditions":[1.03E2,2.2E1,9.07E2,2E0,5.25E2,2.72E2,1.9905207E1,-1.3394949E-1,-1.3797495E-2,1.3472411E-1,5.652133E-1,6.457207E-1,1.8903375E0],"split_indices":[3,3,3,18,17,17,0,0,0,0,0,0,0],"split_type":[0,0,0,0,0,0,0,0,0,0,0,0,0],"sum_hessian":[8.4186E4,8.2847E4,1.339E3,7.4051E4,8.796E3,1.338E3,1E0,2.3438E4,5.0613E4,6.5E3,2.296E3,7.11E2,6.27E2],"tree_param":{"num_deleted":"0","num_feature":"30","num_nodes":"13","size_leaf_vector":"1"}},{"base_weights":[2.9864742E-3,-4.0495107E-1,6.425487E0,-8.5488594E-1,5.320421E-1,4.755395E0,1.72628E1,-3.0532274E-1,-6.529386E-2,-3.0142551E-2,1.1595339E-1,-9.205232E-1,4.8409766E-1,1.5150009E0,1.9000408E1],"categories":[],"categories_nodes":[],"categories_segments":[],"categories_sizes":[],"default_left":[0,0,0,0,0,0,0,0,0,0,0,0,0,0,0],"id":29,"left_children":[1,3,5,7,9,11,13,-1,-1,-1,-1,-1,-1,-1,-1],"loss_changes":[2.2057078E5,3.337319E4,9.0921266E4,1.8296328E4,1.648815E4,3.6991555E4,7.346831E4,0E0,0E0,0E0,0E0,0E0,0E0,0E0,0E0],"parents":[2147483647,0,0,1,1,2,2,3,3,4,4,5,5,6,6],"right_children":[2,4,6,8,10,12,14,-1,-1,-1,-1,-1,-1,-1,-1],"split_conditions":[4.3E1,3E0,1.43E2,1E0,4E0,4E0,9.07E2,-3.0532274E-1,-6.529386E-2,-3.0142551E-2,1.1595339E-1,-9.205232E-1,4.8409766E-1,1.5150009E0,1.9000408E1],"split_indices":[3,18,3,18,3,18,3,0,0,0,0,0,0,0,0],"split_type":[0,0,0,0,0,0,0,0,0,0,0,0,0,0,0],"sum_hessian":[8.4186E4,7.9159E4,5.027E3,5.3479E4,2.568E4,4.357E3,6.7E2,2.767E3,5.0712E4,1.188E4,1.38E4,1.6E2,4.197E3,6.69E2,1E0],"tree_param":{"num_deleted":"0","num_feature":"30","num_nodes":"15","size_leaf_vector":"1"}},{"base_weights":[2.9500804E-3,-1.5970922E-1,1.3589245E1,-3.681402E-1,3.9314277E0,1.3201897E1,1.8136736E1,-7.06536E-2,4.3971512E-2,5.5646247E-1,7.135557E-2,4.829681E0,1.06284E0],"categories":[],"categories_nodes":[],"categories_segments":[],"categories_sizes":[],"default_left":[0,0,0,0,0,0,0,0,0,0,0,0,0],"id":30,"left_children":[1,3,5,7,9,11,-1,-1,-1,-1,-1,-1,-1],"loss_changes":[1.8605017E5,7.094089E4,6.9090375E4,2.7581504E4,2.7780371E4,5.939722E4,0E0,0E0,0E0,0E0,0E0,0E0,0E0],"parents":[2147483647,0,0,1,1,2,2,3,3,4,4,5,5],"right_children":[2,4,6,8,10,12,-1,-1,-1,-1,-1,-1,-1],"split_conditions":[1.2E2,4.3E1,9.07E2,3E0,4.6218812E-1,6E0,1.8136736E1,-7.06536E-2,4.3971512E-2,5.5646247E-1,7.135557E-2,4.829681E0,1.06284E0],"split_indices":[3,3,3,18,14,5,0,0,0,0,0,0,0],"split_type":[0,0,0,0,0,0,0,0,0,0,0,0,0],"sum_hessian":[8.4186E4,8.3191E4,9.95E2,7.9159E4,4.032E3,9.94E2,1E0,5.3479E4,2.568E4,2.377E3,1.655E3,3.5E1,9.59E2],"tree_param":{"num_deleted":"0","num_feature":"30","num_nodes":"13","size_leaf_vector":"1"}},{"base_weights":[2.9744064E-3,-2.0873597E-1,8.680776E0,-5.779899E-1,1.1756635E0,8.495055E0,1.7312323E1,-2.654039E-1,-4.350889E-2,3.5058744E-2,3.2395738E-1,3.520324E-1,1.2936989E0],"categories":[],"categories_nodes":[],"categories_segments":[],"categories_sizes":[],"default_left":[0,0,0,0,0,0,0,0,0,0,0,0,0],"id":31,"left_children":[1,3,5,7,9,11,-1,-1,-1,-1,-1,-1,-1],"loss_changes":[1.5466852E5,4.201221E4,6.606066E4,1.509842E4,3.264312E4,5.307747E4,0E0,0E0,0E0,0E0,0E0,0E0,0E0],"parents":[2147483647,0,0,1,1,2,2,3,3,4,4,5,5],"right_children":[2,4,6,8,10,12,-1,-1,-1,-1,-1,-1,-1],"split_conditions":[8.1E1,8E0,9.07E2,1E0,5.25E2,2.72E2,1.7312323E1,-2.654039E-1,-4.350889E-2,3.5058744E-2,3.2395738E-1,3.520324E-1,1.2936989E0],"split_indices":[3,3,3,18,17,17,0,0,0,0,0,0,0],"split_type":[0,0,0,0,0,0,0,0,0,0,0,0,0],"sum_hessian":[8.4186E4,8.2182E4,2.004E3,6.4878E4,1.7304E4,2.003E3,1E0,2.641E3,6.2237E4,1.3003E4,4.301E3,1.11E3,8.93E2],"tree_param":{"num_deleted":"0","num_feature":"30","num_nodes":"13","size_leaf_vector":"1"}},{"base_weights":[2.929801E-3,-1.353238E-1,1.1550711E1,-3.1066865E-1,3.3063908E0,1.119694E1,1.6525383E1,-1.02079675E-1,3.220477E-3,-7.57975E-1,3.4366018E-1,5.385027E-1,1.8657598E0],"categories":[],"categories_nodes":[],"categories_segments":[],"categories_sizes":[],"default_left":[0,0,0,0,0,0,0,0,0,0,0,0,0],"id":32,"left_children":[1,3,5,7,9,11,-1,-1,-1,-1,-1,-1,-1],"loss_changes":[1.3440797E5,5.0206316E4,5.794417E4,2.2251281E4,2.2281066E4,4.881353E4,0E0,0E0,0E0,0E0,0E0,0E0,0E0],"parents":[2147483647,0,0,1,1,2,2,3,3,4,4,5,5],"right_children":[2,4,6,8,10,12,-1,-1,-1,-1,-1,-1,-1],"split_conditions":[1.2E2,4.3E1,9.07E2,2E0,4E0,5.25E2,1.6525383E1,-1.02079675E-1,3.220477E-3,-7.57975E-1,3.4366018E-1,5.385027E-1,1.8657598E0],"split_indices":[3,3,3,18,18,17,0,0,0,0,0,0,0],"split_type":[0,0,0,0,0,0,0,0,0,0,0,0,0],"sum_hessian":[8.4186E4,8.3191E4,9.95E2,7.9159E4,4.032E3,9.94E2,1E0,2.3652E4,5.5507E4,1.57E2,3.875E3,6.36E2,3.58E2],"tree_param":{"num_deleted":"0","num_feature":"30","num_nodes":"13","size_leaf_vector":"1"}},{"base_weights":[2.8824091E-3,-1.2302736E-1,1.0519632E1,-3.927075E-1,1.7468711E0,1.0181435E1,1.5774215E1,-2.3643912E-1,-2.7881555E-2,5.4243937E-2,3.6563873E-1,4.17372E0,8.028345E-1],"categories":[],"categories_nodes":[],"categories_segments":[],"categories_sizes":[],"default_left":[0,0,0,0,0,0,0,0,0,0,0,0,0],"id":33,"left_children":[1,3,5,7,9,11,-1,-1,-1,-1,-1,-1,-1],"loss_changes":[1.11478484E5,4.1952285E4,5.3136797E4,1.3808469E4,2.7437277E4,4.7602195E4,0E0,0E0,0E0,0E0,0E0,0E0,0E0],"parents":[2147483647,0,0,1,1,2,2,3,3,4,4,5,5],"right_children":[2,4,6,8,10,12,-1,-1,-1,-1,-1,-1,-1],"split_conditions":[1.2E2,1.9E1,9.07E2,1E0,2.72E2,6E0,1.5774215E1,-2.3643912E-1,-2.7881555E-2,5.4243937E-2,3.6563873E-1,4.17372E0,8.028345E-1],"split_indices":[3,3,3,18,17,5,0,0,0,0,0,0,0],"split_type":[0,0,0,0,0,0,0,0,0,0,0,0,0],"sum_hessian":[8.4186E4,8.3191E4,9.95E2,7.2706E4,1.0485E4,9.94E2,1E0,2.725E3,6.9981E4,6.965E3,3.52E3,3.5E1,9.59E2],"tree_param":{"num_deleted":"0","num_feature":"30","num_nodes":"13","size_leaf_vector":"1"}},{"base_weights":[2.868672E-3,-2.426691E-1,4.5093613E0,-5.802075E-1,4.4353405E-1,4.434231E0,1.505719E1,-2.184396E-1,-4.3701712E-2,-2.8979767E-2,9.1382466E-2,1.680509E-1,7.6163185E-1],"categories":[],"categories_nodes":[],"categories_segments":[],"categories_sizes":[],"default_left":[0,0,0,0,0,0,0,0,0,0,0,0,0],"id":34,"left_children":[1,3,5,7,9,11,-1,-1,-1,-1,-1,-1,-1],"loss_changes":[9.315519E4,1.8492328E4,5.1921266E4,9.703436E3,1.1270979E4,4.4330742E4,0E0,0E0,0E0,0E0,0E0,0E0,0E0],"parents":[2147483647,0,0,1,1,2,2,3,3,4,4,5,5],"right_children":[2,4,6,8,10,12,-1,-1,-1,-1,-1,-1,-1],"split_conditions":[4.8E1,3E0,9.07E2,1E0,3E0,2.72E2,1.505719E1,-2.184396E-1,-4.3701712E-2,-2.8979767E-2,9.1382466E-2,1.680509E-1,7.6163185E-1],"split_indices":[3,18,3,18,3,17,0,0,0,0,0,0,0],"split_type":[0,0,0,0,0,0,0,0,0,0,0,0,0],"sum_hessian":[8.4186E4,7.9837E4,4.349E3,5.3514E4,2.6323E4,4.348E3,1E0,2.769E3,5.0745E4,1.1167E4,1.5156E4,2.627E3,1.721E3],"tree_param":{"num_deleted":"0","num_feature":"30","num_nodes":"13","size_leaf_vector":"1"}},{"base_weights":[2.7953659E-3,-1.0626578E-1,9.112246E0,-4.5343536E-1,9.379407E-1,8.80362E0,1.4372759E1,-3.9634936E-2,-2.1473181E0,-9.2454344E-2,1.4476746E-1,-8.8370305E-1,1.0063885E0],"categories":[],"categories_nodes":[],"categories_segments":[],"categories_sizes":[],"default_left":[0,0,0,0,0,0,0,0,0,0,0,0,0],"id":35,"left_children":[1,3,5,7,9,11,-1,-1,-1,-1,-1,-1,-1],"loss_changes":[8.3639664E4,3.0158916E4,4.4404805E4,2.5243309E4,2.6560156E4,4.1881555E4,0E0,0E0,0E0,0E0,0E0,0E0,0E0],"parents":[2147483647,0,0,1,1,2,2,3,3,4,4,5,5],"right_children":[2,4,6,8,10,12,-1,-1,-1,-1,-1,-1,-1],"split_conditions":[1.2E2,4E0,9.07E2,5.9E1,4E0,1.0083E3,1.4372759E1,-3.9634936E-2,-2.1473181E0,-9.2454344E-2,1.4476746E-1,-8.8370305E-1,1.0063885E0],"split_indices":[3,18,3,3,3,12,0,0,0,0,0,0,0],"split_type":[0,0,0,0,0,0,0,0,0,0,0,0,0],"sum_hessian":[8.4186E4,8.3191E4,9.95E2,6.2434E4,2.0757E4,9.94E2,1E0,6.2388E4,4.6E1,5.206E3,1.5551E4,1.08E2,8.86E2],"tree_param":{"num_deleted":"0","num_feature":"30","num_nodes":"13","size_leaf_vector":"1"}},{"base_weights":[2.6879127E-3,-5.4894153E-2,1.4590775E1,-2.2328134E-1,2.782395E0,2.908095E1,-1.267032E0,-7.883389E-2,4.644611E-3,-5.9399385E-2,3.7489375E-1,-4.2603297E0,3.523244E0,-5.181314E-1,3.2810624E0],"categories":[],"categories_nodes":[],"categories_segments":[],"categories_sizes":[],"default_left":[0,0,0,0,0,0,0,0,0,0,0,0,0,0,0],"id":36,"left_children":[1,3,5,7,9,11,13,-1,-1,-1,-1,-1,-1,-1,-1],"loss_changes":[7.071891E4,4.0064406E4,7.609482E4,1.3984492E4,2.1653883E4,1.289153E5,2.653323E4,0E0,0E0,0E0,0E0,0E0,0E0,0E0,0E0],"parents":[2147483647,0,0,1,1,2,2,3,3,4,4,5,5,6,6],"right_children":[2,4,6,8,10,12,14,-1,-1,-1,-1,-1,-1,-1,-1],"split_conditions":[1.91E2,4.3E1,1E1,2E0,1.0138E3,1.0083E3,1E0,-7.883389E-2,4.644611E-3,-5.9399385E-2,3.7489375E-1,-4.2603297E0,3.523244E0,-5.181314E-1,3.2810624E0],"split_indices":[3,3,5,18,12,12,29,0,0,0,0,0,0,0,0],"split_type":[0,0,0,0,0,0,0,0,0,0,0,0,0,0,0],"sum_hessian":[8.4186E4,8.3856E4,3.3E2,7.9159E4,4.697E3,1.72E2,1.58E2,2.3652E4,5.5507E4,1.319E3,3.378E3,1.9E1,1.53E2,1.42E2,1.6E1],"tree_param":{"num_deleted":"0","num_feature":"30","num_nodes":"15","size_leaf_vector":"1"}},{"base_weights":[2.47052E-3,-7.328024E-2,9.430897E0,-2.0713444E-1,2.2126293E0,4.539516E1,7.676882E0,-7.161096E-2,3.7532125E-3,-1.0267966E-1,3.1850404E-1,1.1338606E1,-2.4791038E0,6.5662974E-1,1.3559289E1],"categories":[],"categories_nodes":[],"categories_segments":[],"categories_sizes":[],"default_left":[0,0,0,0,0,0,0,0,0,0,0,0,0,0,0],"id":37,"left_children":[1,3,5,7,9,11,13,-1,-1,-1,-1,-1,-1,-1,-1],"loss_changes":[6.012792E4,2.5554875E4,4.197942E4,1.1379077E4,1.9935178E4,1.820939E5,4.0101902E4,0E0,0E0,0E0,0E0,0E0,0E0,0E0,0E0],"parents":[2147483647,0,0,1,1,2,2,3,3,4,4,5,5,6,6],"right_children":[2,4,6,8,10,12,14,-1,-1,-1,-1,-1,-1,-1,-1],"split_conditions":[1.43E2,4.1E1,6E0,2E0,1.0138E3,3E1,9.07E2,-7.161096E-2,3.7532125E-3,-1.0267966E-1,3.1850404E-1,1.1338606E1,-2.4791038E0,6.5662974E-1,1.3559289E1],"split_indices":[3,3,5,18,12,6,3,0,0,0,0,0,0,0,0],"split_type":[0,0,0,0,0,0,0,0,0,0,0,0,0,0,0],"sum_hessian":[8.4186E4,8.3516E4,6.7E2,7.8897E4,4.619E3,3E1,6.4E2,2.3642E4,5.5255E4,1.287E3,3.332E3,1.4E1,1.6E1,6.39E2,1E0],"tree_param":{"num_deleted":"0","num_feature":"30","num_nodes":"15","size_leaf_vector":"1"}},{"base_weights":[2.5217126E-3,-8.204225E-2,7.065817E0,-4.4379225E-1,5.7262677E-1,6.7867484E0,1.2942946E1,-3.9429136E-2,-2.925606E0,6.885373E-3,1.4852567E-1,2.3793772E-1,1.2878493E0],"categories":[],"categories_nodes":[],"categories_segments":[],"categories_sizes":[],"default_left":[0,0,0,0,0,0,0,0,0,0,0,0,0],"id":38,"left_children":[1,3,5,7,9,11,-1,-1,-1,-1,-1,-1,-1],"loss_changes":[5.0285492E4,1.9702326E4,3.664181E4,1.7128543E4,1.5611542E4,3.0577035E4,0E0,0E0,0E0,0E0,0E0,0E0,0E0],"parents":[2147483647,0,0,1,1,2,2,3,3,4,4,5,5],"right_children":[2,4,6,8,10,12,-1,-1,-1,-1,-1,-1,-1],"split_conditions":[1.2E2,3E0,9.07E2,6.8E1,5.25E2,5.25E2,1.2942946E1,-3.9429136E-2,-2.925606E0,6.885373E-3,1.4852567E-1,2.3793772E-1,1.2878493E0],"split_indices":[3,18,3,3,17,17,0,0,0,0,0,0,0],"split_type":[0,0,0,0,0,0,0,0,0,0,0,0,0],"sum_hessian":[8.4186E4,8.3191E4,9.95E2,5.3583E4,2.9608E4,9.94E2,1E0,5.3567E4,1.6E1,2.0166E4,9.442E3,6.36E2,3.58E2],"tree_param":{"num_deleted":"0","num_feature":"30","num_nodes":"13","size_leaf_vector":"1"}},{"base_weights":[2.4310667E-3,-4.3144226E-2,1.1548669E1,-1.7542703E-1,2.1857939E0,-2.5579775E1,1.703301E1,-1.7744857E-1,-1.0096262E-2,-7.92699E-1,2.3384209E-1,9.4688314E-1,-3.6227453E0,-2.6482996E-1,2.8936822E0],"categories":[],"categories_nodes":[],"categories_segments":[],"categories_sizes":[],"default_left":[0,0,0,0,0,0,0,0,0,0,0,0,0,0,0],"id":39,"left_children":[1,3,5,7,9,11,13,-1,-1,-1,-1,-1,-1,-1,-1],"loss_changes":[4.430165E4,2.4725637E4,6.783558E4,9.051878E3,1.9819895E4,2.2501568E4,8.53881E4,0E0,0E0,0E0,0E0,0E0,0E0,0E0,0E0],"parents":[2147483647,0,0,1,1,2,2,3,3,4,4,5,5,6,6],"right_children":[2,4,6,8,10,12,14,-1,-1,-1,-1,-1,-1,-1,-1],"split_conditions":[1.91E2,4.3E1,3.7E1,1E0,4E0,2.5587444E1,2.72E2,-1.7744857E-1,-1.0096262E-2,-7.92699E-1,2.3384209E-1,9.4688314E-1,-3.6227453E0,-2.6482996E-1,2.8936822E0],"split_indices":[3,3,7,18,18,16,17,0,0,0,0,0,0,0,0],"split_type":[0,0,0,0,0,0,0,0,0,0,0,0,0,0,0],"sum_hessian":[8.4186E4,8.3856E4,3.3E2,7.9159E4,4.697E3,4.2E1,2.88E2,2.767E3,7.6392E4,1.6E2,4.537E3,1.2E1,3E1,1.23E2,1.65E2],"tree_param":{"num_deleted":"0","num_feature":"30","num_nodes":"15","size_leaf_vector":"1"}},{"base_weights":[2.2006787E-3,-1.1790045E-1,3.6761227E0,-3.6145094E-1,4.4136843E-1,-3.3195602E1,4.0660896E0,-1.541311E-1,-2.723303E-2,-3.326107E-3,1.7536373E-1,-2.2848032E0,-5.3248463E0,3.6041254E-1,1.2366658E1],"categories":[],"categories_nodes":[],"categories_segments":[],"categories_sizes":[],"default_left":[0,0,0,0,0,0,0,0,0,0,0,0,0,0,0],"id":40,"left_children":[1,3,5,7,9,11,13,-1,-1,-1,-1,-1,-1,-1,-1],"loss_changes":[3.714729E4,1.1104425E4,3.8454336E4,4.688426E3,1.7584604E4,4.257244E3,3.4839953E4,0E0,0E0,0E0,0E0,0E0,0E0,0E0,0E0],"parents":[2147483647,0,0,1,1,2,2,3,3,4,4,5,5,6,6],"right_children":[2,4,6,8,10,12,14,-1,-1,-1,-1,-1,-1,-1,-1],"split_conditions":[6.8E1,2E0,4E0,1E0,5.25E2,9.1E1,9.07E2,-1.541311E-1,-2.723303E-2,-3.326107E-3,1.7536373E-1,-2.2848032E0,-5.3248463E0,3.6041254E-1,1.2366658E1],"split_indices":[3,3,18,18,17,3,3,0,0,0,0,0,0,0,0],"split_type":[0,0,0,0,0,0,0,0,0,0,0,0,0,0,0],"sum_hessian":[8.4186E4,8.1522E4,2.664E3,5.6791E4,2.4731E4,2.7E1,2.637E3,2.517E3,5.4274E4,1.8718E4,6.013E3,2.2E1,5E0,2.636E3,1E0],"tree_param":{"num_deleted":"0","num_feature":"30","num_nodes":"15","size_leaf_vector":"1"}},{"base_weights":[2.061361E-3,-3.7809182E-2,1.0103035E1,-1.4714487E-1,1.8044748E0,1.6684029E1,-1.7085098E1,-5.5611834E-2,4.620201E-3,-9.2395745E-2,2.6417646E-1,-1.10313706E-1,2.8457332E0,-1.9870269E0,1.7860228E0],"categories":[],"categories_nodes":[],"categories_segments":[],"categories_sizes":[],"default_left":[0,0,0,0,0,0,0,0,0,0,0,0,0,0,0],"id":41,"left_children":[1,3,5,7,9,11,13,-1,-1,-1,-1,-1,-1,-1,-1],"loss_changes":[3.390512E4,1.6891361E4,5.9509207E4,7.2803584E3,1.4599005E4,6.989388E4,1.1822057E4,0E0,0E0,0E0,0E0,0E0,0E0,0E0,0E0],"parents":[2147483647,0,0,1,1,2,2,3,3,4,4,5,5,6,6],"right_children":[2,4,6,8,10,12,14,-1,-1,-1,-1,-1,-1,-1,-1],"split_conditions":[1.91E2,4.3E1,1.5E1,2E0,1.0138E3,4E0,3E2,-5.5611834E-2,4.620201E-3,-9.2395745E-2,2.6417646E-1,-1.10313706E-1,2.8457332E0,-1.9870269E0,1.7860228E0],"split_indices":[3,3,5,18,12,1,9,0,0,0,0,0,0,0,0],"split_type":[0,0,0,0,0,0,0,0,0,0,0,0,0,0,0],"sum_hessian":[8.4186E4,8.3856E4,3.3E2,7.9159E4,4.697E3,2.66E2,6.4E1,2.3652E4,5.5507E4,1.319E3,3.378E3,1.2E2,1.46E2,5.7E1,7E0],"tree_param":{"num_deleted":"0","num_feature":"30","num_nodes":"15","size_leaf_vector":"1"}},{"base_weights":[1.905442E-3,-1.1455037E-3,1.1675175E1,-7.021199E-2,4.2722087E0,-2.5624743E-2,4.8285164E-2,-4.4934106E-1,5.6896335E-1],"categories":[],"categories_nodes":[],"categories_segments":[],"categories_sizes":[],"default_left":[0,0,0,0,0,0,0,0,0],"id":42,"left_children":[1,3,-1,5,7,-1,-1,-1,-1],"loss_changes":[3.298546E4,2.4847424E4,0E0,1.0544719E4,2.4538883E4,0E0,0E0,0E0,0E0],"parents":[2147483647,0,0,1,1,3,3,4,4],"right_children":[2,4,-1,6,8,-1,-1,-1,-1],"split_conditions":[9.07E2,1.03E2,1.1675175E1,5E0,1.0108E3,-2.5624743E-2,4.8285164E-2,-4.4934106E-1,5.6896335E-1],"split_indices":[3,3,0,3,12,0,0,0,0],"split_type":[0,0,0,0,0,0,0,0,0],"sum_hessian":[8.4186E4,8.4185E4,1E0,8.2847E4,1.338E3,6.1279E4,2.1568E4,2.37E2,1.101E3],"tree_param":{"num_deleted":"0","num_feature":"30","num_nodes":"9","size_leaf_vector":"1"}},{"base_weights":[1.8724642E-3,-1.0397988E-3,1.1144474E1,-3.266362E-2,8.03496E0,-2.3590164E-2,5.7138715E-2,-7.301881E-1,1.720298E0],"categories":[],"categories_nodes":[],"categories_segments":[],"categories_sizes":[],"default_left":[0,0,0,0,0,0,0,0,0],"id":43,"left_children":[1,3,-1,5,7,-1,-1,-1,-1],"loss_changes":[3.0054855E4,2.139437E4,0E0,1.2576221E4,5.7880625E4,0E0,0E0,0E0,0E0],"parents":[2147483647,0,0,1,1,3,3,4,4],"right_children":[2,4,-1,6,8,-1,-1,-1,-1],"split_conditions":[9.07E2,1.91E2,1.1144474E1,4E0,2.72E2,-2.3590164E-2,5.7138715E-2,-7.301881E-1,1.720298E0],"split_indices":[3,3,0,18,17,0,0,0,0],"split_type":[0,0,0,0,0,0,0,0,0],"sum_hessian":[8.4186E4,8.4185E4,1E0,8.3856E4,3.29E2,6.2437E4,2.1419E4,1.33E2,1.96E2],"tree_param":{"num_deleted":"0","num_feature":"30","num_nodes":"9","size_leaf_vector":"1"}},{"base_weights":[1.8466993E-3,-9.3318487E-4,1.06378975E1,-9.7416736E-2,2.3654885E0,-1.4018063E-1,-4.1978504E-3,-2.035629E0,2.496189E-1],"categories":[],"categories_nodes":[],"categories_segments":[],"categories_sizes":[],"default_left":[0,0,0,0,0,0,0,0,0],"id":44,"left_children":[1,3,-1,5,7,-1,-1,-1,-1],"loss_changes":[2.7384615E4,1.9221643E4,0E0,5.98734E3,3.1109594E4,0E0,0E0,0E0,0E0],"parents":[2147483647,0,0,1,1,3,3,4,4],"right_children":[2,4,-1,6,8,-1,-1,-1,-1],"split_conditions":[9.07E2,5.9E1,1.06378975E1,1E0,4E0,-1.4018063E-1,-4.1978504E-3,-2.035629E0,2.496189E-1],"split_indices":[3,3,0,18,18,0,0,0,0],"split_type":[0,0,0,0,0,0,0,0,0],"sum_hessian":[8.4186E4,8.4185E4,1E0,8.0888E4,3.297E3,2.77E3,7.8118E4,4.9E1,3.248E3],"tree_param":{"num_deleted":"0","num_feature":"30","num_nodes":"9","size_leaf_vector":"1"}},{"base_weights":[1.7822381E-3,-8.7128516E-4,1.0154348E1,-4.0903687E-2,4.9892583E0,-2.5839668E-2,3.588603E-2,3.238333E0,3.1798252E-1],"categories":[],"categories_nodes":[],"categories_segments":[],"categories_sizes":[],"default_left":[0,0,0,0,0,0,0,0,0],"id":45,"left_children":[1,3,-1,5,7,-1,-1,-1,-1],"loss_changes":[2.4951633E4,1.6817777E4,0E0,8.853214E3,3.0486227E4,0E0,0E0,0E0,0E0],"parents":[2147483647,0,0,1,1,3,3,4,4],"right_children":[2,4,-1,6,8,-1,-1,-1,-1],"split_conditions":[9.07E2,1.43E2,1.0154348E1,3E0,6E0,-2.5839668E-2,3.588603E-2,3.238333E0,3.1798252E-1],"split_indices":[3,3,0,18,5,0,0,0,0],"split_type":[0,0,0,0,0,0,0,0,0],"sum_hessian":[8.4186E4,8.4185E4,1E0,8.3516E4,6.69E2,5.3586E4,2.993E4,3E1,6.39E2],"tree_param":{"num_deleted":"0","num_feature":"30","num_nodes":"9","size_leaf_vector":"1"}},{"base_weights":[1.7831585E-3,-7.4974674E-4,9.692778E0,-8.3584286E-2,2.030907E0,-2.84238E-2,1.7742123E-2,-1.8534261E0,2.1593906E-1],"categories":[],"categories_nodes":[],"categories_segments":[],"categories_sizes":[],"default_left":[0,0,0,0,0,0,0,0,0],"id":46,"left_children":[1,3,-1,5,7,-1,-1,-1,-1],"loss_changes":[2.2734775E4,1.4167944E4,0E0,5.165005E3,2.5509969E4,0E0,0E0,0E0,0E0],"parents":[2147483647,0,0,1,1,3,3,4,4],"right_children":[2,4,-1,6,8,-1,-1,-1,-1],"split_conditions":[9.07E2,5.9E1,9.692778E0,-4E0,4E0,-2.84238E-2,1.7742123E-2,-1.8534261E0,2.1593906E-1],"split_indices":[3,3,0,3,18,0,0,0,0],"split_type":[0,0,0,0,0,0,0,0,0],"sum_hessian":[8.4186E4,8.4185E4,1E0,8.0888E4,3.297E3,4.44E4,3.6488E4,4.9E1,3.248E3],"tree_param":{"num_deleted":"0","num_feature":"30","num_nodes":"9","size_leaf_vector":"1"}},{"base_weights":[1.7165076E-3,-7.012635E-4,9.25219E0,-2.5551E-2,6.31392E0,-1.4566415E-2,5.873946E-2,2.1004665E-1,4.344387E0],"categories":[],"categories_nodes":[],"categories_segments":[],"categories_sizes":[],"default_left":[0,0,0,0,0,0,0,0,0],"id":47,"left_children":[1,3,-1,5,7,-1,-1,-1,-1],"loss_changes":[2.0714912E4,1.3210349E4,0E0,7.5856772E3,5.468173E4,0E0,0E0,0E0,0E0],"parents":[2147483647,0,0,1,1,3,3,4,4],"right_children":[2,4,-1,6,8,-1,-1,-1,-1],"split_conditions":[9.07E2,1.91E2,9.25219E0,1.4E1,1E0,-1.4566415E-2,5.873946E-2,2.1004665E-1,4.344387E0],"split_indices":[3,3,0,3,29,0,0,0,0],"split_type":[0,0,0,0,0,0,0,0,0],"sum_hessian":[8.4186E4,8.4185E4,1E0,8.3856E4,3.29E2,6.9851E4,1.4005E4,3.01E2,2.8E1],"tree_param":{"num_deleted":"0","num_feature":"30","num_nodes":"9","size_leaf_vector":"1"}},{"base_weights":[1.7250258E-3,-5.8284326E-4,8.831627E0,-2.661846E-2,5.9133844E0,-2.212823E-2,4.3568105E-2,2.683639E-1,3.3645017E0],"categories":[],"categories_nodes":[],"categories_segments":[],"categories_sizes":[],"default_left":[0,0,0,0,0,0,0,0,0],"id":48,"left_children":[1,3,-1,5,7,-1,-1,-1,-1],"loss_changes":[1.8874469E4,1.2962595E4,0E0,9.191905E3,3.387092E4,0E0,0E0,0E0,0E0],"parents":[2147483647,0,0,1,1,3,3,4,4],"right_children":[2,4,-1,6,8,-1,-1,-1,-1],"split_conditions":[9.07E2,8.79798E1,8.831627E0,5.25E2,1.91E2,-2.212823E-2,4.3568105E-2,2.683639E-1,3.3645017E0],"split_indices":[3,16,0,17,3,0,0,0,0],"split_type":[0,0,0,0,0,0,0,0,0],"sum_hessian":[8.4186E4,8.4185E4,1E0,8.3817E4,3.68E2,5.8673E4,2.5144E4,3.37E2,3.1E1],"tree_param":{"num_deleted":"0","num_feature":"30","num_nodes":"9","size_leaf_vector":"1"}},{"base_weights":[1.7165303E-3,-4.8643304E-4,8.430182E0,-2.4198283E-2,5.385639E0,-2.0116566E-2,3.9607447E-2,2.4403888E-1,3.0681903E0],"categories":[],"categories_nodes":[],"categories_segments":[],"categories_sizes":[],"default_left":[0,0,0,0,0,0,0,0,0],"id":49,"left_children":[1,3,-1,5,7,-1,-1,-1,-1],"loss_changes":[1.7197549E4,1.0751944E4,0E0,7.5966343E3,2.818148E4,0E0,0E0,0E0,0E0],"parents":[2147483647,0,0,1,1,3,3,4,4],"right_children":[2,4,-1,6,8,-1,-1,-1,-1],"split_conditions":[9.07E2,8.79798E1,8.430182E0,5.25E2,1.91E2,-2.0116566E-2,3.9607447E-2,2.4403888E-1,3.0681903E0],"split_indices":[3,16,0,17,3,0,0,0,0],"split_type":[0,0,0,0,0,0,0,0,0],"sum_hessian":[8.4186E4,8.4185E4,1E0,8.3817E4,3.68E2,5.8673E4,2.5144E4,3.37E2,3.1E1],"tree_param":{"num_deleted":"0","num_feature":"30","num_nodes":"9","size_leaf_vector":"1"}},{"base_weights":[1.7001212E-3,-4.0270487E-4,8.046985E0,-8.63847E-2,1.3535529E0,-1.2030163E-1,-3.7787878E-3,1.7369112E-1,-5.755242E-1],"categories":[],"categories_nodes":[],"categories_segments":[],"categories_sizes":[],"default_left":[0,0,0,0,0,0,0,0,0],"id":50,"left_children":[1,3,-1,5,7,-1,-1,-1,-1],"loss_changes":[1.5669618E4,9.800698E3,0E0,4.388319E3,2.152861E4,0E0,0E0,0E0,0E0],"parents":[2147483647,0,0,1,1,3,3,4,4],"right_children":[2,4,-1,6,8,-1,-1,-1,-1],"split_conditions":[9.07E2,4.3E1,8.046985E0,1E0,2.554E3,-1.2030163E-1,-3.7787878E-3,1.7369112E-1,-5.755242E-1],"split_indices":[3,3,0,18,4,0,0,0,0],"split_type":[0,0,0,0,0,0,0,0,0],"sum_hessian":[8.4186E4,8.4185E4,1E0,7.9159E4,5.026E3,2.767E3,7.6392E4,4.687E3,3.39E2],"tree_param":{"num_deleted":"0","num_feature":"30","num_nodes":"9","size_leaf_vector":"1"}},{"base_weights":[1.634845E-3,-3.7239582E-4,7.6812053E0,-2.1762993E-2,4.8584824E0,-1.8204156E-2,3.5882972E-2,2.1713781E-1,2.7997065E0],"categories":[],"categories_nodes":[],"categories_segments":[],"categories_sizes":[],"default_left":[0,0,0,0,0,0,0,0,0],"id":51,"left_children":[1,3,-1,5,7,-1,-1,-1,-1],"loss_changes":[1.427745E4,8.749877E3,0E0,6.2303306E3,2.3566957E4,0E0,0E0,0E0,0E0],"parents":[2147483647,0,0,1,1,3,3,4,4],"right_children":[2,4,-1,6,8,-1,-1,-1,-1],"split_conditions":[9.07E2,8.79798E1,7.6812053E0,5.25E2,1.91E2,-1.8204156E-2,3.5882972E-2,2.1713781E-1,2.7997065E0],"split_indices":[3,16,0,17,3,0,0,0,0],"split_type":[0,0,0,0,0,0,0,0,0],"sum_hessian":[8.4186E4,8.4185E4,1E0,8.3817E4,3.68E2,5.8673E4,2.5144E4,3.37E2,3.1E1],"tree_param":{"num_deleted":"0","num_feature":"30","num_nodes":"9","size_leaf_vector":"1"}},{"base_weights":[1.6134271E-3,-3.0257305E-4,7.332052E0,-4.8480716E-2,1.9754581E0,-6.079362E-3,3.1953898E-1,-8.636802E-1,2.6812628E-1],"categories":[],"categories_nodes":[],"categories_segments":[],"categories_sizes":[],"default_left":[0,0,0,0,0,0,0,0,0],"id":52,"left_children":[1,3,-1,5,7,-1,-1,-1,-1],"loss_changes":[1.3008957E4,8.0136333E3,0E0,5.3859536E3,2.2424586E4,0E0,0E0,0E0,0E0],"parents":[2147483647,0,0,1,1,3,3,4,4],"right_children":[2,4,-1,6,8,-1,-1,-1,-1],"split_conditions":[9.07E2,8.1E1,7.332052E0,1E0,1.0058E3,-6.079362E-3,3.1953898E-1,-8.636802E-1,2.6812628E-1],"split_indices":[3,3,0,25,12,0,0,0,0],"split_type":[0,0,0,0,0,0,0,0,0],"sum_hessian":[8.4186E4,8.4185E4,1E0,8.2182E4,2.003E3,8.1761E4,4.21E2,1.56E2,1.847E3],"tree_param":{"num_deleted":"0","num_feature":"30","num_nodes":"9","size_leaf_vector":"1"}},{"base_weights":[1.5505153E-3,-2.7839237E-4,6.9987717E0,-2.6482334E-2,3.266102E0,-2.1427395E-2,2.461618E-2,5.7389265E-1,-9.03431E-1],"categories":[],"categories_nodes":[],"categories_segments":[],"categories_sizes":[],"default_left":[0,0,0,0,0,0,0,0,0],"id":53,"left_children":[1,3,-1,5,7,-1,-1,-1,-1],"loss_changes":[1.1853181E4,7.205739E3,0E0,5.193989E3,2.7014256E4,0E0,0E0,0E0,0E0],"parents":[2147483647,0,0,1,1,3,3,4,4],"right_children":[2,4,-1,6,8,-1,-1,-1,-1],"split_conditions":[9.07E2,1.43E2,6.9987717E0,-2E0,1.6E1,-2.1427395E-2,2.461618E-2,5.7389265E-1,-9.03431E-1],"split_indices":[3,3,0,3,5,0,0,0,0],"split_type":[0,0,0,0,0,0,0,0,0],"sum_hessian":[8.4186E4,8.4185E4,1E0,8.3516E4,6.69E2,4.9017E4,3.4499E4,5.44E2,1.25E2],"tree_param":{"num_deleted":"0","num_feature":"30","num_nodes":"9","size_leaf_vector":"1"}},{"base_weights":[1.4889158E-3,-2.5685786E-4,6.6806393E0,-1.9383857E-2,4.344424E0,6.503279E-1,-2.611278E-3,1.9468178E-1,2.498002E0],"categories":[],"categories_nodes":[],"categories_segments":[],"categories_sizes":[],"default_left":[0,0,0,0,0,0,0,0,0],"id":54,"left_children":[1,3,-1,5,7,-1,-1,-1,-1],"loss_changes":[1.0800085E4,6.996E3,0E0,5.6153296E3,1.8745893E4,0E0,0E0,0E0,0E0],"parents":[2147483647,0,0,1,1,3,3,4,4],"right_children":[2,4,-1,6,8,-1,-1,-1,-1],"split_conditions":[9.07E2,8.79798E1,6.6806393E0,1E0,1.91E2,6.503279E-1,-2.611278E-3,1.9468178E-1,2.498002E0],"split_indices":[3,16,0,5,3,0,0,0,0],"split_type":[0,0,0,0,0,0,0,0,0],"sum_hessian":[8.4186E4,8.4185E4,1E0,8.3817E4,3.68E2,1.08E2,8.3709E4,3.37E2,3.1E1],"tree_param":{"num_deleted":"0","num_feature":"30","num_nodes":"9","size_leaf_vector":"1"}},{"base_weights":[1.4725416E-3,-1.9387626E-4,6.376967E0,-8.3758995E-2,8.811425E-1,-1.0656219E-1,-3.928073E-3,1.2513725E-1,-4.969312E-1],"categories":[],"categories_nodes":[],"categories_segments":[],"categories_sizes":[],"default_left":[0,0,0,0,0,0,0,0,0],"id":55,"left_children":[1,3,-1,5,7,-1,-1,-1,-1],"loss_changes":[9.840536E3,6.2002866E3,0E0,3.3938184E3,2.2930889E4,0E0,0E0,0E0,0E0],"parents":[2147483647,0,0,1,1,3,3,4,4],"right_children":[2,4,-1,6,8,-1,-1,-1,-1],"split_conditions":[9.07E2,3.1E1,6.376967E0,1E0,2.554E3,-1.0656219E-1,-3.928073E-3,1.2513725E-1,-4.969312E-1],"split_indices":[3,3,0,18,4,0,0,0,0],"split_type":[0,0,0,0,0,0,0,0,0],"sum_hessian":[8.4186E4,8.4185E4,1E0,7.6895E4,7.29E3,2.761E3,7.4134E4,6.763E3,5.27E2],"tree_param":{"num_deleted":"0","num_feature":"30","num_nodes":"9","size_leaf_vector":"1"}},{"base_weights":[1.4087679E-3,-1.819024E-4,6.0870996E0,-1.743097E-2,3.9179282E0,-1.634252E-2,3.285177E-2,1.7288582E-1,2.28112E0],"categories":[],"categories_nodes":[],"categories_segments":[],"categories_sizes":[],"default_left":[0,0,0,0,0,0,0,0,0],"id":56,"left_children":[1,3,-1,5,7,-1,-1,-1,-1],"loss_changes":[8.966259E3,5.689674E3,0E0,5.154097E3,1.5705363E4,0E0,0E0,0E0,0E0],"parents":[2147483647,0,0,1,1,3,3,4,4],"right_children":[2,4,-1,6,8,-1,-1,-1,-1],"split_conditions":[9.07E2,8.79798E1,6.0870996E0,5.25E2,1.91E2,-1.634252E-2,3.285177E-2,1.7288582E-1,2.28112E0],"split_indices":[3,16,0,17,3,0,0,0,0],"split_type":[0,0,0,0,0,0,0,0,0],"sum_hessian":[8.4186E4,8.4185E4,1E0,8.3817E4,3.68E2,5.8673E4,2.5144E4,3.37E2,3.1E1],"tree_param":{"num_deleted":"0","num_feature":"30","num_nodes":"9","size_leaf_vector":"1"}},{"base_weights":[1.3822928E-3,-1.3607238E-4,5.810408E0,-1.1404138E-1,5.2465224E-1,-9.082365E-2,-7.1096057E-3,-1.9113269E-2,2.3697618E-1],"categories":[],"categories_nodes":[],"categories_segments":[],"categories_sizes":[],"default_left":[0,0,0,0,0,0,0,0,0],"id":57,"left_children":[1,3,-1,5,7,-1,-1,-1,-1],"loss_changes":[8.169645E3,5.0323774E3,0E0,2.1938086E3,2.2973094E4,0E0,0E0,0E0,0E0],"parents":[2147483647,0,0,1,1,3,3,4,4],"right_children":[2,4,-1,6,8,-1,-1,-1,-1],"split_conditions":[9.07E2,1.3E1,5.810408E0,1E0,5.25E2,-9.082365E-2,-7.1096057E-3,-1.9113269E-2,2.3697618E-1],"split_indices":[3,3,0,18,17,0,0,0,0],"split_type":[0,0,0,0,0,0,0,0,0],"sum_hessian":[8.4186E4,8.4185E4,1E0,6.9172E4,1.5013E4,2.691E3,6.6481E4,1.1097E4,3.916E3],"tree_param":{"num_deleted":"0","num_feature":"30","num_nodes":"9","size_leaf_vector":"1"}},{"base_weights":[1.3270375E-3,-1.2230956E-4,5.5462923E0,-1.5783837E-2,3.557379E0,5.8032995E-1,-2.1924297E-3,1.5651344E-1,2.0760841E0],"categories":[],"categories_nodes":[],"categories_segments":[],"categories_sizes":[],"default_left":[0,0,0,0,0,0,0,0,0],"id":58,"left_children":[1,3,-1,5,7,-1,-1,-1,-1],"loss_changes":[7.4438115E3,4.690555E3,0E0,4.4694595E3,1.3020293E4,0E0,0E0,0E0,0E0],"parents":[2147483647,0,0,1,1,3,3,4,4],"right_children":[2,4,-1,6,8,-1,-1,-1,-1],"split_conditions":[9.07E2,8.79798E1,5.5462923E0,1E0,1.91E2,5.8032995E-1,-2.1924297E-3,1.5651344E-1,2.0760841E0],"split_indices":[3,16,0,5,3,0,0,0,0],"split_type":[0,0,0,0,0,0,0,0,0],"sum_hessian":[8.4186E4,8.4185E4,1E0,8.3817E4,3.68E2,1.08E2,8.3709E4,3.37E2,3.1E1],"tree_param":{"num_deleted":"0","num_feature":"30","num_nodes":"9","size_leaf_vector":"1"}},{"base_weights":[1.3056799E-3,-7.77863E-5,5.2941847E0,-3.666526E-1,1.435366E-1,-3.2288335E-2,-3.5633242E0,1.0686083E-2,4.0879762E-1],"categories":[],"categories_nodes":[],"categories_segments":[],"categories_sizes":[],"default_left":[0,0,0,0,0,0,0,0,0],"id":59,"left_children":[1,3,-1,5,7,-1,-1,-1,-1],"loss_changes":[6.7824624E3,4.43206E3,0E0,1.0556912E4,6.8436206E3,0E0,0E0,0E0,0E0],"parents":[2147483647,0,0,1,1,3,3,4,4],"right_children":[2,4,-1,6,8,-1,-1,-1,-1],"split_conditions":[9.07E2,2E0,5.2941847E0,7.4E1,1E0,-3.2288335E-2,-3.5633242E0,1.0686083E-2,4.0879762E-1],"split_indices":[3,18,0,3,25,0,0,0,0],"split_type":[0,0,0,0,0,0,0,0,0],"sum_hessian":[8.4186E4,8.4185E4,1E0,2.3697E4,6.0488E4,2.3691E4,6E0,6.013E4,3.58E2],"tree_param":{"num_deleted":"0","num_feature":"30","num_nodes":"9","size_leaf_vector":"1"}},{"base_weights":[1.2121627E-3,-1.08417764E-4,5.053535E0,-2.8445266E-2,1.7531786E0,-4.002086E-3,2.6758415E-1,3.1443897E-1,-6.710321E-1],"categories":[],"categories_nodes":[],"categories_segments":[],"categories_sizes":[],"default_left":[0,0,0,0,0,0,0,0,0],"id":60,"left_children":[1,3,-1,5,7,-1,-1,-1,-1],"loss_changes":[6.1798843E3,4.182632E3,0E0,3.8352798E3,2.0886414E4,0E0,0E0,0E0,0E0],"parents":[2147483647,0,0,1,1,3,3,4,4],"right_children":[2,4,-1,6,8,-1,-1,-1,-1],"split_conditions":[9.07E2,1.03E2,5.053535E0,1E0,2.354E3,-4.002086E-3,2.6758415E-1,3.1443897E-1,-6.710321E-1],"split_indices":[3,3,0,25,4,0,0,0,0],"split_type":[0,0,0,0,0,0,0,0,0],"sum_hessian":[8.4186E4,8.4185E4,1E0,8.2847E4,1.338E3,8.2416E4,4.31E2,1.128E3,2.1E2],"tree_param":{"num_deleted":"0","num_feature":"30","num_nodes":"9","size_leaf_vector":"1"}},{"base_weights":[1.1608066E-3,-9.9746314E-5,4.823825E0,-2.1938959E-1,2.1771038E-1,-1.1445602E-2,-1.8673691E-1,-7.827046E-3,1.0669641E-1],"categories":[],"categories_nodes":[],"categories_segments":[],"categories_sizes":[],"default_left":[0,0,0,0,0,0,0,0,0],"id":61,"left_children":[1,3,-1,5,7,-1,-1,-1,-1],"loss_changes":[5.6308345E3,4.02107E3,0E0,7.195373E3,1.2266139E4,0E0,0E0,0E0,0E0],"parents":[2147483647,0,0,1,1,3,3,4,4],"right_children":[2,4,-1,6,8,-1,-1,-1,-1],"split_conditions":[9.07E2,-5E0,4.823825E0,4E0,5.25E2,-1.1445602E-2,-1.8673691E-1,-7.827046E-3,1.0669641E-1],"split_indices":[3,3,0,18,17,0,0,0,0],"split_type":[0,0,0,0,0,0,0,0,0],"sum_hessian":[8.4186E4,8.4185E4,1E0,4.195E4,4.2235E4,3.9917E4,2.033E3,3.205E4,1.0185E4],"tree_param":{"num_deleted":"0","num_feature":"30","num_nodes":"9","size_leaf_vector":"1"}},{"base_weights":[1.1114506E-3,-9.180295E-5,4.604554E0,-1.38403475E-2,3.1228771E0,5.2238905E-1,-1.9400717E-3,1.3131365E-1,1.8867615E0],"categories":[],"categories_nodes":[],"categories_segments":[],"categories_sizes":[],"default_left":[0,0,0,0,0,0,0,0,0],"id":62,"left_children":[1,3,-1,5,7,-1,-1,-1,-1],"loss_changes":[5.130561E3,3.6146765E3,0E0,3.6210771E3,1.088984E4,0E0,0E0,0E0,0E0],"parents":[2147483647,0,0,1,1,3,3,4,4],"right_children":[2,4,-1,6,8,-1,-1,-1,-1],"split_conditions":[9.07E2,8.79798E1,4.604554E0,1E0,1.91E2,5.2238905E-1,-1.9400717E-3,1.3131365E-1,1.8867615E0],"split_indices":[3,16,0,5,3,0,0,0,0],"split_type":[0,0,0,0,0,0,0,0,0],"sum_hessian":[8.4186E4,8.4185E4,1E0,8.3817E4,3.68E2,1.08E2,8.3709E4,3.37E2,3.1E1],"tree_param":{"num_deleted":"0","num_feature":"30","num_nodes":"9","size_leaf_vector":"1"}},{"base_weights":[1.0952635E-3,-5.3295258E-5,4.395252E0,-1.539717E-1,2.6949003E-1,-1.3188656E-2,-3.3471158E0,-3.1263635E-2,7.396487E-2],"categories":[],"categories_nodes":[],"categories_segments":[],"categories_sizes":[],"default_left":[0,0,0,0,0,0,0,0,0],"id":63,"left_children":[1,3,-1,5,7,-1,-1,-1,-1],"loss_changes":[4.6747314E3,3.4927231E3,0E0,1.7479057E4,1.0212923E4,0E0,0E0,0E0,0E0],"parents":[2147483647,0,0,1,1,3,3,4,4],"right_children":[2,4,-1,6,8,-1,-1,-1,-1],"split_conditions":[9.07E2,3E0,4.395252E0,7.4E1,9.54E2,-1.3188656E-2,-3.3471158E0,-3.1263635E-2,7.396487E-2],"split_indices":[3,18,0,3,4,0,0,0,0],"split_type":[0,0,0,0,0,0,0,0,0],"sum_hessian":[8.4186E4,8.4185E4,1E0,5.3586E4,3.0599E4,5.3574E4,1.2E1,1.4384E4,1.6215E4],"tree_param":{"num_deleted":"0","num_feature":"30","num_nodes":"9","size_leaf_vector":"1"}},{"base_weights":[1.0085363E-3,-8.781456E-5,4.1954637E0,-1.713217E-1,2.3591205E-1,-1.2727938E-2,-1.0492203E0,1.5063591E-2,1.1620187E0],"categories":[],"categories_nodes":[],"categories_segments":[],"categories_sizes":[],"default_left":[0,0,0,0,0,0,0,0,0],"id":64,"left_children":[1,3,-1,5,7,-1,-1,-1,-1],"loss_changes":[4.2594126E3,3.4020955E3,0E0,1.7370418E4,3.1181934E4,0E0,0E0,0E0,0E0],"parents":[2147483647,0,0,1,1,3,3,4,4],"right_children":[2,4,-1,6,8,-1,-1,-1,-1],"split_conditions":[9.07E2,2.72E2,4.1954637E0,1.91E2,1.91E2,-1.2727938E-2,-1.0492203E0,1.5063591E-2,1.1620187E0],"split_indices":[3,17,0,3,3,0,0,0,0],"split_type":[0,0,0,0,0,0,0,0,0],"sum_hessian":[8.4186E4,8.4185E4,1E0,4.8787E4,3.5398E4,4.8654E4,1.33E2,3.5202E4,1.96E2],"tree_param":{"num_deleted":"0","num_feature":"30","num_nodes":"9","size_leaf_vector":"1"}},{"base_weights":[9.680561E-4,-7.845995E-5,4.0047584E0,-2.1879774E-1,1.7011198E-1,-1.23397885E-2,-1.876298E-1,-5.502245E-3,8.0994405E-2],"categories":[],"categories_nodes":[],"categories_segments":[],"categories_sizes":[],"default_left":[0,0,0,0,0,0,0,0,0],"id":65,"left_children":[1,3,-1,5,7,-1,-1,-1,-1],"loss_changes":[3.880988E3,3.1337712E3,0E0,5.6459043E3,7.871051E3,0E0,0E0,0E0,0E0],"parents":[2147483647,0,0,1,1,3,3,4,4],"right_children":[2,4,-1,6,8,-1,-1,-1,-1],"split_conditions":[9.07E2,-7E0,4.0047584E0,4E0,5.25E2,-1.23397885E-2,-1.876298E-1,-5.502245E-3,8.0994405E-2],"split_indices":[3,3,0,18,17,0,0,0,0],"split_type":[0,0,0,0,0,0,0,0,0],"sum_hessian":[8.4186E4,8.4185E4,1E0,3.684E4,4.7345E4,3.5254E4,1.586E3,3.5869E4,1.1476E4],"tree_param":{"num_deleted":"0","num_feature":"30","num_nodes":"9","size_leaf_vector":"1"}},{"base_weights":[9.261272E-4,-7.2818926E-5,3.8227203E0,-1.2582536E-2,2.8414977E0,4.6433264E-1,-1.7499793E-3,1.18009716E-1,1.7323097E0],"categories":[],"categories_nodes":[],"categories_segments":[],"categories_sizes":[],"default_left":[0,0,0,0,0,0,0,0,0],"id":66,"left_children":[1,3,-1,5,7,-1,-1,-1,-1],"loss_changes":[3.5361824E3,2.9926157E3,0E0,2.8612483E3,9.209207E3,0E0,0E0,0E0,0E0],"parents":[2147483647,0,0,1,1,3,3,4,4],"right_children":[2,4,-1,6,8,-1,-1,-1,-1],"split_conditions":[9.07E2,8.79798E1,3.8227203E0,1E0,1.91E2,4.6433264E-1,-1.7499793E-3,1.18009716E-1,1.7323097E0],"split_indices":[3,16,0,5,3,0,0,0,0],"split_type":[0,0,0,0,0,0,0,0,0],"sum_hessian":[8.4186E4,8.4185E4,1E0,8.3817E4,3.68E2,1.08E2,8.3709E4,3.37E2,3.1E1],"tree_param":{"num_deleted":"0","num_feature":"30","num_nodes":"9","size_leaf_vector":"1"}},{"base_weights":[9.1474317E-4,-3.879538E-5,3.6489582E0,-1.3745524E-2,2.55054E0,-3.080135E-3,1.5301467E-1,-1.6747949E-1,4.6366283E-1],"categories":[],"categories_nodes":[],"categories_segments":[],"categories_sizes":[],"default_left":[0,0,0,0,0,0,0,0,0],"id":67,"left_children":[1,3,-1,5,7,-1,-1,-1,-1],"loss_changes":[3.2220085E3,2.9431853E3,0E0,2.861104E3,5.04942E3,0E0,0E0,0E0,0E0],"parents":[2147483647,0,0,1,1,3,3,4,4],"right_children":[2,4,-1,6,8,-1,-1,-1,-1],"split_conditions":[9.07E2,1E0,3.6489582E0,1.2E2,4E0,-3.080135E-3,1.5301467E-1,-1.6747949E-1,4.6366283E-1],"split_indices":[3,25,0,3,18,0,0,0,0],"split_type":[0,0,0,0,0,0,0,0,0],"sum_hessian":[8.4186E4,8.4185E4,1E0,8.3736E4,4.49E2,8.2755E4,9.81E2,1.65E2,2.84E2],"tree_param":{"num_deleted":"0","num_feature":"30","num_nodes":"9","size_leaf_vector":"1"}},{"base_weights":[8.802879E-4,-2.9906736E-5,3.4830918E0,-2.94223E-1,1.1522722E-1,-2.5671938E-2,-2.5733237E0,8.645767E-3,3.1690305E-1],"categories":[],"categories_nodes":[],"categories_segments":[],"categories_sizes":[],"default_left":[0,0,0,0,0,0,0,0,0],"id":68,"left_children":[1,3,-1,5,7,-1,-1,-1,-1],"loss_changes":[2.935747E3,2.8546006E3,0E0,7.8498325E3,4.103014E3,0E0,0E0,0E0,0E0],"parents":[2147483647,0,0,1,1,3,3,4,4],"right_children":[2,4,-1,6,8,-1,-1,-1,-1],"split_conditions":[9.07E2,2E0,3.4830918E0,6.8E1,1E0,-2.5671938E-2,-2.5733237E0,8.645767E-3,3.1690305E-1],"split_indices":[3,18,0,3,25,0,0,0,0],"split_type":[0,0,0,0,0,0,0,0,0],"sum_hessian":[8.4186E4,8.4185E4,1E0,2.3697E4,6.0488E4,2.3688E4,9E0,6.013E4,3.58E2],"tree_param":{"num_deleted":"0","num_feature":"30","num_nodes":"9","size_leaf_vector":"1"}},{"base_weights":[8.146956E-4,-5.4126005E-5,3.3247664E0,-4.9604185E-2,6.06597E-1,-7.9639606E-2,-1.7421405E-3,9.73947E-2,-5.023167E-1],"categories":[],"categories_nodes":[],"categories_segments":[],"categories_sizes":[],"default_left":[0,0,0,0,0,0,0,0,0],"id":69,"left_children":[1,3,-1,5,7,-1,-1,-1,-1],"loss_changes":[2.6749253E3,2.5306277E3,0E0,1.9579441E3,1.8121291E4,0E0,0E0,0E0,0E0],"parents":[2147483647,0,0,1,1,3,3,4,4],"right_children":[2,4,-1,6,8,-1,-1,-1,-1],"split_conditions":[9.07E2,3.5E1,3.3247664E0,1E0,2.554E3,-7.9639606E-2,-1.7421405E-3,9.73947E-2,-5.023167E-1],"split_indices":[3,3,0,18,4,0,0,0,0],"split_type":[0,0,0,0,0,0,0,0,0],"sum_hessian":[8.4186E4,8.4185E4,1E0,7.7829E4,6.356E3,2.764E3,7.5065E4,5.909E3,4.47E2],"tree_param":{"num_deleted":"0","num_feature":"30","num_nodes":"9","size_leaf_vector":"1"}},{"base_weights":[7.744055E-4,-5.492349E-5,3.1736376E0,-1.4518443E-1,1.9996707E-1,-1.0500899E-2,-9.927155E-1,1.2567961E-2,1.020786E0],"categories":[],"categories_nodes":[],"categories_segments":[],"categories_sizes":[],"default_left":[0,0,0,0,0,0,0,0,0],"id":70,"left_children":[1,3,-1,5,7,-1,-1,-1,-1],"loss_changes":[2.4372727E3,2.4438723E3,0E0,1.5598789E4,2.4094574E4,0E0,0E0,0E0,0E0],"parents":[2147483647,0,0,1,1,3,3,4,4],"right_children":[2,4,-1,6,8,-1,-1,-1,-1],"split_conditions":[9.07E2,2.72E2,3.1736376E0,1.91E2,1.91E2,-1.0500899E-2,-9.927155E-1,1.2567961E-2,1.020786E0],"split_indices":[3,17,0,3,3,0,0,0,0],"split_type":[0,0,0,0,0,0,0,0,0],"sum_hessian":[8.4186E4,8.4185E4,1E0,4.8787E4,3.5398E4,4.8654E4,1.33E2,3.5202E4,1.96E2],"tree_param":{"num_deleted":"0","num_feature":"30","num_nodes":"9","size_leaf_vector":"1"}},{"base_weights":[7.420105E-4,-2.2726168E-1,1.1998002E-1,-1.55461E-1,-2.1646872E0,-4.6108816E-2,6.2592095E-1,-7.179057E-2,-1.0029667E-2,-3.0193812E-1,-1.3228667E-1,-1.6090529E-3,-5.9875816E-1,4.4533238E-2,1.1560556E0],"categories":[],"categories_nodes":[],"categories_segments":[],"categories_sizes":[],"default_left":[0,0,0,0,0,0,0,0,0,0,0,0,0,0,0],"id":71,"left_children":[1,3,5,7,9,11,13,-1,-1,-1,-1,-1,-1,-1,-1],"loss_changes":[2.2887947E3,4.021151E3,4.645187E3,7.979383E2,8.429053E2,7.7325728E3,2.2468924E4,0E0,0E0,0E0,0E0,0E0,0E0,0E0,0E0],"parents":[2147483647,0,0,1,1,2,2,3,3,4,4,5,5,6,6],"right_children":[2,4,6,8,10,12,14,-1,-1,-1,-1,-1,-1,-1,-1],"split_conditions":[-1E1,4E0,5.25E2,1E0,1.542E3,1.91E2,1.91E2,-7.179057E-2,-1.0029667E-2,-3.0193812E-1,-1.3228667E-1,-1.6090529E-3,-5.9875816E-1,4.4533238E-2,1.1560556E0],"split_indices":[3,18,17,18,4,3,3,0,0,0,0,0,0,0,0],"split_type":[0,0,0,0,0,0,0,0,0,0,0,0,0,0,0],"sum_hessian":[8.4186E4,2.8908E4,5.5278E4,2.7876E4,1.032E3,4.1617E4,1.3661E4,1.851E3,2.6025E4,3.91E2,6.41E2,4.1438E4,1.79E2,1.351E4,1.51E2],"tree_param":{"num_deleted":"0","num_feature":"30","num_nodes":"15","size_leaf_vector":"1"}},{"base_weights":[6.7557953E-4,-1.231649E-4,3.0565948E0,-1.0864519E-2,2.4397655E0,4.161079E-1,-1.5307972E-3,9.062311E-2,1.6004382E0],"categories":[],"categories_nodes":[],"categories_segments":[],"categories_sizes":[],"default_left":[0,0,0,0,0,0,0,0,0],"id":72,"left_children":[1,3,-1,5,7,-1,-1,-1,-1],"loss_changes":[2.2608254E3,2.2063486E3,0E0,2.2973716E3,8.0567715E3,0E0,0E0,0E0,0E0],"parents":[2147483647,0,0,1,1,3,3,4,4],"right_children":[2,4,-1,6,8,-1,-1,-1,-1],"split_conditions":[9.07E2,8.79798E1,3.0565948E0,1E0,1.91E2,4.161079E-1,-1.5307972E-3,9.062311E-2,1.6004382E0],"split_indices":[3,16,0,5,3,0,0,0,0],"split_type":[0,0,0,0,0,0,0,0,0],"sum_hessian":[8.4186E4,8.4185E4,1E0,8.3817E4,3.68E2,1.08E2,8.3709E4,3.37E2,3.1E1],"tree_param":{"num_deleted":"0","num_feature":"30","num_nodes":"9","size_leaf_vector":"1"}},{"base_weights":[6.7548745E-4,-8.6949505E-5,2.9176567E0,-2.4558693E-1,9.609349E-2,-2.133673E-2,-2.3648047E0,-1.3752164E-2,3.221779E-2],"categories":[],"categories_nodes":[],"categories_segments":[],"categories_sizes":[],"default_left":[0,0,0,0,0,0,0,0,0],"id":73,"left_children":[1,3,-1,5,7,-1,-1,-1,-1],"loss_changes":[2.0599604E3,1.9878483E3,0E0,6.642006E3,3.8648792E3,0E0,0E0,0E0,0E0],"parents":[2147483647,0,0,1,1,3,3,4,4],"right_children":[2,4,-1,6,8,-1,-1,-1,-1],"split_conditions":[9.07E2,2E0,2.9176567E0,6.8E1,9.54E2,-2.133673E-2,-2.3648047E0,-1.3752164E-2,3.221779E-2],"split_indices":[3,18,0,3,4,0,0,0,0],"split_type":[0,0,0,0,0,0,0,0,0],"sum_hessian":[8.4186E4,8.4185E4,1E0,2.3697E4,6.0488E4,2.3688E4,9E0,3.0898E4,2.959E4],"tree_param":{"num_deleted":"0","num_feature":"30","num_nodes":"9","size_leaf_vector":"1"}},{"base_weights":[6.2059023E-4,-1.0441743E-2,2.0591474E0,-1.399912E-1,1.6646808E-1,-1.7543252E0,4.2731028E0,-1.0579712E-2,-7.850266E-1,1.0461922E-2,8.498927E-1,-1.4310199E-1,-1.0020511E0,4.1783142E-1,-2.5106413E0],"categories":[],"categories_nodes":[],"categories_segments":[],"categories_sizes":[],"default_left":[0,0,0,0,0,0,0,0,0,0,0,0,0,0,0],"id":74,"left_children":[1,3,5,7,9,11,13,-1,-1,-1,-1,-1,-1,-1,-1],"loss_changes":[1.917137E3,1.9191786E3,3.8067827E3,9.697285E3,1.6702447E4,2.5993848E2,3.0621E3,0E0,0E0,0E0,0E0,0E0,0E0,0E0,0E0],"parents":[2147483647,0,0,1,1,2,2,3,3,4,4,5,5,6,6],"right_children":[2,4,6,8,10,12,14,-1,-1,-1,-1,-1,-1,-1,-1],"split_conditions":[1E0,2.72E2,4E0,1.91E2,1.91E2,4.3E1,1E2,-1.0579712E-2,-7.850266E-1,1.0461922E-2,8.498927E-1,-1.4310199E-1,-1.0020511E0,4.1783142E-1,-2.5106413E0],"split_indices":[25,17,18,3,3,3,8,0,0,0,0,0,0,0,0],"split_type":[0,0,0,0,0,0,0,0,0,0,0,0,0,0,0],"sum_hessian":[8.4186E4,8.3737E4,4.49E2,4.8339E4,3.5398E4,1.65E2,2.84E2,4.8206E4,1.33E2,3.5202E4,1.96E2,1.63E2,2E0,2.82E2,2E0],"tree_param":{"num_deleted":"0","num_feature":"30","num_nodes":"15","size_leaf_vector":"1"}},{"base_weights":[5.265407E-4,-2.1056572E-4,2.820717E0,-1.1909489E-1,1.8389963E-1,-2.756252E-3,-1.3193566E-1,7.904953E-3,2.6372248E-1],"categories":[],"categories_nodes":[],"categories_segments":[],"categories_sizes":[],"default_left":[0,0,0,0,0,0,0,0,0],"id":75,"left_children":[1,3,-1,5,7,-1,-1,-1,-1],"loss_changes":[1.925365E3,1.8426697E3,0E0,6.049832E3,8.700499E3,0E0,0E0,0E0,0E0],"parents":[2147483647,0,0,1,1,3,3,4,4],"right_children":[2,4,-1,6,8,-1,-1,-1,-1],"split_conditions":[9.07E2,-1E0,2.820717E0,4E0,1E0,-2.756252E-3,-1.3193566E-1,7.904953E-3,2.6372248E-1],"split_indices":[3,3,0,18,29,0,0,0,0],"split_type":[0,0,0,0,0,0,0,0,0],"sum_hessian":[8.4186E4,8.4185E4,1E0,5.1154E4,3.3031E4,4.7959E4,3.195E3,3.1894E4,1.137E3],"tree_param":{"num_deleted":"0","num_feature":"30","num_nodes":"9","size_leaf_vector":"1"}},{"base_weights":[5.1394355E-4,-7.026839E-2,2.9850584E-1,-5.794417E-2,-7.2232976E0,2.15338E-1,6.465076E0,-8.854518E-3,7.9245545E-2,-9.0225524E-1,8.976078E0,2.2681639E-1,1.1008525E-2,-2.5680706E-2,8.218842E0],"categories":[],"categories_nodes":[],"categories_segments":[],"categories_sizes":[],"default_left":[0,0,0,0,0,0,0,0,0,0,0,0,0,0,0],"id":76,"left_children":[1,3,5,7,9,11,13,-1,-1,-1,-1,-1,-1,-1,-1],"loss_changes":[1.7757405E3,5.996712E3,8.285918E3,2.4909429E3,3.4468438E4,3.4253838E3,1.2179999E5,0E0,0E0,0E0,0E0,0E0,0E0,0E0,0E0],"parents":[2147483647,0,0,1,1,2,2,3,3,4,4,5,5,6,6],"right_children":[2,4,6,8,10,12,14,-1,-1,-1,-1,-1,-1,-1,-1],"split_conditions":[1.6770115E1,1.91E2,1.91E2,4.1E1,5.6E1,1.683206E-2,1E0,-8.854518E-3,7.9245545E-2,-9.0225524E-1,8.976078E0,2.2681639E-1,1.1008525E-2,-2.5680706E-2,8.218842E0],"split_indices":[16,3,3,3,6,14,29,0,0,0,0,0,0,0,0],"split_type":[0,0,0,0,0,0,0,0,0,0,0,0,0,0,0],"sum_hessian":[8.4186E4,6.8028E4,1.6158E4,6.7912E4,1.16E2,1.5944E4,2.14E2,6.5148E4,2.764E3,1.14E2,2E0,6.32E2,1.5312E4,1.99E2,1.5E1],"tree_param":{"num_deleted":"0","num_feature":"30","num_nodes":"15","size_leaf_vector":"1"}},{"base_weights":[6.6410715E-4,-3.979681E-5,2.6936672E0,-9.193138E-3,2.079133E0,3.694884E-1,-1.3179505E-3,6.723899E-2,1.4693766E0],"categories":[],"categories_nodes":[],"categories_segments":[],"categories_sizes":[],"default_left":[0,0,0,0,0,0,0,0,0],"id":77,"left_children":[1,3,-1,5,7,-1,-1,-1,-1],"loss_changes":[1.7558085E3,1.6021947E3,0E0,1.8110233E3,6.949366E3,0E0,0E0,0E0,0E0],"parents":[2147483647,0,0,1,1,3,3,4,4],"right_children":[2,4,-1,6,8,-1,-1,-1,-1],"split_conditions":[9.07E2,8.79798E1,2.6936672E0,1E0,1.91E2,3.694884E-1,-1.3179505E-3,6.723899E-2,1.4693766E0],"split_indices":[3,16,0,5,3,0,0,0,0],"split_type":[0,0,0,0,0,0,0,0,0],"sum_hessian":[8.4186E4,8.4185E4,1E0,8.3817E4,3.68E2,1.08E2,8.3709E4,3.37E2,3.1E1],"tree_param":{"num_deleted":"0","num_feature":"30","num_nodes":"9","size_leaf_vector":"1"}},{"base_weights":[6.58277E-4,-1.3630435E-5,2.5712256E0,-1.8936916E-1,9.9014536E-2,-1.1551879E-2,-1.7004584E-1,5.518798E-3,1.4522211E-1],"categories":[],"categories_nodes":[],"categories_segments":[],"categories_sizes":[],"default_left":[0,0,0,0,0,0,0,0,0],"id":78,"left_children":[1,3,-1,5,7,-1,-1,-1,-1],"loss_changes":[1.5998116E3,1.578635E3,0E0,3.0275193E3,3.1729727E3,0E0,0E0,0E0,0E0],"parents":[2147483647,0,0,1,1,3,3,4,4],"right_children":[2,4,-1,6,8,-1,-1,-1,-1],"split_conditions":[9.07E2,-1E1,2.5712256E0,4E0,1E0,-1.1551879E-2,-1.7004584E-1,5.518798E-3,1.4522211E-1],"split_indices":[3,3,0,18,20,0,0,0,0],"split_type":[0,0,0,0,0,0,0,0,0],"sum_hessian":[8.4186E4,8.4185E4,1E0,2.8908E4,5.5277E4,2.7876E4,1.032E3,5.39E4,1.377E3],"tree_param":{"num_deleted":"0","num_feature":"30","num_nodes":"9","size_leaf_vector":"1"}},{"base_weights":[6.285799E-4,-7.2813874E-1,2.5450433E-2,-5.9990126E-1,-3.2893143E0,1.4050652E-2,2.3285122E0,-4.712241E-2,-1.724023E-1,-2.7080804E-1,-8.4665394E-1,-2.9378016E-2,7.640532E-3,6.748021E-1,7.549682E-2],"categories":[],"categories_nodes":[],"categories_segments":[],"categories_sizes":[],"default_left":[0,0,0,0,0,0,0,0,0,0,0,0,0,0,0],"id":79,"left_children":[1,3,5,7,9,11,13,-1,-1,-1,-1,-1,-1,-1,-1],"loss_changes":[1.522907E3,9.08787E2,2.1374692E3,2.7840265E2,2.1913269E2,1.9121436E3,3.0540205E3,0E0,0E0,0E0,0E0,0E0,0E0,0E0,0E0],"parents":[2147483647,0,0,1,1,2,2,3,3,4,4,5,5,6,6],"right_children":[2,4,6,8,10,12,14,-1,-1,-1,-1,-1,-1,-1,-1],"split_conditions":[1E0,8E0,1E0,2.2E1,4.3E1,1.0134E3,1.0144E3,-4.712241E-2,-1.724023E-1,-2.7080804E-1,-8.4665394E-1,-2.9378016E-2,7.640532E-3,6.748021E-1,7.549682E-2],"split_indices":[18,3,25,5,3,12,12,0,0,0,0,0,0,0,0],"split_type":[0,0,0,0,0,0,0,0,0,0,0,0,0,0,0],"sum_hessian":[8.4186E4,2.772E3,8.1414E4,2.641E3,1.31E2,8.1014E4,4E2,2.486E3,1.55E2,1.26E2,5E0,1.3925E4,6.7089E4,9E1,3.1E2],"tree_param":{"num_deleted":"0","num_feature":"30","num_nodes":"15","size_leaf_vector":"1"}},{"base_weights":[5.6422455E-4,-7.749046E-5,2.4556837E0,-1.2688956E-1,1.3668756E-1,-8.496083E-3,-9.847346E-1,8.258424E-3,8.7395495E-1],"categories":[],"categories_nodes":[],"categories_segments":[],"categories_sizes":[],"default_left":[0,0,0,0,0,0,0,0,0],"id":80,"left_children":[1,3,-1,5,7,-1,-1,-1,-1],"loss_changes":[1.4592692E3,1.4600938E3,0E0,1.56338E4,1.7596977E4,0E0,0E0,0E0,0E0],"parents":[2147483647,0,0,1,1,3,3,4,4],"right_children":[2,4,-1,6,8,-1,-1,-1,-1],"split_conditions":[9.07E2,9.54E2,2.4556837E0,1.91E2,1.91E2,-8.496083E-3,-9.847346E-1,8.258424E-3,8.7395495E-1],"split_indices":[3,4,0,3,3,0,0,0,0],"split_type":[0,0,0,0,0,0,0,0,0],"sum_hessian":[8.4186E4,8.4185E4,1E0,4.3682E4,4.0503E4,4.3547E4,1.35E2,4.0309E4,1.94E2],"tree_param":{"num_deleted":"0","num_feature":"30","num_nodes":"9","size_leaf_vector":"1"}},{"base_weights":[5.408182E-4,3.1160671E-2,-5.665265E-1,1.6675793E-2,3.8224752E0,-3.9613122E-1,-2.6628939E1,-3.5187558E-3,5.847907E-2,-1.2166302E0,1.4465742E0,6.252428E-3,-3.2432112E-1,3.0383759E0,-3.1975033E0],"categories":[],"categories_nodes":[],"categories_segments":[],"categories_sizes":[],"default_left":[0,0,0,0,0,0,0,0,0,0,0,0,0,0,0],"id":81,"left_children":[1,3,5,7,9,11,13,-1,-1,-1,-1,-1,-1,-1,-1],"loss_changes":[1.4618E3,4.38641E3,1.9143102E4,2.7612468E3,6.3445598E4,6.319407E3,1.5539643E4,0E0,0E0,0E0,0E0,0E0,0E0,0E0,0E0],"parents":[2147483647,0,0,1,1,2,2,3,3,4,4,5,5,6,6],"right_children":[2,4,6,8,10,12,14,-1,-1,-1,-1,-1,-1,-1,-1],"split_conditions":[2.554E3,1.91E2,1.91E2,3.1E1,4E0,2.9E1,8E0,-3.5187558E-3,5.847907E-2,-1.2166302E0,1.4465742E0,6.252428E-3,-3.2432112E-1,3.0383759E0,-3.1975033E0],"split_indices":[4,3,3,3,1,3,13,0,0,0,0,0,0,0,0],"split_type":[0,0,0,0,0,0,0,0,0,0,0,0,0,0,0],"sum_hessian":[8.4186E4,7.9874E4,4.312E3,7.9571E4,3.03E2,4.285E3,2.7E1,7.311E4,6.461E3,1.25E2,1.78E2,3.738E3,5.47E2,3E0,2.4E1],"tree_param":{"num_deleted":"0","num_feature":"30","num_nodes":"15","size_leaf_vector":"1"}},{"base_weights":[4.894562E-4,-6.130658E-2,2.6064926E-1,-4.9537092E-2,-6.8924184E0,1.898263E-1,5.511865E0,-7.593579E-3,6.830762E-2,-8.5524166E-1,8.34703E0,1.2419557E-2,2.8494594E-1,-5.879979E-2,7.468373E0],"categories":[],"categories_nodes":[],"categories_segments":[],"categories_sizes":[],"default_left":[0,0,0,0,0,0,0,0,0,0,0,0,0,0,0],"id":82,"left_children":[1,3,5,7,9,11,13,-1,-1,-1,-1,-1,-1,-1,-1],"loss_changes":[1.3534773E3,5.4691016E3,6.0085933E3,1.8488799E3,2.9909709E4,2.4979792E3,1.0153109E5,0E0,0E0,0E0,0E0,0E0,0E0,0E0,0E0],"parents":[2147483647,0,0,1,1,2,2,3,3,4,4,5,5,6,6],"right_children":[2,4,6,8,10,12,14,-1,-1,-1,-1,-1,-1,-1,-1],"split_conditions":[1.6770115E1,1.91E2,1.91E2,4.1E1,5.6E1,1E0,1E0,-7.593579E-3,6.830762E-2,-8.5524166E-1,8.34703E0,1.2419557E-2,2.8494594E-1,-5.879979E-2,7.468373E0],"split_indices":[16,3,3,3,6,25,29,0,0,0,0,0,0,0,0],"split_type":[0,0,0,0,0,0,0,0,0,0,0,0,0,0,0],"sum_hessian":[8.4186E4,6.8028E4,1.6158E4,6.7912E4,1.16E2,1.5944E4,2.14E2,6.5148E4,2.764E3,1.14E2,2E0,1.5662E4,2.82E2,1.99E2,1.5E1],"tree_param":{"num_deleted":"0","num_feature":"30","num_nodes":"15","size_leaf_vector":"1"}},{"base_weights":[6.262396E-4,-3.579657E-1,4.4609815E-2,-2.3930229E-1,-2.0828487E1,2.5193553E-2,5.243832E0,4.9641323E-3,-2.0772497E-1,8.451867E0,-2.6832974E0,-3.373638E-3,7.273654E-2,1.9873396E-1,1.1250125E1],"categories":[],"categories_nodes":[],"categories_segments":[],"categories_sizes":[],"default_left":[0,0,0,0,0,0,0,0,0,0,0,0,0,0,0],"id":83,"left_children":[1,3,5,7,9,11,13,-1,-1,-1,-1,-1,-1,-1,-1],"loss_changes":[1.3278265E3,2.2337898E4,7.570067E3,5.498917E3,5.513878E4,3.6069773E3,1.0082934E5,0E0,0E0,0E0,0E0,0E0,0E0,0E0,0E0],"parents":[2147483647,0,0,1,1,2,2,3,3,4,4,5,5,6,6],"right_children":[2,4,6,8,10,12,14,-1,-1,-1,-1,-1,-1,-1,-1],"split_conditions":[1.0108E3,1.91E2,1.91E2,3.2E1,3E0,3.2E1,9E-2,4.9641323E-3,-2.0772497E-1,8.451867E0,-2.6832974E0,-3.373638E-3,7.273654E-2,1.9873396E-1,1.1250125E1],"split_indices":[12,3,3,3,2,3,11,0,0,0,0,0,0,0,0],"split_type":[0,0,0,0,0,0,0,0,0,0,0,0,0,0,0],"sum_hessian":[8.4186E4,9.197E3,7.4989E4,9.145E3,5.2E1,7.4711E4,2.78E2,7.997E3,1.148E3,3E0,4.9E1,6.9152E4,5.559E3,2.72E2,6E0],"tree_param":{"num_deleted":"0","num_feature":"30","num_nodes":"15","size_leaf_vector":"1"}},{"base_weights":[7.723265E-4,-1.04536526E-1,1.4591521E-1,-8.273647E-2,-7.960665E0,1.06436186E-1,7.199896E0,-8.8765165E-3,1.3796137E-1,-2.1193428E-1,-4.038485E0,-1.2557436E-2,8.135946E-2,3.5211504E-1,1.219758E1],"categories":[],"categories_nodes":[],"categories_segments":[],"categories_sizes":[],"default_left":[0,0,0,0,0,0,0,0,0,0,0,0,0,0,0],"id":84,"left_children":[1,3,5,7,9,11,13,-1,-1,-1,-1,-1,-1,-1,-1],"loss_changes":[1.2867992E3,8.355145E3,9.857298E3,1.1605454E3,2.7606445E4,6.788665E3,8.269209E4,0E0,0E0,0E0,0E0,0E0,0E0,0E0,0E0],"parents":[2147483647,0,0,1,1,2,2,3,3,4,4,5,5,6,6],"right_children":[2,4,6,8,10,12,14,-1,-1,-1,-1,-1,-1,-1,-1],"split_conditions":[2.72E2,1.91E2,1.91E2,1E0,4E-2,4E0,9E-2,-8.8765165E-3,1.3796137E-1,-2.1193428E-1,-4.038485E0,-1.2557436E-2,8.135946E-2,3.5211504E-1,1.219758E1],"split_indices":[17,3,3,25,11,18,11,0,0,0,0,0,0,0,0],"split_type":[0,0,0,0,0,0,0,0,0,0,0,0,0,0,0],"sum_hessian":[8.4186E4,4.8788E4,3.5398E4,4.8654E4,1.34E2,3.5202E4,1.96E2,4.8206E4,4.48E2,1.17E2,1.7E1,2.6869E4,8.333E3,1.92E2,4E0],"tree_param":{"num_deleted":"0","num_feature":"30","num_nodes":"15","size_leaf_vector":"1"}},{"base_weights":[8.030137E-4,2.0679983E-4,2.2815747E0,-8.187989E-2,1.8194512E-1,-8.785768E-3,3.196327E-1,2.004032E0,1.5097524E-2],"categories":[],"categories_nodes":[],"categories_segments":[],"categories_sizes":[],"default_left":[0,0,0,0,0,0,0,0,0],"id":85,"left_children":[1,3,-1,5,7,-1,-1,-1,-1],"loss_changes":[1.2596512E3,1.2559268E3,0E0,3.0802966E3,9.087538E3,0E0,0E0,0E0,0E0],"parents":[2147483647,0,0,1,1,3,3,4,4],"right_children":[2,4,-1,6,8,-1,-1,-1,-1],"split_conditions":[9.07E2,8.581E1,2.2815747E0,8.79798E1,1E0,-8.785768E-3,3.196327E-1,2.004032E0,1.5097524E-2],"split_indices":[3,8,0,16,5,0,0,0,0],"split_type":[0,0,0,0,0,0,0,0,0],"sum_hessian":[8.4186E4,8.4185E4,1E0,5.7992E4,2.6193E4,5.7756E4,2.36E2,1.8E1,2.6175E4],"tree_param":{"num_deleted":"0","num_feature":"30","num_nodes":"9","size_leaf_vector":"1"}},{"base_weights":[7.848169E-4,2.8522061E-2,-5.1289785E-1,1.6434848E-2,3.1922565E0,-3.6226952E-1,-2.355147E1,-4.5029526E-3,3.0564835E-2,-2.3983192E0,8.4164697E-1,6.463163E-3,-3.016823E-1,-3.1066992E0,1.9172856E0],"categories":[],"categories_nodes":[],"categories_segments":[],"categories_sizes":[],"default_left":[0,0,0,0,0,0,0,0,0,0,0,0,0,0,0],"id":86,"left_children":[1,3,5,7,9,11,13,-1,-1,-1,-1,-1,-1,-1,-1],"loss_changes":[1.1995228E3,3.0544258E3,1.4958702E4,1.6785227E3,5.477632E4,5.491009E3,1.399715E4,0E0,0E0,0E0,0E0,0E0,0E0,0E0,0E0],"parents":[2147483647,0,0,1,1,2,2,3,3,4,4,5,5,6,6],"right_children":[2,4,6,8,10,12,14,-1,-1,-1,-1,-1,-1,-1,-1],"split_conditions":[2.554E3,1.91E2,1.91E2,1.3E1,3.9E1,2.9E1,1.0239E3,-4.5029526E-3,3.0564835E-2,-2.3983192E0,8.4164697E-1,6.463163E-3,-3.016823E-1,-3.1066992E0,1.9172856E0],"split_indices":[4,3,3,3,7,3,12,0,0,0,0,0,0,0,0],"split_type":[0,0,0,0,0,0,0,0,0,0,0,0,0,0,0],"sum_hessian":[8.4186E4,7.9874E4,4.312E3,7.9571E4,3.03E2,4.285E3,2.7E1,6.5964E4,1.3607E4,5.1E1,2.52E2,3.738E3,5.47E2,2.2E1,5E0],"tree_param":{"num_deleted":"0","num_feature":"30","num_nodes":"15","size_leaf_vector":"1"}},{"base_weights":[6.77757E-4,-6.405496E-1,2.2517992E-2,-5.219437E-1,-3.009612E0,-2.4919483E-1,7.8952864E-2,-4.046191E-2,-1.5855807E-1,-2.4636608E-1,-8.045925E-1,-2.4429671E-2,1.2415625E1,2.3509844E-3,1.6553256E-1],"categories":[],"categories_nodes":[],"categories_segments":[],"categories_sizes":[],"default_left":[0,0,0,0,0,0,0,0,0,0,0,0,0,0,0],"id":87,"left_children":[1,3,5,7,9,11,13,-1,-1,-1,-1,-1,-1,-1,-1],"loss_changes":[1.1790159E3,7.776E2,1.2484437E3,2.4743756E2,2.0702954E2,3.7443824E4,6.234419E3,0E0,0E0,0E0,0E0,0E0,0E0,0E0,0E0],"parents":[2147483647,0,0,1,1,2,2,3,3,4,4,5,5,6,6],"right_children":[2,4,6,8,10,12,14,-1,-1,-1,-1,-1,-1,-1,-1],"split_conditions":[1E0,8E0,1.0134E3,2.2E1,4.3E1,3.1E1,6.8E1,-4.046191E-2,-1.5855807E-1,-2.4636608E-1,-8.045925E-1,-2.4429671E-2,1.2415625E1,2.3509844E-3,1.6553256E-1],"split_indices":[18,3,12,5,3,2,3,0,0,0,0,0,0,0,0],"split_type":[0,0,0,0,0,0,0,0,0,0,0,0,0,0,0],"sum_hessian":[8.4186E4,2.772E3,8.1414E4,2.641E3,1.31E2,1.4001E4,6.7413E4,2.486E3,1.55E2,1.26E2,5E0,1.4E4,1E0,6.542E4,1.993E3],"tree_param":{"num_deleted":"0","num_feature":"30","num_nodes":"15","size_leaf_vector":"1"}},{"base_weights":[7.504787E-4,-1.1135342E-1,1.21655725E-1,-8.115344E-2,-9.710168E0,8.357584E-2,7.992828E0,-4.728304E-2,6.123345E-3,4.543714E-1,-2.2070975E0,-1.4291906E-2,6.417105E-2,4.065639E0,-2.9182527E-2],"categories":[],"categories_nodes":[],"categories_segments":[],"categories_sizes":[],"default_left":[0,0,0,0,0,0,0,0,0,0,0,0,0,0,0],"id":88,"left_children":[1,3,5,7,9,11,13,-1,-1,-1,-1,-1,-1,-1,-1],"loss_changes":[1.14108E3,1.2662507E4,1.2139732E4,2.8388406E3,2.9474965E4,6.0400723E3,5.9558195E4,0E0,0E0,0E0,0E0,0E0,0E0,0E0,0E0],"parents":[2147483647,0,0,1,1,2,2,3,3,4,4,5,5,6,6],"right_children":[2,4,6,8,10,12,14,-1,-1,-1,-1,-1,-1,-1,-1],"split_conditions":[9.54E2,1.91E2,1.91E2,1.0155E3,1.6E1,4E0,7E0,-4.728304E-2,6.123345E-3,4.543714E-1,-2.2070975E0,-1.4291906E-2,6.417105E-2,4.065639E0,-2.9182527E-2],"split_indices":[4,3,3,12,2,18,5,0,0,0,0,0,0,0,0],"split_type":[0,0,0,0,0,0,0,0,0,0,0,0,0,0,0],"sum_hessian":[8.4186E4,4.3683E4,4.0503E4,4.3547E4,1.36E2,4.0309E4,1.94E2,1.1008E4,3.2539E4,6.8E1,6.8E1,2.9064E4,1.1245E4,3.5E1,1.59E2],"tree_param":{"num_deleted":"0","num_feature":"30","num_nodes":"15","size_leaf_vector":"1"}},{"base_weights":[7.09452E-4,1.5544315E-4,2.1200643E0,-7.543908E-2,1.6752023E-1,-8.031242E-3,2.7903354E-1,1.7434812E0,1.3974365E-2],"categories":[],"categories_nodes":[],"categories_segments":[],"categories_sizes":[],"default_left":[0,0,0,0,0,0,0,0,0],"id":89,"left_children":[1,3,-1,5,7,-1,-1,-1,-1],"loss_changes":[1.0876279E3,1.0651222E3,0E0,2.353407E3,6.871469E3,0E0,0E0,0E0,0E0],"parents":[2147483647,0,0,1,1,3,3,4,4],"right_children":[2,4,-1,6,8,-1,-1,-1,-1],"split_conditions":[9.07E2,8.581E1,2.1200643E0,8.79798E1,1E0,-8.031242E-3,2.7903354E-1,1.7434812E0,1.3974365E-2],"split_indices":[3,8,0,16,5,0,0,0,0],"split_type":[0,0,0,0,0,0,0,0,0],"sum_hessian":[8.4186E4,8.4185E4,1E0,5.7992E4,2.6193E4,5.7756E4,2.36E2,1.8E1,2.6175E4],"tree_param":{"num_deleted":"0","num_feature":"30","num_nodes":"9","size_leaf_vector":"1"}},{"base_weights":[6.9417624E-4,-9.460717E-2,1.3204412E-1,-7.4369736E-2,-7.3876266E0,-3.8869034E-3,1.621181E0,-2.0690113E-3,-4.949059E-2,-2.9403942E0,6.179525E-2,-7.320893E-3,4.937012E-2,-2.57905E-1,2.2511937E-1],"categories":[],"categories_nodes":[],"categories_segments":[],"categories_sizes":[],"default_left":[0,0,0,0,0,0,0,0,0,0,0,0,0,0,0],"id":90,"left_children":[1,3,5,7,9,11,13,-1,-1,-1,-1,-1,-1,-1,-1],"loss_changes":[1.0538508E3,7.2003154E3,7.1654688E3,1.180262E3,2.7201496E4,1.3598478E3,1.1294453E4,0E0,0E0,0E0,0E0,0E0,0E0,0E0,0E0],"parents":[2147483647,0,0,1,1,2,2,3,3,4,4,5,5,6,6],"right_children":[2,4,6,8,10,12,14,-1,-1,-1,-1,-1,-1,-1,-1],"split_conditions":[2.72E2,1.91E2,2.8E1,2.9E1,7.345E1,7E0,1.0108E3,-2.0690113E-3,-4.949059E-2,-2.9403942E0,6.179525E-2,-7.320893E-3,4.937012E-2,-2.57905E-1,2.2511937E-1],"split_indices":[17,3,3,3,8,3,12,0,0,0,0,0,0,0,0],"split_type":[0,0,0,0,0,0,0,0,0,0,0,0,0,0,0],"sum_hessian":[8.4186E4,4.8788E4,3.5398E4,4.8654E4,1.34E2,3.2438E4,2.96E3,4.3841E4,4.813E3,3.2E1,1.02E2,2.8452E4,3.986E3,4.76E2,2.484E3],"tree_param":{"num_deleted":"0","num_feature":"30","num_nodes":"15","size_leaf_vector":"1"}},{"base_weights":[5.964634E-4,2.6275523E-2,-4.749694E-1,1.5633516E-2,2.8117347E0,-3.3869687E-1,-2.1317438E1,1.7730571E-2,-6.2212683E-3,-1.1435795E0,1.2390985E0,6.610674E-3,-2.7662456E-1,1.180857E0,-3.0338328E0],"categories":[],"categories_nodes":[],"categories_segments":[],"categories_sizes":[],"default_left":[0,0,0,0,0,0,0,0,0,0,0,0,0,0,0],"id":91,"left_children":[1,3,5,7,9,11,13,-1,-1,-1,-1,-1,-1,-1,-1],"loss_changes":[1.0281113E3,2.367681E3,1.2242806E4,1.2000686E3,5.0787344E4,4.7684272E3,1.2012427E4,0E0,0E0,0E0,0E0,0E0,0E0,0E0,0E0],"parents":[2147483647,0,0,1,1,2,2,3,3,4,4,5,5,6,6],"right_children":[2,4,6,8,10,12,14,-1,-1,-1,-1,-1,-1,-1,-1],"split_conditions":[2.554E3,1.91E2,1.91E2,1.1E1,4E0,2.8E1,4.60312E0,1.7730571E-2,-6.2212683E-3,-1.1435795E0,1.2390985E0,6.610674E-3,-2.7662456E-1,1.180857E0,-3.0338328E0],"split_indices":[4,3,3,2,1,3,10,0,0,0,0,0,0,0,0],"split_type":[0,0,0,0,0,0,0,0,0,0,0,0,0,0,0],"sum_hessian":[8.4186E4,7.9874E4,4.312E3,7.9571E4,3.03E2,4.285E3,2.7E1,2.5389E4,5.4182E4,1.25E2,1.78E2,3.72E3,5.65E2,7E0,2E1],"tree_param":{"num_deleted":"0","num_feature":"30","num_nodes":"15","size_leaf_vector":"1"}},{"base_weights":[5.182521E-4,-4.6782224E-3,2.1610656E0,-7.594476E-2,1.5256053E-1,-7.294701E-2,4.532599E0,-8.008049E-3,2.6700267E-1,1.5941854E0,1.2721799E-2,3.30716E-2,-6.6974014E-2,2.0244631E-1,1.1710149E0],"categories":[],"categories_nodes":[],"categories_segments":[],"categories_sizes":[],"default_left":[0,0,0,0,0,0,0,0,0,0,0,0,0,0,0],"id":92,"left_children":[1,3,5,7,9,11,13,-1,-1,-1,-1,-1,-1,-1,-1],"loss_changes":[9.4519684E2,9.411471E2,1.0705338E3,2.114499E3,5.745443E3,3.0705301E1,1.8577158E3,0E0,0E0,0E0,0E0,0E0,0E0,0E0,0E0],"parents":[2147483647,0,0,1,1,2,2,3,3,4,4,5,5,6,6],"right_children":[2,4,6,8,10,12,14,-1,-1,-1,-1,-1,-1,-1,-1],"split_conditions":[8.7E1,8.581E1,4E0,8.79798E1,1E0,9.1E1,1.927E3,-8.008049E-3,2.6700267E-1,1.5941854E0,1.2721799E-2,3.30716E-2,-6.6974014E-2,2.0244631E-1,1.1710149E0],"split_indices":[7,8,3,16,5,7,4,0,0,0,0,0,0,0,0],"split_type":[0,0,0,0,0,0,0,0,0,0,0,0,0,0,0],"sum_hessian":[8.4186E4,8.3985E4,2.01E2,5.7792E4,2.6193E4,1.04E2,9.7E1,5.7561E4,2.31E2,1.8E1,2.6175E4,6.3E1,4.1E1,7.7E1,2E1],"tree_param":{"num_deleted":"0","num_feature":"30","num_nodes":"15","size_leaf_vector":"1"}},{"base_weights":[5.09217E-4,-5.713312E-1,1.9986132E-2,-4.6275616E-1,-2.7401493E0,1.2089347E-2,1.6153429E0,-3.854934E-2,-2.4436878E-1,-2.2796644E-1,-8.686904E-1,-2.1947742E-2,5.882904E-3,5.6185526E-1,2.4948277E-2],"categories":[],"categories_nodes":[],"categories_segments":[],"categories_sizes":[],"default_left":[0,0,0,0,0,0,0,0,0,0,0,0,0,0,0],"id":93,"left_children":[1,3,5,7,9,11,13,-1,-1,-1,-1,-1,-1,-1,-1],"loss_changes":[9.3766E2,6.5171674E2,1.0256621E3,2.2650897E2,1.8525989E2,1.0807573E3,2.4529102E3,0E0,0E0,0E0,0E0,0E0,0E0,0E0,0E0],"parents":[2147483647,0,0,1,1,2,2,3,3,4,4,5,5,6,6],"right_children":[2,4,6,8,10,12,14,-1,-1,-1,-1,-1,-1,-1,-1],"split_conditions":[1E0,8E0,1E0,1E0,4.6E1,1.0134E3,1.0144E3,-3.854934E-2,-2.4436878E-1,-2.2796644E-1,-8.686904E-1,-2.1947742E-2,5.882904E-3,5.6185526E-1,2.4948277E-2],"split_indices":[18,3,25,25,3,12,12,0,0,0,0,0,0,0,0],"split_type":[0,0,0,0,0,0,0,0,0,0,0,0,0,0,0],"sum_hessian":[8.4186E4,2.772E3,8.1414E4,2.641E3,1.31E2,8.1014E4,4E2,2.597E3,4.4E1,1.28E2,3E0,1.3925E4,6.7089E4,9E1,3.1E2],"tree_param":{"num_deleted":"0","num_feature":"30","num_nodes":"15","size_leaf_vector":"1"}},{"base_weights":[4.5331256E-4,-6.042036E-5,1.9659281E0,-1.0037139E-1,1.0812357E-1,-6.537061E-3,-8.3768314E-1,6.6364342E-3,6.698654E-1],"categories":[],"categories_nodes":[],"categories_segments":[],"categories_sizes":[],"default_left":[0,0,0,0,0,0,0,0,0],"id":94,"left_children":[1,3,-1,5,7,-1,-1,-1,-1],"loss_changes":[9.352458E2,9.1360077E2,0E0,1.1332023E4,1.0328415E4,0E0,0E0,0E0,0E0],"parents":[2147483647,0,0,1,1,3,3,4,4],"right_children":[2,4,-1,6,8,-1,-1,-1,-1],"split_conditions":[9.07E2,9.54E2,1.9659281E0,1.91E2,1.91E2,-6.537061E-3,-8.3768314E-1,6.6364342E-3,6.698654E-1],"split_indices":[3,4,0,3,3,0,0,0,0],"split_type":[0,0,0,0,0,0,0,0,0],"sum_hessian":[8.4186E4,8.4185E4,1E0,4.3682E4,4.0503E4,4.3547E4,1.35E2,4.0309E4,1.94E2],"tree_param":{"num_deleted":"0","num_feature":"30","num_nodes":"9","size_leaf_vector":"1"}},{"base_weights":[4.334232E-4,2.4441382E-2,-4.4418427E-1,1.4835807E-2,2.5386202E0,-3.1547526E-1,-2.0129995E1,-1.8089216E-2,7.0773126E-3,1.2363127E0,-1.0541035E0,-6.7954045E-4,-3.0998325E-1,2.8712914E0,-2.509046E0],"categories":[],"categories_nodes":[],"categories_segments":[],"categories_sizes":[],"default_left":[0,0,0,0,0,0,0,0,0,0,0,0,0,0,0],"id":95,"left_children":[1,3,5,7,9,11,13,-1,-1,-1,-1,-1,-1,-1,-1],"loss_changes":[8.986535E2,1.9289543E3,1.0921678E4,1.0720923E3,4.7680395E4,4.0846943E3,1.16866E4,0E0,0E0,0E0,0E0,0E0,0E0,0E0,0E0],"parents":[2147483647,0,0,1,1,2,2,3,3,4,4,5,5,6,6],"right_children":[2,4,6,8,10,12,14,-1,-1,-1,-1,-1,-1,-1,-1],"split_conditions":[2.554E3,1.91E2,1.91E2,-1.4E1,1.1E1,3.7E1,8E0,-1.8089216E-2,7.0773126E-3,1.2363127E0,-1.0541035E0,-6.7954045E-4,-3.0998325E-1,2.8712914E0,-2.509046E0],"split_indices":[4,3,3,3,5,3,13,0,0,0,0,0,0,0,0],"split_type":[0,0,0,0,0,0,0,0,0,0,0,0,0,0,0],"sum_hessian":[8.4186E4,7.9874E4,4.312E3,7.9571E4,3.03E2,4.285E3,2.7E1,1.8112E4,6.1459E4,1.7E2,1.33E2,3.898E3,3.87E2,3E0,2.4E1],"tree_param":{"num_deleted":"0","num_feature":"30","num_nodes":"15","size_leaf_vector":"1"}},{"base_weights":[3.966666E-4,-4.988153E-2,2.1206664E-1,-3.728045E-2,-7.3637886E0,1.4898041E-1,4.8897314E0,-5.5843787E-3,4.833492E-2,4.93052E-1,-2.4113224E0,8.445082E-2,-2.5190054E-3,-5.5798173E-2,6.6708455E0],"categories":[],"categories_nodes":[],"categories_segments":[],"categories_sizes":[],"default_left":[0,0,0,0,0,0,0,0,0,0,0,0,0,0,0],"id":96,"left_children":[1,3,5,7,9,11,13,-1,-1,-1,-1,-1,-1,-1,-1],"loss_changes":[8.95961E2,6.2694897E3,4.767732E3,9.3303894E2,2.8809658E4,2.1974124E3,8.108378E4,0E0,0E0,0E0,0E0,0E0,0E0,0E0,0E0],"parents":[2147483647,0,0,1,1,2,2,3,3,4,4,5,5,6,6],"right_children":[2,4,6,8,10,12,14,-1,-1,-1,-1,-1,-1,-1,-1],"split_conditions":[1.6770115E1,1.91E2,1.91E2,4.1E1,5.25E2,6E0,1E0,-5.5843787E-3,4.833492E-2,4.93052E-1,-2.4113224E0,8.445082E-2,-2.5190054E-3,-5.5798173E-2,6.6708455E0],"split_indices":[16,3,3,3,17,2,29,0,0,0,0,0,0,0,0],"split_type":[0,0,0,0,0,0,0,0,0,0,0,0,0,0,0],"sum_hessian":[8.4186E4,6.8028E4,1.6158E4,6.7912E4,1.16E2,1.5944E4,2.14E2,6.5148E4,2.764E3,7E1,4.6E1,2.944E3,1.3E4,1.99E2,1.5E1],"tree_param":{"num_deleted":"0","num_feature":"30","num_nodes":"15","size_leaf_vector":"1"}},{"base_weights":[4.1788912E-4,-8.5603744E-2,1.18977994E-1,-6.748238E-2,-6.616043E0,8.923559E-2,5.433206E0,2.4331925E-3,-2.9421479E-2,-6.3712165E-2,-3.217348E0,-8.742084E-3,6.245303E-2,1.474717E0,-2.419049E0],"categories":[],"categories_nodes":[],"categories_segments":[],"categories_sizes":[],"default_left":[0,0,0,0,0,0,0,0,0,0,0,0,0,0,0],"id":97,"left_children":[1,3,5,7,9,11,13,-1,-1,-1,-1,-1,-1,-1,-1],"loss_changes":[8.58611E2,5.773266E3,5.5946074E3,1.1745957E3,2.2952896E4,3.90119E3,6.853124E4,0E0,0E0,0E0,0E0,0E0,0E0,0E0,0E0],"parents":[2147483647,0,0,1,1,2,2,3,3,4,4,5,5,6,6],"right_children":[2,4,6,8,10,12,14,-1,-1,-1,-1,-1,-1,-1,-1],"split_conditions":[2.72E2,1.91E2,1.91E2,4E0,2E-2,4E0,2.4E1,2.4331925E-3,-2.9421479E-2,-6.3712165E-2,-3.217348E0,-8.742084E-3,