{"learner":{"attributes":{"best_iteration":"293","best_score":"10.11556206986106"},"feature_names":["year","month","day","arr_delay","distance","hour","minute","temp","humid","wind_dir","wind_speed","precip","pressure","visib","distance_ratio_by_total","distance_category","aircraft_count_by_airline","allegiant_air","american_airlines_inc","delta_air_lines_inc","frontier_airlines_inc","hawaiian_airlines_inc","horizon_air","jetblue_airways","skywest_airlines_inc","southwest_airlines_co","spirit_air_lines","united_air_lines_inc"],"feature_types":["int","int","int","float","int","int","int","float","float","float","float","float","float","float","float","int","int","int","int","int","int","int","int","int","int","int","int","int"],"gradient_booster":{"model":{"gbtree_model_param":{"num_parallel_tree":"1","num_trees":"294"},"iteration_indptr":[0,1,2,3,4,5,6,7,8,9,10,11,12,13,14,15,16,17,18,19,20,21,22,23,24,25,26,27,28,29,30,31,32,33,34,35,36,37,38,39,40,41,42,43,44,45,46,47,48,49,50,51,52,53,54,55,56,57,58,59,60,61,62,63,64,65,66,67,68,69,70,71,72,73,74,75,76,77,78,79,80,81,82,83,84,85,86,87,88,89,90,91,92,93,94,95,96,97,98,99,100,101,102,103,104,105,106,107,108,109,110,111,112,113,114,115,116,117,118,119,120,121,122,123,124,125,126,127,128,129,130,131,132,133,134,135,136,137,138,139,140,141,142,143,144,145,146,147,148,149,150,151,152,153,154,155,156,157,158,159,160,161,162,163,164,165,166,167,168,169,170,171,172,173,174,175,176,177,178,179,180,181,182,183,184,185,186,187,188,189,190,191,192,193,194,195,196,197,198,199,200,201,202,203,204,205,206,207,208,209,210,211,212,213,214,215,216,217,218,219,220,221,222,223,224,225,226,227,228,229,230,231,232,233,234,235,236,237,238,239,240,241,242,243,244,245,246,247,248,249,250,251,252,253,254,255,256,257,258,259,260,261,262,263,264,265,266,267,268,269,270,271,272,273,274,275,276,277,278,279,280,281,282,283,284,285,286,287,288,289,290,291,292,293,294],"tree_info":[0,0,0,0,0,0,0,0,0,0,0,0,0,0,0,0,0,0,0,0,0,0,0,0,0,0,0,0,0,0,0,0,0,0,0,0,0,0,0,0,0,0,0,0,0,0,0,0,0,0,0,0,0,0,0,0,0,0,0,0,0,0,0,0,0,0,0,0,0,0,0,0,0,0,0,0,0,0,0,0,0,0,0,0,0,0,0,0,0,0,0,0,0,0,0,0,0,0,0,0,0,0,0,0,0,0,0,0,0,0,0,0,0,0,0,0,0,0,0,0,0,0,0,0,0,0,0,0,0,0,0,0,0,0,0,0,0,0,0,0,0,0,0,0,0,0,0,0,0,0,0,0,0,0,0,0,0,0,0,0,0,0,0,0,0,0,0,0,0,0,0,0,0,0,0,0,0,0,0,0,0,0,0,0,0,0,0,0,0,0,0,0,0,0,0,0,0,0,0,0,0,0,0,0,0,0,0,0,0,0,0,0,0,0,0,0,0,0,0,0,0,0,0,0,0,0,0,0,0,0,0,0,0,0,0,0,0,0,0,0,0,0,0,0,0,0,0,0,0,0,0,0,0,0,0,0,0,0,0,0,0,0,0,0,0,0,0,0,0,0,0,0,0,0,0,0,0,0,0,0,0,0,0,0,0,0,0,0,0,0,0,0,0,0],"trees":[{"base_weights":[4.445126E-8,-3.8877206E0,1.18147865E2,-7.176945E0,2.527267E1,9.617289E1,2.71294E2,-5.4277605E-1,2.6680792E-2,9.8890036E-1,2.409469E0,4.73007E0,8.277305E0,2.4304209E1,1.5406011E1],"categories":[],"categories_nodes":[],"categories_segments":[],"categories_sizes":[],"default_left":[0,0,0,0,0,0,0,0,0,0,0,0,0,0,0],"id":0,"left_children":[1,3,5,7,9,11,13,-1,-1,-1,-1,-1,-1,-1,-1],"loss_changes":[3.866973E7,7.817836E6,8.999864E6,1.0785702E6,1.0862935E6,1.67353E6,4.80384E5,0E0,0E0,0E0,0E0,0E0,0E0,0E0,0E0],"parents":[2147483647,0,0,1,1,2,2,3,3,4,4,5,5,6,6],"right_children":[2,4,6,8,10,12,14,-1,-1,-1,-1,-1,-1,-1,-1],"split_conditions":[6.7E1,2E1,1.88E2,3E0,3.8E1,1.19E2,6E0,-5.4277605E-1,2.6680792E-2,9.8890036E-1,2.409469E0,4.73007E0,8.277305E0,2.4304209E1,1.5406011E1],"split_indices":[3,3,3,3,3,3,5,0,0,0,0,0,0,0,0],"split_type":[0,0,0,0,0,0,0,0,0,0,0,0,0,0,0],"sum_hessian":[8.4186E4,8.1505E4,2.681E3,7.3244E4,8.261E3,2.346E3,3.35E2,5.8441E4,1.4803E4,5.255E3,3.006E3,1.686E3,6.6E2,2.6E1,3.09E2],"tree_param":{"num_deleted":"0","num_feature":"28","num_nodes":"15","size_leaf_vector":"1"}},{"base_weights":[6.6046644E-4,-4.100159E0,9.926505E1,-6.96041E0,1.9845259E1,8.17913E1,2.552453E2,-5.170997E-1,-3.5069104E-2,7.18694E-1,1.816807E0,3.7570295E0,7.137079E0,2.2909521E1,1.4490901E1],"categories":[],"categories_nodes":[],"categories_segments":[],"categories_sizes":[],"default_left":[0,0,0,0,0,0,0,0,0,0,0,0,0,0,0],"id":1,"left_children":[1,3,5,7,9,11,13,-1,-1,-1,-1,-1,-1,-1,-1],"loss_changes":[3.427002E7,5.5374095E6,9.082492E6,7.9012525E5,7.14378E5,2.131548E6,4.30728E5,0E0,0E0,0E0,0E0,0E0,0E0,0E0,0E0],"parents":[2147483647,0,0,1,1,2,2,3,3,4,4,5,5,6,6],"right_children":[2,4,6,8,10,12,14,-1,-1,-1,-1,-1,-1,-1,-1],"split_conditions":[5.8E1,1.8E1,1.88E2,2E0,3.2E1,1.02E2,6E0,-5.170997E-1,-3.5069104E-2,7.18694E-1,1.816807E0,3.7570295E0,7.137079E0,2.2909521E1,1.4490901E1],"split_indices":[3,3,3,3,3,3,5,0,0,0,0,0,0,0,0],"split_type":[0,0,0,0,0,0,0,0,0,0,0,0,0,0,0],"sum_hessian":[8.4186E4,8.0847E4,3.339E3,7.2221E4,8.626E3,3.004E3,3.35E2,5.6891E4,1.533E4,4.983E3,3.643E3,2.013E3,9.91E2,2.6E1,3.09E2],"tree_param":{"num_deleted":"0","num_feature":"28","num_nodes":"15","size_leaf_vector":"1"}},{"base_weights":[1.218212E-3,-3.443952E0,1.0469997E2,-6.18397E0,2.396779E1,8.5264694E1,2.4014609E2,-4.6826923E-1,1.1143133E-1,1.0304048E0,2.327085E0,4.185087E0,7.360123E0,2.1594866E1,1.3630147E1],"categories":[],"categories_nodes":[],"categories_segments":[],"categories_sizes":[],"default_left":[0,0,0,0,0,0,0,0,0,0,0,0,0,0,0],"id":2,"left_children":[1,3,5,7,9,11,13,-1,-1,-1,-1,-1,-1,-1,-1],"loss_changes":[3.0367036E7,6.121955E6,7.039706E6,9.990325E5,7.45231E5,1.340898E6,3.86176E5,0E0,0E0,0E0,0E0,0E0,0E0,0E0,0E0],"parents":[2147483647,0,0,1,1,2,2,3,3,4,4,5,5,6,6],"right_children":[2,4,6,8,10,12,14,-1,-1,-1,-1,-1,-1,-1,-1],"split_conditions":[6.7E1,2.2E1,1.88E2,5E0,4.3E1,1.19E2,6E0,-4.6826923E-1,1.1143133E-1,1.0304048E0,2.327085E0,4.185087E0,7.360123E0,2.1594866E1,1.3630147E1],"split_indices":[3,3,3,3,3,3,5,0,0,0,0,0,0,0,0],"split_type":[0,0,0,0,0,0,0,0,0,0,0,0,0,0,0],"sum_hessian":[8.4186E4,8.1505E4,2.681E3,7.4099E4,7.406E3,2.346E3,3.35E2,6.1348E4,1.2751E4,5.135E3,2.271E3,1.686E3,6.6E2,2.6E1,3.09E2],"tree_param":{"num_deleted":"0","num_feature":"28","num_nodes":"15","size_leaf_vector":"1"}},{"base_weights":[1.7369114E-3,-3.4381828E0,9.28384E1,-6.164645E0,1.8541279E1,7.6072586E1,2.2594019E2,-4.7215262E-1,-7.26465E-2,6.9775265E-1,1.8079525E0,3.4667323E0,6.3371677E0,1.6531996E1,1.2075322E1],"categories":[],"categories_nodes":[],"categories_segments":[],"categories_sizes":[],"default_left":[0,0,0,0,0,0,0,0,0,0,0,0,0,0,0],"id":3,"left_children":[1,3,5,7,9,11,13,-1,-1,-1,-1,-1,-1,-1,-1],"loss_changes":[2.6885496E7,4.864921E6,6.695346E6,6.280795E5,7.217985E5,1.441984E6,3.46924E5,0E0,0E0,0E0,0E0,0E0,0E0,0E0,0E0],"parents":[2147483647,0,0,1,1,2,2,3,3,4,4,5,5,6,6],"right_children":[2,4,6,8,10,12,14,-1,-1,-1,-1,-1,-1,-1,-1],"split_conditions":[6.2E1,1.8E1,1.88E2,0E0,3.5E1,1.02E2,8E0,-4.7215262E-1,-7.26465E-2,6.9775265E-1,1.8079525E0,3.4667323E0,6.3371677E0,1.6531996E1,1.2075322E1],"split_indices":[3,3,3,3,3,3,5,0,0,0,0,0,0,0,0],"split_type":[0,0,0,0,0,0,0,0,0,0,0,0,0,0,0],"sum_hessian":[8.4186E4,8.1179E4,3.007E3,7.2221E4,8.958E3,2.672E3,3.35E2,5.3277E4,1.8944E4,5.674E3,3.284E3,1.681E3,9.91E2,1.01E2,2.34E2],"tree_param":{"num_deleted":"0","num_feature":"28","num_nodes":"15","size_leaf_vector":"1"}},{"base_weights":[2.1130512E-3,-3.5935328E0,7.879902E1,-6.1617913E0,1.3317007E1,5.8451187E1,1.6994295E2,-4.5786223E-1,-1.5217088E-1,5.028053E-1,1.4352545E0,2.7919972E0,4.85393E0,7.549697E0,1.2666899E1],"categories":[],"categories_nodes":[],"categories_segments":[],"categories_sizes":[],"default_left":[0,0,0,0,0,0,0,0,0,0,0,0,0,0,0],"id":4,"left_children":[1,3,5,7,9,11,13,-1,-1,-1,-1,-1,-1,-1,-1],"loss_changes":[2.3852628E7,3.4968562E6,6.803798E6,3.8372625E5,5.575769E5,7.97922E5,1.208118E6,0E0,0E0,0E0,0E0,0E0,0E0,0E0,0E0],"parents":[2147483647,0,0,1,1,2,2,3,3,4,4,5,5,6,6],"right_children":[2,4,6,8,10,12,14,-1,-1,-1,-1,-1,-1,-1,-1],"split_conditions":[5.4E1,1.4E1,1.42E2,-2E0,3.2E1,8.9E1,1.88E2,-4.5786223E-1,-1.5217088E-1,5.028053E-1,1.4352545E0,2.7919972E0,4.85393E0,7.549697E0,1.2666899E1],"split_indices":[3,3,3,3,3,3,3,0,0,0,0,0,0,0,0],"split_type":[0,0,0,0,0,0,0,0,0,0,0,0,0,0,0],"sum_hessian":[8.4186E4,8.0513E4,3.673E3,6.9898E4,1.0615E4,3.004E3,6.69E2,4.9165E4,2.0733E4,7.306E3,3.309E3,1.999E3,1.005E3,3.34E2,3.35E2],"tree_param":{"num_deleted":"0","num_feature":"28","num_nodes":"15","size_leaf_vector":"1"}},{"base_weights":[2.3340373E-3,-2.670804E0,9.395699E1,-5.031104E0,2.2594982E1,7.605251E1,1.9993195E2,-3.8211933E-1,1.792695E-1,9.613496E-1,2.106653E0,3.7145894E0,6.175122E0,1.868008E1,1.1286592E1],"categories":[],"categories_nodes":[],"categories_segments":[],"categories_sizes":[],"default_left":[0,0,0,0,0,0,0,0,0,0,0,0,0,0,0],"id":5,"left_children":[1,3,5,7,9,11,13,-1,-1,-1,-1,-1,-1,-1,-1],"loss_changes":[2.1144134E7,4.8817625E6,4.403902E6,8.313185E5,5.76024E5,7.47747E5,3.4246E5,0E0,0E0,0E0,0E0,0E0,0E0,0E0,0E0],"parents":[2147483647,0,0,1,1,2,2,3,3,4,4,5,5,6,6],"right_children":[2,4,6,8,10,12,14,-1,-1,-1,-1,-1,-1,-1,-1],"split_conditions":[7.3E1,2.4E1,1.88E2,7E0,4.5E1,1.19E2,6E0,-3.8211933E-1,1.792695E-1,9.613496E-1,2.106653E0,3.7145894E0,6.175122E0,1.868008E1,1.1286592E1],"split_indices":[3,3,3,3,3,3,5,0,0,0,0,0,0,0,0],"split_type":[0,0,0,0,0,0,0,0,0,0,0,0,0,0,0],"sum_hessian":[8.4186E4,8.1858E4,2.328E3,7.4865E4,6.993E3,1.993E3,3.35E2,6.3889E4,1.0976E4,4.643E3,2.35E3,1.333E3,6.6E2,2.6E1,3.09E2],"tree_param":{"num_deleted":"0","num_feature":"28","num_nodes":"15","size_leaf_vector":"1"}},{"base_weights":[2.70228E-3,-3.1823268E0,6.980113E1,-5.5432854E0,1.131665E1,5.1709923E1,1.5083736E2,-4.1442734E-1,-1.5425058E-1,3.8441077E-1,1.1872133E0,2.4688907E0,4.2963085E0,6.734252E0,1.1209622E1],"categories":[],"categories_nodes":[],"categories_segments":[],"categories_sizes":[],"default_left":[0,0,0,0,0,0,0,0,0,0,0,0,0,0,0],"id":6,"left_children":[1,3,5,7,9,11,13,-1,-1,-1,-1,-1,-1,-1,-1],"loss_changes":[1.8715836E7,2.7561768E6,5.378444E6,2.88693E5,4.7201238E5,6.267485E5,9.23403E5,0E0,0E0,0E0,0E0,0E0,0E0,0E0,0E0],"parents":[2147483647,0,0,1,1,2,2,3,3,4,4,5,5,6,6],"right_children":[2,4,6,8,10,12,14,-1,-1,-1,-1,-1,-1,-1,-1],"split_conditions":[5.4E1,1.3E1,1.42E2,-3E0,2.9E1,8.9E1,1.88E2,-4.1442734E-1,-1.5425058E-1,3.8441077E-1,1.1872133E0,2.4688907E0,4.2963085E0,6.734252E0,1.1209622E1],"split_indices":[3,3,3,3,3,3,3,0,0,0,0,0,0,0,0],"split_type":[0,0,0,0,0,0,0,0,0,0,0,0,0,0,0],"sum_hessian":[8.4186E4,8.0513E4,3.673E3,6.9239E4,1.1274E4,3.004E3,6.69E2,4.6859E4,2.238E4,7.203E3,4.071E3,1.999E3,1.005E3,3.34E2,3.35E2],"tree_param":{"num_deleted":"0","num_feature":"28","num_nodes":"15","size_leaf_vector":"1"}},{"base_weights":[2.8468673E-3,-2.544581E0,7.74192E1,-4.454679E0,1.8988914E1,6.3140015E1,1.7693057E2,-3.3878514E-1,1.6132672E-1,8.49586E-1,1.7864704E0,3.0880263E0,5.478645E0,1.696487E1,9.950327E0],"categories":[],"categories_nodes":[],"categories_segments":[],"categories_sizes":[],"default_left":[0,0,0,0,0,0,0,0,0,0,0,0,0,0,0],"id":7,"left_children":[1,3,5,7,9,11,13,-1,-1,-1,-1,-1,-1,-1,-1],"loss_changes":[1.6602931E7,3.3525152E6,3.799791E6,6.5974275E5,3.449325E5,7.60318E5,3.12918E5,0E0,0E0,0E0,0E0,0E0,0E0,0E0,0E0],"parents":[2147483647,0,0,1,1,2,2,3,3,4,4,5,5,6,6],"right_children":[2,4,6,8,10,12,14,-1,-1,-1,-1,-1,-1,-1,-1],"split_conditions":[6.7E1,2.4E1,1.88E2,7E0,4.5E1,1.19E2,6E0,-3.3878514E-1,1.6132672E-1,8.49586E-1,1.7864704E0,3.0880263E0,5.478645E0,1.696487E1,9.950327E0],"split_indices":[3,3,3,3,3,3,5,0,0,0,0,0,0,0,0],"split_type":[0,0,0,0,0,0,0,0,0,0,0,0,0,0,0],"sum_hessian":[8.4186E4,8.1505E4,2.681E3,7.4865E4,6.64E3,2.346E3,3.35E2,6.3889E4,1.0976E4,4.643E3,1.997E3,1.686E3,6.6E2,2.6E1,3.09E2],"tree_param":{"num_deleted":"0","num_feature":"28","num_nodes":"15","size_leaf_vector":"1"}},{"base_weights":[3.1278678E-3,-2.227944E0,7.842017E1,-4.1369367E0,1.9362669E1,6.3544456E1,1.6646707E2,-3.1475887E-1,1.8553355E-1,8.654209E-1,1.8411096E0,3.3360496E0,6.0086365E0,1.2120789E1,8.344094E0],"categories":[],"categories_nodes":[],"categories_segments":[],"categories_sizes":[],"default_left":[0,0,0,0,0,0,0,0,0,0,0,0,0,0,0],"id":8,"left_children":[1,3,5,7,9,11,13,-1,-1,-1,-1,-1,-1,-1,-1],"loss_changes":[1.472903E7,3.3740068E6,3.039855E6,6.243724E5,3.7075675E5,5.56626E5,2.99676E5,0E0,0E0,0E0,0E0,0E0,0E0,0E0,0E0],"parents":[2147483647,0,0,1,1,2,2,3,3,4,4,5,5,6,6],"right_children":[2,4,6,8,10,12,14,-1,-1,-1,-1,-1,-1,-1,-1],"split_conditions":[7.3E1,2.5E1,1.88E2,8E0,4.8E1,1.42E2,9E0,-3.1475887E-1,1.8553355E-1,8.654209E-1,1.8411096E0,3.3360496E0,6.0086365E0,1.2120789E1,8.344094E0],"split_indices":[3,3,3,3,3,3,5,0,0,0,0,0,0,0,0],"split_type":[0,0,0,0,0,0,0,0,0,0,0,0,0,0,0],"sum_hessian":[8.4186E4,8.1858E4,2.328E3,7.5209E4,6.649E3,1.993E3,3.35E2,6.4952E4,1.0257E4,4.685E3,1.964E3,1.659E3,3.34E2,1.37E2,1.98E2],"tree_param":{"num_deleted":"0","num_feature":"28","num_nodes":"15","size_leaf_vector":"1"}},{"base_weights":[3.325836E-3,-1.9417164E0,7.98511E1,-3.8904111E0,1.9064915E1,6.433212E1,1.5660791E2,-3.1406203E-1,9.10799E-2,8.138599E-1,1.7944628E0,3.3739102E0,5.6516395E0,1.5295796E1,8.78306E0],"categories":[],"categories_nodes":[],"categories_segments":[],"categories_sizes":[],"default_left":[0,0,0,0,0,0,0,0,0,0,0,0,0,0,0],"id":9,"left_children":[1,3,5,7,9,11,13,-1,-1,-1,-1,-1,-1,-1,-1],"loss_changes":[1.3075011E7,3.3644002E6,2.374681E6,5.623485E5,4.164095E5,3.869845E5,2.72201E5,0E0,0E0,0E0,0E0,0E0,0E0,0E0,0E0],"parents":[2147483647,0,0,1,1,2,2,3,3,4,4,5,5,6,6],"right_children":[2,4,6,8,10,12,14,-1,-1,-1,-1,-1,-1,-1,-1],"split_conditions":[8E1,2.5E1,1.88E2,4E0,4.8E1,1.42E2,6E0,-3.1406203E-1,9.10799E-2,8.138599E-1,1.7944628E0,3.3739102E0,5.6516395E0,1.5295796E1,8.78306E0],"split_indices":[3,3,3,3,3,3,5,0,0,0,0,0,0,0,0],"split_type":[0,0,0,0,0,0,0,0,0,0,0,0,0,0,0],"sum_hessian":[8.4186E4,8.2185E4,2.001E3,7.5209E4,6.976E3,1.666E3,3.35E2,5.9945E4,1.5264E4,4.685E3,2.291E3,1.332E3,3.34E2,2.6E1,3.09E2],"tree_param":{"num_deleted":"0","num_feature":"28","num_nodes":"15","size_leaf_vector":"1"}},{"base_weights":[3.5493318E-3,-1.825977E0,7.510917E1,-3.6121655E0,1.8446932E1,6.0503872E1,1.4734702E2,-2.7569413E-1,2.0015909E-1,7.9006094E-1,1.6875741E0,3.173004E0,5.3158536E0,1.0810996E1,7.3285856E0],"categories":[],"categories_nodes":[],"categories_segments":[],"categories_sizes":[],"default_left":[0,0,0,0,0,0,0,0,0,0,0,0,0,0,0],"id":10,"left_children":[1,3,5,7,9,11,13,-1,-1,-1,-1,-1,-1,-1,-1],"loss_changes":[1.156808E7,2.976123E6,2.103305E6,5.340327E5,3.405345E5,3.425115E5,2.56638E5,0E0,0E0,0E0,0E0,0E0,0E0,0E0,0E0],"parents":[2147483647,0,0,1,1,2,2,3,3,4,4,5,5,6,6],"right_children":[2,4,6,8,10,12,14,-1,-1,-1,-1,-1,-1,-1,-1],"split_conditions":[8E1,2.6E1,1.88E2,9E0,4.8E1,1.42E2,9E0,-2.7569413E-1,2.0015909E-1,7.9006094E-1,1.6875741E0,3.173004E0,5.3158536E0,1.0810996E1,7.3285856E0],"split_indices":[3,3,3,3,3,3,5,0,0,0,0,0,0,0,0],"split_type":[0,0,0,0,0,0,0,0,0,0,0,0,0,0,0],"sum_hessian":[8.4186E4,8.2185E4,2.001E3,7.5531E4,6.654E3,1.666E3,3.35E2,6.5938E4,9.593E3,4.363E3,2.291E3,1.332E3,3.34E2,1.37E2,1.98E2],"tree_param":{"num_deleted":"0","num_feature":"28","num_nodes":"15","size_leaf_vector":"1"}},{"base_weights":[3.682738E-3,-2.2379558E0,5.426476E1,-3.9952757E0,9.810943E0,3.989512E1,1.1146931E2,-3.3596382E-1,-1.1301771E-1,3.8783804E-1,1.0735885E0,1.8658961E0,3.222177E0,5.000018E0,8.260634E0],"categories":[],"categories_nodes":[],"categories_segments":[],"categories_sizes":[],"default_left":[0,0,0,0,0,0,0,0,0,0,0,0,0,0,0],"id":11,"left_children":[1,3,5,7,9,11,13,-1,-1,-1,-1,-1,-1,-1,-1],"loss_changes":[1.02401E7,1.7118961E6,2.741062E6,2.4321262E5,2.787468E5,3.233195E5,4.89806E5,0E0,0E0,0E0,0E0,0E0,0E0,0E0,0E0],"parents":[2147483647,0,0,1,1,2,2,3,3,4,4,5,5,6,6],"right_children":[2,4,6,8,10,12,14,-1,-1,-1,-1,-1,-1,-1,-1],"split_conditions":[5.8E1,1.5E1,1.42E2,-6E0,3.5E1,8.9E1,1.88E2,-3.3596382E-1,-1.1301771E-1,3.8783804E-1,1.0735885E0,1.8658961E0,3.222177E0,5.000018E0,8.260634E0],"split_indices":[3,3,3,3,3,3,3,0,0,0,0,0,0,0,0],"split_type":[0,0,0,0,0,0,0,0,0,0,0,0,0,0,0],"sum_hessian":[8.4186E4,8.0847E4,3.339E3,7.0557E4,1.029E4,2.67E3,6.69E2,3.958E4,3.0977E4,7.338E3,2.952E3,1.665E3,1.005E3,3.34E2,3.35E2],"tree_param":{"num_deleted":"0","num_feature":"28","num_nodes":"15","size_leaf_vector":"1"}},{"base_weights":[3.693288E-3,-1.6163065E0,6.650784E1,-3.2863789E0,1.5462405E1,5.359303E1,1.303843E2,-2.6783323E-1,6.0326494E-2,6.2578017E-1,1.4337877E0,2.8120165E0,4.7029476E0,1.3323634E1,7.261051E0],"categories":[],"categories_nodes":[],"categories_segments":[],"categories_sizes":[],"default_left":[0,0,0,0,0,0,0,0,0,0,0,0,0,0,0],"id":12,"left_children":[1,3,5,7,9,11,13,-1,-1,-1,-1,-1,-1,-1,-1],"loss_changes":[9.070138E6,2.3442162E6,1.644568E6,3.8879938E5,3.120315E5,2.666905E5,2.401125E5,0E0,0E0,0E0,0E0,0E0,0E0,0E0,0E0],"parents":[2147483647,0,0,1,1,2,2,3,3,4,4,5,5,6,6],"right_children":[2,4,6,8,10,12,14,-1,-1,-1,-1,-1,-1,-1,-1],"split_conditions":[8E1,2.4E1,1.88E2,3E0,4.5E1,1.42E2,6E0,-2.6783323E-1,6.0326494E-2,6.2578017E-1,1.4337877E0,2.8120165E0,4.7029476E0,1.3323634E1,7.261051E0],"split_indices":[3,3,3,3,3,3,5,0,0,0,0,0,0,0,0],"split_type":[0,0,0,0,0,0,0,0,0,0,0,0,0,0,0],"sum_hessian":[8.4186E4,8.2185E4,2.001E3,7.4865E4,7.32E3,1.666E3,3.35E2,5.8441E4,1.6424E4,4.643E3,2.677E3,1.332E3,3.34E2,2.6E1,3.09E2],"tree_param":{"num_deleted":"0","num_feature":"28","num_nodes":"15","size_leaf_vector":"1"}},{"base_weights":[3.8290215E-3,-1.7697182E0,5.390194E1,-3.4903274E0,1.0083372E1,4.403322E1,1.2267573E2,-2.936788E-1,-8.3872885E-2,3.9015266E-1,1.1140996E0,1.9436747E0,3.5513587E0,5.316449E0,8.590701E0],"categories":[],"categories_nodes":[],"categories_segments":[],"categories_sizes":[],"default_left":[0,0,0,0,0,0,0,0,0,0,0,0,0,0,0],"id":13,"left_children":[1,3,5,7,9,11,13,-1,-1,-1,-1,-1,-1,-1,-1],"loss_changes":[8.0476025E6,1.6623122E6,1.8148965E6,2.131515E5,3.1453875E5,4.15029E5,2.28677E5,0E0,0E0,0E0,0E0,0E0,0E0,0E0,0E0],"parents":[2147483647,0,0,1,1,2,2,3,3,4,4,5,5,6,6],"right_children":[2,4,6,8,10,12,14,-1,-1,-1,-1,-1,-1,-1,-1],"split_conditions":[6.7E1,1.6E1,1.88E2,-5E0,3.8E1,1.02E2,2.72E2,-2.936788E-1,-8.3872885E-2,3.9015266E-1,1.1140996E0,1.9436747E0,3.5513587E0,5.316449E0,8.590701E0],"split_indices":[3,3,3,3,3,3,16,0,0,0,0,0,0,0,0],"split_type":[0,0,0,0,0,0,0,0,0,0,0,0,0,0,0],"sum_hessian":[8.4186E4,8.1505E4,2.681E3,7.1174E4,1.0331E4,2.346E3,3.35E2,4.2106E4,2.9068E4,7.325E3,3.006E3,1.355E3,9.91E2,1.33E2,2.02E2],"tree_param":{"num_deleted":"0","num_feature":"28","num_nodes":"15","size_leaf_vector":"1"}},{"base_weights":[3.8445326E-3,-1.8675152E0,4.5301956E1,-3.4477923E0,7.557952E0,3.326501E1,9.322043E1,-2.9545006E-1,-1.167469E-1,2.7216914E-1,8.398738E-1,1.557027E0,2.6846657E0,4.212527E0,6.8772883E0],"categories":[],"categories_nodes":[],"categories_segments":[],"categories_sizes":[],"default_left":[0,0,0,0,0,0,0,0,0,0,0,0,0,0,0],"id":14,"left_children":[1,3,5,7,9,11,13,-1,-1,-1,-1,-1,-1,-1,-1],"loss_changes":[7.136538E6,1.204245E6,1.9233845E6,1.5564656E5,2.2685538E5,2.2349075E5,3.267555E5,0E0,0E0,0E0,0E0,0E0,0E0,0E0,0E0],"parents":[2147483647,0,0,1,1,2,2,3,3,4,4,5,5,6,6],"right_children":[2,4,6,8,10,12,14,-1,-1,-1,-1,-1,-1,-1,-1],"split_conditions":[5.8E1,1.3E1,1.42E2,-8E0,3.2E1,8.9E1,1.88E2,-2.9545006E-1,-1.167469E-1,2.7216914E-1,8.398738E-1,1.557027E0,2.6846657E0,4.212527E0,6.8772883E0],"split_indices":[3,3,3,3,3,3,3,0,0,0,0,0,0,0,0],"split_type":[0,0,0,0,0,0,0,0,0,0,0,0,0,0,0],"sum_hessian":[8.4186E4,8.0847E4,3.339E3,6.9239E4,1.1608E4,2.67E3,6.69E2,3.4371E4,3.4868E4,7.965E3,3.643E3,1.665E3,1.005E3,3.34E2,3.35E2],"tree_param":{"num_deleted":"0","num_feature":"28","num_nodes":"15","size_leaf_vector":"1"}},{"base_weights":[3.8059386E-3,-1.8475556E0,4.057553E1,-3.352429E0,6.134474E0,3.0059132E1,8.7681816E1,-2.778442E-1,-1.19365014E-1,2.318607E-1,7.477006E-1,1.4213995E0,2.5248408E0,3.9622443E0,6.4686785E0],"categories":[],"categories_nodes":[],"categories_segments":[],"categories_sizes":[],"default_left":[0,0,0,0,0,0,0,0,0,0,0,0,0,0,0],"id":15,"left_children":[1,3,5,7,9,11,13,-1,-1,-1,-1,-1,-1,-1,-1],"loss_changes":[6.323608E6,9.6715E5,1.8174215E6,1.1974225E5,1.8370966E5,2.2858725E5,2.89081E5,0E0,0E0,0E0,0E0,0E0,0E0,0E0,0E0],"parents":[2147483647,0,0,1,1,2,2,3,3,4,4,5,5,6,6],"right_children":[2,4,6,8,10,12,14,-1,-1,-1,-1,-1,-1,-1,-1],"split_conditions":[5.4E1,1.1E1,1.42E2,-8E0,3.2E1,8.9E1,1.88E2,-2.778442E-1,-1.19365014E-1,2.318607E-1,7.477006E-1,1.4213995E0,2.5248408E0,3.9622443E0,6.4686785E0],"split_indices":[3,3,3,3,3,3,3,0,0,0,0,0,0,0,0],"split_type":[0,0,0,0,0,0,0,0,0,0,0,0,0,0,0],"sum_hessian":[8.4186E4,8.0513E4,3.673E3,6.7742E4,1.2771E4,3.004E3,6.69E2,3.4371E4,3.3371E4,9.462E3,3.309E3,1.999E3,1.005E3,3.34E2,3.35E2],"tree_param":{"num_deleted":"0","num_feature":"28","num_nodes":"15","size_leaf_vector":"1"}},{"base_weights":[3.7569676E-3,-1.3723457E0,4.83706E1,-2.7869356E0,9.903443E0,3.9292576E1,1.0210041E2,-2.2857814E-1,-1.6626954E-2,4.0349752E-1,1.0522318E0,1.8792334E0,3.270928E0,7.942459E0,4.7652307E0],"categories":[],"categories_nodes":[],"categories_segments":[],"categories_sizes":[],"default_left":[0,0,0,0,0,0,0,0,0,0,0,0,0,0,0],"id":16,"left_children":[1,3,5,7,9,11,13,-1,-1,-1,-1,-1,-1,-1,-1],"loss_changes":[5.6033635E6,1.3057291E6,1.1319825E6,1.9131369E5,2.2151225E5,2.3951925E5,2.2125325E5,0E0,0E0,0E0,0E0,0E0,0E0,0E0,0E0],"parents":[2147483647,0,0,1,1,2,2,3,3,4,4,5,5,6,6],"right_children":[2,4,6,8,10,12,14,-1,-1,-1,-1,-1,-1,-1,-1],"split_conditions":[7.3E1,1.9E1,1.88E2,-1E0,4.3E1,1.19E2,9E0,-2.2857814E-1,-1.6626954E-2,4.0349752E-1,1.0522318E0,1.8792334E0,3.270928E0,7.942459E0,4.7652307E0],"split_indices":[3,3,3,3,3,3,5,0,0,0,0,0,0,0,0],"split_type":[0,0,0,0,0,0,0,0,0,0,0,0,0,0,0],"sum_hessian":[8.4186E4,8.1858E4,2.328E3,7.2734E4,9.124E3,1.993E3,3.35E2,5.1286E4,2.1448E4,6.5E3,2.624E3,1.333E3,6.6E2,1.37E2,1.98E2],"tree_param":{"num_deleted":"0","num_feature":"28","num_nodes":"15","size_leaf_vector":"1"}},{"base_weights":[3.7595222E-3,-1.6367098E0,3.595388E1,-2.92475E0,5.7450542E0,2.6609737E1,7.78094E1,-2.373435E-1,-8.814704E-2,2.1227513E-1,6.4735335E-1,1.2579497E0,2.23578E0,9.856412E0,4.368156E0],"categories":[],"categories_nodes":[],"categories_segments":[],"categories_sizes":[],"default_left":[0,0,0,0,0,0,0,0,0,0,0,0,0,0,0],"id":17,"left_children":[1,3,5,7,9,11,13,-1,-1,-1,-1,-1,-1,-1,-1],"loss_changes":[4.9649935E6,7.655447E5,1.434846E6,1.04847E5,1.3360369E5,1.79508E5,2.52433E5,0E0,0E0,0E0,0E0,0E0,0E0,0E0,0E0],"parents":[2147483647,0,0,1,1,2,2,3,3,4,4,5,5,6,6],"right_children":[2,4,6,8,10,12,14,-1,-1,-1,-1,-1,-1,-1,-1],"split_conditions":[5.4E1,1.2E1,1.42E2,-6E0,3.1E1,8.9E1,6E0,-2.373435E-1,-8.814704E-2,2.1227513E-1,6.4735335E-1,1.2579497E0,2.23578E0,9.856412E0,4.368156E0],"split_indices":[3,3,3,3,3,3,5,0,0,0,0,0,0,0,0],"split_type":[0,0,0,0,0,0,0,0,0,0,0,0,0,0,0],"sum_hessian":[8.4186E4,8.0513E4,3.673E3,6.8552E4,1.1961E4,3.004E3,6.69E2,3.958E4,2.8972E4,8.386E3,3.575E3,1.999E3,1.005E3,3.1E1,6.38E2],"tree_param":{"num_deleted":"0","num_feature":"28","num_nodes":"15","size_leaf_vector":"1"}},{"base_weights":[3.7522991E-3,-1.3879197E0,3.7562237E1,-2.6235716E0,6.8194156E0,2.733961E1,7.319383E1,-2.0650537E-1,-4.1052166E-2,2.764744E-1,7.911045E-1,1.3679075E0,2.2947054E0,9.287405E0,4.108258E0],"categories":[],"categories_nodes":[],"categories_segments":[],"categories_sizes":[],"default_left":[0,0,0,0,0,0,0,0,0,0,0,0,0,0,0],"id":18,"left_children":[1,3,5,7,9,11,13,-1,-1,-1,-1,-1,-1,-1,-1],"loss_changes":[4.40043E6,8.232975E5,1.0936585E6,1.14904125E5,1.494431E5,1.1365475E5,2.2483325E5,0E0,0E0,0E0,0E0,0E0,0E0,0E0,0E0],"parents":[2147483647,0,0,1,1,2,2,3,3,4,4,5,5,6,6],"right_children":[2,4,6,8,10,12,14,-1,-1,-1,-1,-1,-1,-1,-1],"split_conditions":[6.2E1,1.5E1,1.42E2,-2E0,3.8E1,1.02E2,6E0,-2.0650537E-1,-4.1052166E-2,2.764744E-1,7.911045E-1,1.3679075E0,2.2947054E0,9.287405E0,4.108258E0],"split_indices":[3,3,3,3,3,3,5,0,0,0,0,0,0,0,0],"split_type":[0,0,0,0,0,0,0,0,0,0,0,0,0,0,0],"sum_hessian":[8.4186E4,8.1179E4,3.007E3,7.0557E4,1.0622E4,2.338E3,6.69E2,4.9165E4,2.1392E4,7.942E3,2.68E3,1.681E3,6.57E2,3.1E1,6.38E2],"tree_param":{"num_deleted":"0","num_feature":"28","num_nodes":"15","size_leaf_vector":"1"}},{"base_weights":[3.7410443E-3,-1.0594395E0,4.3649372E1,-2.1056523E0,1.0814881E1,3.4930347E1,8.6777245E1,-1.6952574E-1,8.975292E-2,4.6638688E-1,9.832852E-1,1.6846387E0,2.683105E0,3.3458488E0,6.3506565E0],"categories":[],"categories_nodes":[],"categories_segments":[],"categories_sizes":[],"default_left":[0,0,0,0,0,0,0,0,0,0,0,0,0,0,0],"id":19,"left_children":[1,3,5,7,9,11,13,-1,-1,-1,-1,-1,-1,-1,-1],"loss_changes":[3.906591E6,1.02102494E6,7.4978675E5,2.0164303E5,1.1294675E5,1.10809125E5,1.9771775E5,0E0,0E0,0E0,0E0,0E0,0E0,0E0,0E0],"parents":[2147483647,0,0,1,1,2,2,3,3,4,4,5,5,6,6],"right_children":[2,4,6,8,10,12,14,-1,-1,-1,-1,-1,-1,-1,-1],"split_conditions":[8E1,2.6E1,1.88E2,6E0,4.8E1,1.19E2,2.72E2,-1.6952574E-1,8.975292E-2,4.6638688E-1,9.832852E-1,1.6846387E0,2.683105E0,3.3458488E0,6.3506565E0],"split_indices":[3,3,3,3,3,3,16,0,0,0,0,0,0,0,0],"split_type":[0,0,0,0,0,0,0,0,0,0,0,0,0,0,0],"sum_hessian":[8.4186E4,8.2185E4,2.001E3,7.5531E4,6.654E3,1.666E3,3.35E2,6.27E4,1.2831E4,4.363E3,2.291E3,1.006E3,6.6E2,1.33E2,2.02E2],"tree_param":{"num_deleted":"0","num_feature":"28","num_nodes":"15","size_leaf_vector":"1"}},{"base_weights":[3.7013758E-3,-1.0772642E0,3.7997154E1,-2.1916595E0,7.805654E0,3.06249E1,8.163489E1,-1.808427E-1,-1.0474565E-2,2.9017025E-1,7.652971E-1,1.4775345E0,2.5234559E0,6.5262513E0,3.6881397E0],"categories":[],"categories_nodes":[],"categories_segments":[],"categories_sizes":[],"default_left":[0,0,0,0,0,0,0,0,0,0,0,0,0,0,0],"id":20,"left_children":[1,3,5,7,9,11,13,-1,-1,-1,-1,-1,-1,-1,-1],"loss_changes":[3.4575685E6,8.103462E5,7.46759E5,1.2360953E5,1.3489125E5,1.352195E5,1.7819225E5,0E0,0E0,0E0,0E0,0E0,0E0,0E0,0E0],"parents":[2147483647,0,0,1,1,2,2,3,3,4,4,5,5,6,6],"right_children":[2,4,6,8,10,12,14,-1,-1,-1,-1,-1,-1,-1,-1],"split_conditions":[7.3E1,1.9E1,1.88E2,-1E0,3.8E1,1.19E2,9E0,-1.808427E-1,-1.0474565E-2,2.9017025E-1,7.652971E-1,1.4775345E0,2.5234559E0,6.5262513E0,3.6881397E0],"split_indices":[3,3,3,3,3,3,5,0,0,0,0,0,0,0,0],"split_type":[0,0,0,0,0,0,0,0,0,0,0,0,0,0,0],"sum_hessian":[8.4186E4,8.1858E4,2.328E3,7.2734E4,9.124E3,1.993E3,3.35E2,5.1286E4,2.1448E4,5.765E3,3.359E3,1.333E3,6.6E2,1.37E2,1.98E2],"tree_param":{"num_deleted":"0","num_feature":"28","num_nodes":"15","size_leaf_vector":"1"}},{"base_weights":[3.6600067E-3,-1.2862768E0,2.8272024E1,-2.3494427E0,4.3528814E0,2.090905E1,6.125331E1,-2.1229108E-1,-8.554281E-2,1.4684533E-1,4.7568318E-1,9.88133E-1,1.7574426E0,8.1128645E0,3.4209993E0],"categories":[],"categories_nodes":[],"categories_segments":[],"categories_sizes":[],"default_left":[0,0,0,0,0,0,0,0,0,0,0,0,0,0,0],"id":21,"left_children":[1,3,5,7,9,11,13,-1,-1,-1,-1,-1,-1,-1,-1],"loss_changes":[3.0698648E6,4.827207E5,8.909145E5,7.509594E4,8.753214E4,1.11112625E5,1.8516E5,0E0,0E0,0E0,0E0,0E0,0E0,0E0,0E0],"parents":[2147483647,0,0,1,1,2,2,3,3,4,4,5,5,6,6],"right_children":[2,4,6,8,10,12,14,-1,-1,-1,-1,-1,-1,-1,-1],"split_conditions":[5.4E1,1.1E1,1.42E2,-1E1,2.8E1,8.9E1,6E0,-2.1229108E-1,-8.554281E-2,1.4684533E-1,4.7568318E-1,9.88133E-1,1.7574426E0,8.1128645E0,3.4209993E0],"split_indices":[3,3,3,3,3,3,5,0,0,0,0,0,0,0,0],"split_type":[0,0,0,0,0,0,0,0,0,0,0,0,0,0,0],"sum_hessian":[8.4186E4,8.0513E4,3.673E3,6.7742E4,1.2771E4,3.004E3,6.69E2,2.9108E4,3.8634E4,8.401E3,4.37E3,1.999E3,1.005E3,3.1E1,6.38E2],"tree_param":{"num_deleted":"0","num_feature":"28","num_nodes":"15","size_leaf_vector":"1"}},{"base_weights":[3.6153728E-3,-8.8322306E-1,3.641006E1,-1.826759E0,8.269228E0,2.9007792E1,7.302664E1,-1.5499179E-1,2.267206E-2,3.2255152E-1,7.653657E-1,1.4066482E0,2.2165284E0,2.665723E0,5.44332E0],"categories":[],"categories_nodes":[],"categories_segments":[],"categories_sizes":[],"default_left":[0,0,0,0,0,0,0,0,0,0,0,0,0,0,0],"id":22,"left_children":[1,3,5,7,9,11,13,-1,-1,-1,-1,-1,-1,-1,-1],"loss_changes":[2.7181472E6,7.09746E5,5.4051525E5,1.2730772E5,1.0029456E5,7.2865125E4,1.7004525E5,0E0,0E0,0E0,0E0,0E0,0E0,0E0,0E0],"parents":[2147483647,0,0,1,1,2,2,3,3,4,4,5,5,6,6],"right_children":[2,4,6,8,10,12,14,-1,-1,-1,-1,-1,-1,-1,-1],"split_conditions":[8E1,2.3E1,1.88E2,1E0,4.3E1,1.19E2,2.72E2,-1.5499179E-1,2.267206E-2,3.2255152E-1,7.653657E-1,1.4066482E0,2.2165284E0,2.665723E0,5.44332E0],"split_indices":[3,3,3,3,3,3,16,0,0,0,0,0,0,0,0],"split_type":[0,0,0,0,0,0,0,0,0,0,0,0,0,0,0],"sum_hessian":[8.4186E4,8.2185E4,2.001E3,7.4505E4,7.68E3,1.666E3,3.35E2,5.5159E4,1.9346E4,4.729E3,2.951E3,1.006E3,6.6E2,1.33E2,2.02E2],"tree_param":{"num_deleted":"0","num_feature":"28","num_nodes":"15","size_leaf_vector":"1"}},{"base_weights":[3.5506426E-3,-1.0272365E0,2.7822464E1,-2.0874505E0,4.3175397E0,2.2673817E1,6.869899E1,-1.9618367E-1,-7.814326E-2,1.5447055E-1,5.2406186E-1,1.0109906E0,1.9266129E0,3.981807E0,2.0821756E1],"categories":[],"categories_nodes":[],"categories_segments":[],"categories_sizes":[],"default_left":[0,0,0,0,0,0,0,0,0,0,0,0,0,0,0],"id":23,"left_children":[1,3,5,7,9,11,13,-1,-1,-1,-1,-1,-1,-1,-1],"loss_changes":[2.4141222E6,4.600242E5,6.315025E5,6.333528E4,1.037723E5,1.4679738E5,1.5405912E5,0E0,0E0,0E0,0E0,0E0,0E0,0E0,0E0],"parents":[2147483647,0,0,1,1,2,2,3,3,4,4,5,5,6,6],"right_children":[2,4,6,8,10,12,14,-1,-1,-1,-1,-1,-1,-1,-1],"split_conditions":[6.2E1,1.1E1,1.88E2,-1.1E1,3.3E1,1.02E2,9.07E2,-1.9618367E-1,-7.814326E-2,1.5447055E-1,5.2406186E-1,1.0109906E0,1.9266129E0,3.981807E0,2.0821756E1],"split_indices":[3,3,3,3,3,3,3,0,0,0,0,0,0,0,0],"split_type":[0,0,0,0,0,0,0,0,0,0,0,0,0,0,0],"sum_hessian":[8.4186E4,8.1179E4,3.007E3,6.7742E4,1.3437E4,2.672E3,3.35E2,2.6542E4,4.12E4,9.7E3,3.737E3,1.681E3,9.91E2,3.34E2,1E0],"tree_param":{"num_deleted":"0","num_feature":"28","num_nodes":"15","size_leaf_vector":"1"}},{"base_weights":[3.6733143E-3,-1.0739282E0,2.3618809E1,-1.9630597E0,3.6421304E0,1.7423803E1,5.1368614E1,-1.4825915E-1,-2.1830702E-2,1.361142E-1,4.6440575E-1,8.26889E-1,1.4576149E0,3.0053308E0,2.0201353E1],"categories":[],"categories_nodes":[],"categories_segments":[],"categories_sizes":[],"default_left":[0,0,0,0,0,0,0,0,0,0,0,0,0,0,0],"id":24,"left_children":[1,3,5,7,9,11,13,-1,-1,-1,-1,-1,-1,-1,-1],"loss_changes":[2.1423912E6,3.376181E5,6.30703E5,5.677075E4,7.197955E4,7.467694E4,1.6340675E5,0E0,0E0,0E0,0E0,0E0,0E0,0E0,0E0],"parents":[2147483647,0,0,1,1,2,2,3,3,4,4,5,5,6,6],"right_children":[2,4,6,8,10,12,14,-1,-1,-1,-1,-1,-1,-1,-1],"split_conditions":[5.4E1,1.1E1,1.42E2,6.1E2,5.25E2,8.9E1,9.07E2,-1.4825915E-1,-2.1830702E-2,1.361142E-1,4.6440575E-1,8.26889E-1,1.4576149E0,3.0053308E0,2.0201353E1],"split_indices":[3,3,3,16,16,3,3,0,0,0,0,0,0,0,0],"split_type":[0,0,0,0,0,0,0,0,0,0,0,0,0,0,0],"sum_hessian":[8.4186E4,8.0513E4,3.673E3,6.7742E4,1.2771E4,3.004E3,6.69E2,5.0983E4,1.6759E4,9.624E3,3.147E3,1.999E3,1.005E3,6.68E2,1E0],"tree_param":{"num_deleted":"0","num_feature":"28","num_nodes":"15","size_leaf_vector":"1"}},{"base_weights":[3.7622715E-3,-8.57345E-1,2.6172817E1,-1.6293262E0,5.5438075E0,2.108537E1,6.1631344E1,-1.6289434E-1,-3.8138922E-2,2.1626784E-1,5.4904056E-1,9.354741E-1,1.6940904E0,2.079648E0,4.7062154E0],"categories":[],"categories_nodes":[],"categories_segments":[],"categories_sizes":[],"default_left":[0,0,0,0,0,0,0,0,0,0,0,0,0,0,0],"id":25,"left_children":[1,3,5,7,9,11,13,-1,-1,-1,-1,-1,-1,-1,-1],"loss_changes":[1.8971229E6,4.0277656E5,4.8251562E5,7.945309E4,6.1597906E4,9.2397625E4,1.530235E5,0E0,0E0,0E0,0E0,0E0,0E0,0E0,0E0],"parents":[2147483647,0,0,1,1,2,2,3,3,4,4,5,5,6,6],"right_children":[2,4,6,8,10,12,14,-1,-1,-1,-1,-1,-1,-1,-1],"split_conditions":[6.7E1,1.9E1,1.88E2,-8E0,3.8E1,1.02E2,2.72E2,-1.6289434E-1,-3.8138922E-2,2.1626784E-1,5.4904056E-1,9.354741E-1,1.6940904E0,2.079648E0,4.7062154E0],"split_indices":[3,3,3,3,3,3,16,0,0,0,0,0,0,0,0],"split_type":[0,0,0,0,0,0,0,0,0,0,0,0,0,0,0],"sum_hessian":[8.4186E4,8.1505E4,2.681E3,7.2734E4,8.771E3,2.346E3,3.35E2,3.4371E4,3.8363E4,5.765E3,3.006E3,1.355E3,9.91E2,1.33E2,2.02E2],"tree_param":{"num_deleted":"0","num_feature":"28","num_nodes":"15","size_leaf_vector":"1"}},{"base_weights":[3.6565748E-3,-9.514338E-1,2.0934017E1,-1.7785548E0,3.10282E0,1.7199968E1,5.7978817E1,-1.412108E-1,-2.3940457E-2,1.10040866E-1,4.1506732E-1,7.8445727E-1,1.5932381E0,7.7127376E0,3.073086E0],"categories":[],"categories_nodes":[],"categories_segments":[],"categories_sizes":[],"default_left":[0,0,0,0,0,0,0,0,0,0,0,0,0,0,0],"id":26,"left_children":[1,3,5,7,9,11,13,-1,-1,-1,-1,-1,-1,-1,-1],"loss_changes":[1.6829504E6,2.699978E5,5.0721662E5,5.4419984E4,6.618372E4,1.2815956E5,1.4720275E5,0E0,0E0,0E0,0E0,0E0,0E0,0E0,0E0],"parents":[2147483647,0,0,1,1,2,2,3,3,4,4,5,5,6,6],"right_children":[2,4,6,8,10,12,14,-1,-1,-1,-1,-1,-1,-1,-1],"split_conditions":[5.4E1,1E1,1.88E2,1.368E3,5.25E2,1.02E2,6E0,-1.412108E-1,-2.3940457E-2,1.10040866E-1,4.1506732E-1,7.8445727E-1,1.5932381E0,7.7127376E0,3.073086E0],"split_indices":[3,3,3,4,16,3,5,0,0,0,0,0,0,0,0],"split_type":[0,0,0,0,0,0,0,0,0,0,0,0,0,0,0],"sum_hessian":[8.4186E4,8.0513E4,3.673E3,6.6871E4,1.3642E4,3.338E3,3.35E2,4.6785E4,2.0086E4,1.0295E4,3.347E3,2.347E3,9.91E2,2.6E1,3.09E2],"tree_param":{"num_deleted":"0","num_feature":"28","num_nodes":"15","size_leaf_vector":"1"}},{"base_weights":[3.5993648E-3,-6.540806E-1,2.7002644E1,-1.2826349E0,7.26604E0,2.1432829E1,5.455585E1,-1.1762012E-1,3.182733E-2,5.9695315E-1,2.1783729E-1,1.1241262E0,1.8825871E0,3.1446905E0,1.9445906E1],"categories":[],"categories_nodes":[],"categories_segments":[],"categories_sizes":[],"default_left":[0,0,0,0,0,0,0,0,0,0,0,0,0,0,0],"id":27,"left_children":[1,3,5,7,9,11,13,-1,-1,-1,-1,-1,-1,-1,-1],"loss_changes":[1.4949036E6,4.0914975E5,3.0607012E5,9.5606734E4,5.9993438E4,4.2909188E4,1.4580144E5,0E0,0E0,0E0,0E0,0E0,0E0,0E0,0E0],"parents":[2147483647,0,0,1,1,2,2,3,3,4,4,5,5,6,6],"right_children":[2,4,6,8,10,12,14,-1,-1,-1,-1,-1,-1,-1,-1],"split_conditions":[8E1,2.8E1,1.88E2,1E0,4.6218812E-1,1.42E2,9.07E2,-1.1762012E-1,3.182733E-2,5.9695315E-1,2.1783729E-1,1.1241262E0,1.8825871E0,3.1446905E0,1.9445906E1],"split_indices":[3,3,3,3,14,3,3,0,0,0,0,0,0,0,0],"split_type":[0,0,0,0,0,0,0,0,0,0,0,0,0,0,0],"sum_hessian":[8.4186E4,8.2185E4,2.001E3,7.6143E4,6.042E3,1.666E3,3.35E2,5.5159E4,2.0984E4,3.428E3,2.614E3,1.332E3,3.34E2,3.34E2,1E0],"tree_param":{"num_deleted":"0","num_feature":"28","num_nodes":"15","size_leaf_vector":"1"}},{"base_weights":[3.69765E-3,-8.8110805E-1,1.7929502E1,-1.5811259E0,2.623607E0,1.330462E1,4.061989E1,-1.23648874E-1,-4.9761916E-3,1.15826055E-1,5.317379E-1,6.3949615E-1,1.1405252E0,2.367828E0,1.8866497E1],"categories":[],"categories_nodes":[],"categories_segments":[],"categories_sizes":[],"default_left":[0,0,0,0,0,0,0,0,0,0,0,0,0,0,0],"id":28,"left_children":[1,3,5,7,9,11,13,-1,-1,-1,-1,-1,-1,-1,-1],"loss_changes":[1.3352935E6,1.9683256E5,4.150235E5,4.945392E4,5.719429E4,4.9204875E4,1.512E5,0E0,0E0,0E0,0E0,0E0,0E0,0E0,0E0],"parents":[2147483647,0,0,1,1,2,2,3,3,4,4,5,5,6,6],"right_children":[2,4,6,8,10,12,14,-1,-1,-1,-1,-1,-1,-1,-1],"split_conditions":[5.1E1,1E1,1.42E2,6.1E2,6.12E2,8.9E1,9.07E2,-1.23648874E-1,-4.9761916E-3,1.15826055E-1,5.317379E-1,6.3949615E-1,1.1405252E0,2.367828E0,1.8866497E1],"split_indices":[3,3,3,16,16,3,3,0,0,0,0,0,0,0,0],"split_type":[0,0,0,0,0,0,0,0,0,0,0,0,0,0,0],"sum_hessian":[8.4186E4,8.0227E4,3.959E3,6.6871E4,1.3356E4,3.29E3,6.69E2,5.0289E4,1.6582E4,1.2056E4,1.3E3,2.285E3,1.005E3,6.68E2,1E0],"tree_param":{"num_deleted":"0","num_feature":"28","num_nodes":"15","size_leaf_vector":"1"}},{"base_weights":[3.7568791E-3,-8.285947E-1,1.6866863E1,-1.3977956E0,3.023041E0,1.3887311E1,4.8962128E1,-1.5592505E-1,-4.5022752E-2,1.1088898E-1,3.936317E-1,6.403953E-1,1.3237289E0,4.373425E0,1.893609E0],"categories":[],"categories_nodes":[],"categories_segments":[],"categories_sizes":[],"default_left":[0,0,0,0,0,0,0,0,0,0,0,0,0,0,0],"id":29,"left_children":[1,3,5,7,9,11,13,-1,-1,-1,-1,-1,-1,-1,-1],"loss_changes":[1.1816655E6,1.758924E5,3.7801288E5,5.471347E4,4.2997797E4,9.456006E4,1.3872319E5,0E0,0E0,0E0,0E0,0E0,0E0,0E0,0E0],"parents":[2147483647,0,0,1,1,2,2,3,3,4,4,5,5,6,6],"right_children":[2,4,6,8,10,12,14,-1,-1,-1,-1,-1,-1,-1,-1],"split_conditions":[5.1E1,1.4E1,1.88E2,-1.2E1,5.25E2,1.02E2,9E0,-1.5592505E-1,-4.5022752E-2,1.1088898E-1,3.936317E-1,6.403953E-1,1.3237289E0,4.373425E0,1.893609E0],"split_indices":[3,3,3,3,16,3,5,0,0,0,0,0,0,0,0],"split_type":[0,0,0,0,0,0,0,0,0,0,0,0,0,0,0],"sum_hessian":[8.4186E4,8.0227E4,3.959E3,6.9898E4,1.0329E4,3.624E3,3.35E2,2.4122E4,4.5776E4,7.8E3,2.529E3,2.633E3,9.91E2,1.37E2,1.98E2],"tree_param":{"num_deleted":"0","num_feature":"28","num_nodes":"15","size_leaf_vector":"1"}},{"base_weights":[3.6343168E-3,-6.364483E-1,1.945575E1,-1.220877E0,4.2095456E0,1.5638322E1,4.6063034E1,-1.3685349E-1,-2.9983995E-2,3.7199244E-1,1.0355933E-1,7.605906E-1,1.3677601E0,2.642378E0,1.8558077E1],"categories":[],"categories_nodes":[],"categories_segments":[],"categories_sizes":[],"default_left":[0,0,0,0,0,0,0,0,0,0,0,0,0,0,0],"id":30,"left_children":[1,3,5,7,9,11,13,-1,-1,-1,-1,-1,-1,-1,-1],"loss_changes":[1.0482215E6,2.308414E5,2.7169412E5,5.6150875E4,4.4064375E4,4.9057625E4,1.3969988E5,0E0,0E0,0E0,0E0,0E0,0E0,0E0,0E0],"parents":[2147483647,0,0,1,1,2,2,3,3,4,4,5,5,6,6],"right_children":[2,4,6,8,10,12,14,-1,-1,-1,-1,-1,-1,-1,-1],"split_conditions":[6.7E1,1.9E1,1.88E2,-1E1,4.6218812E-1,1.19E2,2.724E3,-1.3685349E-1,-2.9983995E-2,3.7199244E-1,1.0355933E-1,7.605906E-1,1.3677601E0,2.642378E0,1.8558077E1],"split_indices":[3,3,3,3,14,3,4,0,0,0,0,0,0,0,0],"split_type":[0,0,0,0,0,0,0,0,0,0,0,0,0,0,0],"sum_hessian":[8.4186E4,8.1505E4,2.681E3,7.2734E4,8.771E3,2.346E3,3.35E2,2.9108E4,4.3626E4,4.812E3,3.959E3,1.686E3,6.6E2,3.34E2,1E0],"tree_param":{"num_deleted":"0","num_feature":"28","num_nodes":"15","size_leaf_vector":"1"}},{"base_weights":[3.6984712E-3,-7.6941603E-1,1.43917675E1,-1.3783218E0,1.8773764E0,1.0745937E1,3.409042E1,-1.1587858E-1,-3.3308258E-3,7.513529E-2,4.4856697E-1,8.0419874E-1,3.875758E-1,1.9804492E0,1.8095312E1],"categories":[],"categories_nodes":[],"categories_segments":[],"categories_sizes":[],"default_left":[0,0,0,0,0,0,0,0,0,0,0,0,0,0,0],"id":31,"left_children":[1,3,5,7,9,11,13,-1,-1,-1,-1,-1,-1,-1,-1],"loss_changes":[9.3647575E5,1.28765125E5,3.0794806E5,4.863553E4,5.2043574E4,4.217647E4,1.446585E5,0E0,0E0,0E0,0E0,0E0,0E0,0E0,0E0],"parents":[2147483647,0,0,1,1,2,2,3,3,4,4,5,5,6,6],"right_children":[2,4,6,8,10,12,14,-1,-1,-1,-1,-1,-1,-1,-1],"split_conditions":[4.8E1,8E0,1.42E2,1.368E3,6.12E2,4.6218812E-1,9.07E2,-1.1587858E-1,-3.3308258E-3,7.513529E-2,4.4856697E-1,8.0419874E-1,3.875758E-1,1.9804492E0,1.8095312E1],"split_indices":[3,3,3,4,16,14,3,0,0,0,0,0,0,0,0],"split_type":[0,0,0,0,0,0,0,0,0,0,0,0,0,0,0],"sum_hessian":[8.4186E4,7.9894E4,4.292E3,6.4952E4,1.4942E4,3.623E3,6.69E2,4.5479E4,1.9473E4,1.3473E4,1.469E3,2.197E3,1.426E3,6.68E2,1E0],"tree_param":{"num_deleted":"0","num_feature":"28","num_nodes":"15","size_leaf_vector":"1"}},{"base_weights":[3.7353998E-3,-4.8786002E-1,2.0184683E1,-9.680699E-1,5.56304E0,1.590476E1,4.135863E1,-1.026972E-1,5.6455326E-3,4.691593E-1,1.5088975E-1,7.626098E-1,1.2154598E0,2.3648512E0,1.7946114E1],"categories":[],"categories_nodes":[],"categories_segments":[],"categories_sizes":[],"default_left":[0,0,0,0,0,0,0,0,0,0,0,0,0,0,0],"id":32,"left_children":[1,3,5,7,9,11,13,-1,-1,-1,-1,-1,-1,-1,-1],"loss_changes":[8.352174E5,2.388134E5,1.8076919E5,6.1121797E4,4.228775E4,2.3007E4,1.3421262E5,0E0,0E0,0E0,0E0,0E0,0E0,0E0,0E0],"parents":[2147483647,0,0,1,1,2,2,3,3,4,4,5,5,6,6],"right_children":[2,4,6,8,10,12,14,-1,-1,-1,-1,-1,-1,-1,-1],"split_conditions":[8E1,2.8E1,1.88E2,-4E0,4.6218812E-1,2.72E2,2.724E3,-1.026972E-1,5.6455326E-3,4.691593E-1,1.5088975E-1,7.626098E-1,1.2154598E0,2.3648512E0,1.7946114E1],"split_indices":[3,3,3,3,14,16,4,0,0,0,0,0,0,0,0],"split_type":[0,0,0,0,0,0,0,0,0,0,0,0,0,0,0],"sum_hessian":[8.4186E4,8.2185E4,2.001E3,7.6143E4,6.042E3,1.666E3,3.35E2,4.4511E4,3.1632E4,3.428E3,2.614E3,9.87E2,6.79E2,3.34E2,1E0],"tree_param":{"num_deleted":"0","num_feature":"28","num_nodes":"15","size_leaf_vector":"1"}},{"base_weights":[3.783742E-3,-5.997145E-1,1.4612054E1,-1.0740107E0,2.8899107E0,1.188538E1,3.8954445E1,-9.2739776E-2,2.4366101E-2,2.1348946E-1,-1.564209E-1,5.3819484E-1,1.0528529E0,8.463842E-1,3.2835624E0],"categories":[],"categories_nodes":[],"categories_segments":[],"categories_sizes":[],"default_left":[0,0,0,0,0,0,0,0,0,0,0,0,0,0,0],"id":33,"left_children":[1,3,5,7,9,11,13,-1,-1,-1,-1,-1,-1,-1,-1],"loss_changes":[7.422068E5,1.3381592E5,2.2122544E5,5.089867E4,3.6960742E4,4.9432E4,1.3349919E5,0E0,0E0,0E0,0E0,0E0,0E0,0E0,0E0],"parents":[2147483647,0,0,1,1,2,2,3,3,4,4,5,5,6,6],"right_children":[2,4,6,8,10,12,14,-1,-1,-1,-1,-1,-1,-1,-1],"split_conditions":[5.8E1,1.6E1,1.88E2,6.1E2,2.434E3,1.02E2,2.72E2,-9.2739776E-2,2.4366101E-2,2.1348946E-1,-1.564209E-1,5.3819484E-1,1.0528529E0,8.463842E-1,3.2835624E0],"split_indices":[3,3,3,16,4,3,16,0,0,0,0,0,0,0,0],"split_type":[0,0,0,0,0,0,0,0,0,0,0,0,0,0,0],"sum_hessian":[8.4186E4,8.0847E4,3.339E3,7.1174E4,9.673E3,3.004E3,3.35E2,5.3708E4,1.7466E4,8.594E3,1.079E3,2.013E3,9.91E2,1.33E2,2.02E2],"tree_param":{"num_deleted":"0","num_feature":"28","num_nodes":"15","size_leaf_vector":"1"}},{"base_weights":[3.626037E-3,-6.9820213E-1,1.1231033E1,-1.2716088E0,1.0837643E0,8.492234E0,2.8726234E1,-1.0666632E-1,-3.8015738E-3,3.2630347E-2,3.7390545E-1,6.649765E-1,2.726729E-1,1.6622078E0,1.7460464E1],"categories":[],"categories_nodes":[],"categories_segments":[],"categories_sizes":[],"default_left":[0,0,0,0,0,0,0,0,0,0,0,0,0,0,0],"id":34,"left_children":[1,3,5,7,9,11,13,-1,-1,-1,-1,-1,-1,-1,-1],"loss_changes":[6.63377E5,8.096302E4,2.3708319E5,3.7529703E4,5.368532E4,4.4691E4,1.393215E5,0E0,0E0,0E0,0E0,0E0,0E0,0E0,0E0],"parents":[2147483647,0,0,1,1,2,2,3,3,4,4,5,5,6,6],"right_children":[2,4,6,8,10,12,14,-1,-1,-1,-1,-1,-1,-1,-1],"split_conditions":[4.3E1,4E0,1.42E2,1.368E3,6.12E2,4.6218812E-1,9.07E2,-1.0666632E-1,-3.8015738E-3,3.2630347E-2,3.7390545E-1,6.649765E-1,2.726729E-1,1.6622078E0,1.7460464E1],"split_indices":[3,3,3,4,16,14,3,0,0,0,0,0,0,0,0],"split_type":[0,0,0,0,0,0,0,0,0,0,0,0,0,0,0],"sum_hessian":[8.4186E4,7.9234E4,4.952E3,5.9945E4,1.9289E4,4.283E3,6.69E2,4.1944E4,1.8001E4,1.7484E4,1.805E3,2.547E3,1.736E3,6.68E2,1E0],"tree_param":{"num_deleted":"0","num_feature":"28","num_nodes":"15","size_leaf_vector":"1"}},{"base_weights":[3.6517319E-3,-4.1017094E-1,1.6991877E1,-8.1555986E-1,4.6979446E0,1.671624E1,1.6940216E1,-1.3898562E-1,-2.1810282E-2,4.0244046E-1,1.1924414E-1,7.963754E-1,1.9872822E0],"categories":[],"categories_nodes":[],"categories_segments":[],"categories_sizes":[],"default_left":[0,0,0,0,0,0,0,0,0,0,0,0,0],"id":35,"left_children":[1,3,5,7,9,11,-1,-1,-1,-1,-1,-1,-1],"loss_changes":[5.9185106E5,1.7019242E5,1.4273956E5,5.191953E4,3.3483516E4,1.1112425E5,0E0,0E0,0E0,0E0,0E0,0E0,0E0],"parents":[2147483647,0,0,1,1,2,2,3,3,4,4,5,5],"right_children":[2,4,6,8,10,12,-1,-1,-1,-1,-1,-1,-1],"split_conditions":[8E1,2.8E1,9.07E2,-1.5E1,4.6218812E-1,1.88E2,1.6940216E1,-1.3898562E-1,-2.1810282E-2,4.0244046E-1,1.1924414E-1,7.963754E-1,1.9872822E0],"split_indices":[3,3,3,3,14,3,0,0,0,0,0,0,0],"split_type":[0,0,0,0,0,0,0,0,0,0,0,0,0],"sum_hessian":[8.4186E4,8.2185E4,2.001E3,7.6143E4,6.042E3,2E3,1E0,1.7408E4,5.8735E4,3.428E3,2.614E3,1.666E3,3.34E2],"tree_param":{"num_deleted":"0","num_feature":"28","num_nodes":"13","size_leaf_vector":"1"}},{"base_weights":[3.6726594E-3,-3.5263643E-1,1.7555988E1,-7.394507E-1,4.985741E0,1.7236965E1,1.6435465E1,-9.0609215E-2,5.2483114E-3,2.0627987E-1,5.4851604E-1,6.32333E-1,1.5081209E0],"categories":[],"categories_nodes":[],"categories_segments":[],"categories_sizes":[],"default_left":[0,0,0,0,0,0,0,0,0,0,0,0,0],"id":36,"left_children":[1,3,5,7,9,11,-1,-1,-1,-1,-1,-1,-1],"loss_changes":[5.265159E5,1.7038977E5,1.3324297E5,4.972841E4,3.5817E4,8.924806E4,0E0,0E0,0E0,0E0,0E0,0E0,0E0],"parents":[2147483647,0,0,1,1,2,2,3,3,4,4,5,5],"right_children":[2,4,6,8,10,12,-1,-1,-1,-1,-1,-1,-1],"split_conditions":[8.9E1,3.1E1,9.07E2,-6E0,5.25E2,2.72E2,1.6435465E1,-9.0609215E-2,5.2483114E-3,2.0627987E-1,5.4851604E-1,6.32333E-1,1.5081209E0],"split_indices":[3,3,3,3,16,16,0,0,0,0,0,0,0],"split_type":[0,0,0,0,0,0,0,0,0,0,0,0,0],"sum_hessian":[8.4186E4,8.2512E4,1.674E3,7.6938E4,5.574E3,1.673E3,1E0,3.958E4,3.7358E4,4.096E3,1.478E3,9.2E2,7.53E2],"tree_param":{"num_deleted":"0","num_feature":"28","num_nodes":"13","size_leaf_vector":"1"}},{"base_weights":[3.6823822E-3,-5.207932E-1,1.0629345E1,-9.9228704E-1,1.4840156E0,8.672341E0,3.1711218E1,-9.7064376E-2,-1.3488712E-3,-1.0529722E-1,1.4858979E-1,3.9914444E-1,8.286842E-1,1.7929221E0,1.7159882E1],"categories":[],"categories_nodes":[],"categories_segments":[],"categories_sizes":[],"default_left":[0,0,0,0,0,0,0,0,0,0,0,0,0,0,0],"id":37,"left_children":[1,3,5,7,9,11,13,-1,-1,-1,-1,-1,-1,-1,-1],"loss_changes":[4.691713E5,7.583739E4,1.631039E5,4.0090043E4,5.0135613E4,3.7364625E4,1.3120238E5,0E0,0E0,0E0,0E0,0E0,0E0,0E0,0E0],"parents":[2147483647,0,0,1,1,2,2,3,3,4,4,5,5,6,6],"right_children":[2,4,6,8,10,12,14,-1,-1,-1,-1,-1,-1,-1,-1],"split_conditions":[5.1E1,8E0,1.88E2,1.009E3,1E1,1.02E2,2.724E3,-9.7064376E-2,-1.3488712E-3,-1.0529722E-1,1.4858979E-1,3.9914444E-1,8.286842E-1,1.7929221E0,1.7159882E1],"split_indices":[3,3,3,4,5,3,4,0,0,0,0,0,0,0,0],"split_type":[0,0,0,0,0,0,0,0,0,0,0,0,0,0,0],"sum_hessian":[8.4186E4,8.0227E4,3.959E3,6.4952E4,1.5275E4,3.624E3,3.35E2,3.9211E4,2.5741E4,3.619E3,1.1656E4,2.633E3,9.91E2,3.34E2,1E0],"tree_param":{"num_deleted":"0","num_feature":"28","num_nodes":"15","size_leaf_vector":"1"}},{"base_weights":[3.7019963E-3,-5.537385E-1,8.921286E0,-1.1676033E0,5.7273614E-1,7.394576E0,2.98779E1,-9.725541E-2,-6.162034E-3,2.73009E-1,1.7972119E-3,3.4789994E-1,7.7935123E-1,1.6863978E0,1.6648586E1],"categories":[],"categories_nodes":[],"categories_segments":[],"categories_sizes":[],"default_left":[0,0,0,0,0,0,0,0,0,0,0,0,0,0,0],"id":38,"left_children":[1,3,5,7,9,11,13,-1,-1,-1,-1,-1,-1,-1,-1],"loss_changes":[4.1850034E5,5.479192E4,1.582486E5,2.5347875E4,6.078801E4,4.077747E4,1.2444203E5,0E0,0E0,0E0,0E0,0E0,0E0,0E0,0E0],"parents":[2147483647,0,0,1,1,2,2,3,3,4,4,5,5,6,6],"right_children":[2,4,6,8,10,12,14,-1,-1,-1,-1,-1,-1,-1,-1],"split_conditions":[4.3E1,-1E0,1.88E2,1.399E3,6.0361404E-2,1.02E2,2.724E3,-9.725541E-2,-6.162034E-3,2.73009E-1,1.7972119E-3,3.4789994E-1,7.7935123E-1,1.6863978E0,1.6648586E1],"split_indices":[3,3,3,4,14,3,4,0,0,0,0,0,0,0,0],"split_type":[0,0,0,0,0,0,0,0,0,0,0,0,0,0,0],"sum_hessian":[8.4186E4,7.9234E4,4.952E3,5.1286E4,2.7948E4,4.617E3,3.35E2,3.5704E4,1.5582E4,3.331E3,2.4617E4,3.626E3,9.91E2,3.34E2,1E0],"tree_param":{"num_deleted":"0","num_feature":"28","num_nodes":"15","size_leaf_vector":"1"}},{"base_weights":[3.7145633E-3,-3.5065758E-1,1.245908E1,-6.7619634E-1,3.3311653E0,1.2236044E1,1.5842089E1,-6.690018E-2,4.235973E-2,2.4806139E-1,-1.2246001E-1,4.1151276E-1,1.1368212E0],"categories":[],"categories_nodes":[],"categories_segments":[],"categories_sizes":[],"default_left":[0,0,0,0,0,0,0,0,0,0,0,0,0],"id":39,"left_children":[1,3,5,7,9,11,-1,-1,-1,-1,-1,-1,-1],"loss_changes":[3.7159184E5,9.811649E4,1.28367875E5,4.6573168E4,2.979154E4,8.475834E4,0E0,0E0,0E0,0E0,0E0,0E0,0E0],"parents":[2147483647,0,0,1,1,2,2,3,3,4,4,5,5],"right_children":[2,4,6,8,10,12,-1,-1,-1,-1,-1,-1,-1],"split_conditions":[7.3E1,2.5E1,9.07E2,6.1E2,2.402E3,2.72E2,1.5842089E1,-6.690018E-2,4.235973E-2,2.4806139E-1,-1.2246001E-1,4.1151276E-1,1.1368212E0],"split_indices":[3,3,3,16,4,16,0,0,0,0,0,0,0],"split_type":[0,0,0,0,0,0,0,0,0,0,0,0,0],"sum_hessian":[8.4186E4,8.1858E4,2.328E3,7.5209E4,6.649E3,2.327E3,1E0,5.6896E4,1.8313E4,5.76E3,8.89E2,1.309E3,1.018E3],"tree_param":{"num_deleted":"0","num_feature":"28","num_nodes":"13","size_leaf_vector":"1"}},{"base_weights":[3.7009367E-3,-2.794834E-1,1.3953782E1,-5.8115226E-1,4.107524E0,1.3653967E1,1.5370059E1,-1.1740873E-1,-1.0532089E-2,2.9980308E-1,-1.00807264E-1,3.185705E0,7.4168175E-1],"categories":[],"categories_nodes":[],"categories_segments":[],"categories_sizes":[],"default_left":[0,0,0,0,0,0,0,0,0,0,0,0,0],"id":40,"left_children":[1,3,5,7,9,11,-1,-1,-1,-1,-1,-1,-1],"loss_changes":[3.3257997E5,1.09202016E5,1.1899716E5,4.337021E4,2.8438578E4,7.982281E4,0E0,0E0,0E0,0E0,0E0,0E0,0E0],"parents":[2147483647,0,0,1,1,2,2,3,3,4,4,5,5],"right_children":[2,4,6,8,10,12,-1,-1,-1,-1,-1,-1,-1],"split_conditions":[8.9E1,3.2E1,9.07E2,-1.5E1,2.402E3,6E0,1.5370059E1,-1.1740873E-1,-1.0532089E-2,2.9980308E-1,-1.00807264E-1,3.185705E0,7.4168175E-1],"split_indices":[3,3,3,3,4,5,0,0,0,0,0,0,0],"split_type":[0,0,0,0,0,0,0,0,0,0,0,0,0],"sum_hessian":[8.4186E4,8.2512E4,1.674E3,7.7204E4,5.308E3,1.673E3,1E0,1.7408E4,5.9796E4,4.579E3,7.29E2,4.8E1,1.625E3],"tree_param":{"num_deleted":"0","num_feature":"28","num_nodes":"13","size_leaf_vector":"1"}},{"base_weights":[3.7104106E-3,-4.6513447E-1,7.503997E0,-9.008101E-1,8.9494836E-1,6.1357E0,2.6287598E1,-9.1322914E-2,-1.5121581E-2,-3.603696E-2,1.4011978E-1,4.911911E-1,1.7937043E-1,1.4755371E0,1.6023735E1],"categories":[],"categories_nodes":[],"categories_segments":[],"categories_sizes":[],"default_left":[0,0,0,0,0,0,0,0,0,0,0,0,0,0,0],"id":41,"left_children":[1,3,5,7,9,11,13,-1,-1,-1,-1,-1,-1,-1,-1],"loss_changes":[2.9604462E5,4.69519E4,1.2713841E5,2.4527918E4,4.1988562E4,3.0387312E4,1.1780344E5,0E0,0E0,0E0,0E0,0E0,0E0,0E0,0E0],"parents":[2147483647,0,0,1,1,2,2,3,3,4,4,5,5,6,6],"right_children":[2,4,6,8,10,12,14,-1,-1,-1,-1,-1,-1,-1,-1],"split_conditions":[4.3E1,6.1E2,1.88E2,-5E0,-9E0,4.6218812E-1,2.724E3,-9.1322914E-2,-1.5121581E-2,-3.603696E-2,1.4011978E-1,4.911911E-1,1.7937043E-1,1.4755371E0,1.6023735E1],"split_indices":[3,16,3,3,3,14,4,0,0,0,0,0,0,0,0],"split_type":[0,0,0,0,0,0,0,0,0,0,0,0,0,0,0],"sum_hessian":[8.4186E4,7.9234E4,4.952E3,6.0011E4,1.9223E4,4.617E3,3.35E2,3.0366E4,2.9645E4,9.471E3,9.752E3,2.757E3,1.86E3,3.34E2,1E0],"tree_param":{"num_deleted":"0","num_feature":"28","num_nodes":"15","size_leaf_vector":"1"}},{"base_weights":[3.7051486E-3,-2.5052047E-1,1.2527236E1,-5.97493E-1,2.8052099E0,1.2236631E1,1.486813E1,-6.278887E-2,2.6400298E-2,9.729562E-2,3.638736E-1,2.9230046E0,6.6264343E-1],"categories":[],"categories_nodes":[],"categories_segments":[],"categories_sizes":[],"default_left":[0,0,0,0,0,0,0,0,0,0,0,0,0],"id":42,"left_children":[1,3,5,7,9,11,-1,-1,-1,-1,-1,-1,-1],"loss_changes":[2.680379E5,8.748646E4,1.1229628E5,3.517103E4,3.2554938E4,6.8286375E4,0E0,0E0,0E0,0E0,0E0,0E0,0E0],"parents":[2147483647,0,0,1,1,2,2,3,3,4,4,5,5],"right_children":[2,4,6,8,10,12,-1,-1,-1,-1,-1,-1,-1],"split_conditions":[8.9E1,2.2E1,9.07E2,5.25E2,5.25E2,6E0,1.486813E1,-6.278887E-2,2.6400298E-2,9.729562E-2,3.638736E-1,2.9230046E0,6.6264343E-1],"split_indices":[3,3,3,16,16,5,0,0,0,0,0,0,0],"split_type":[0,0,0,0,0,0,0,0,0,0,0,0,0],"sum_hessian":[8.4186E4,8.2512E4,1.674E3,7.4099E4,8.413E3,1.673E3,1E0,5.1515E4,2.2584E4,6.209E3,2.204E3,4.8E1,1.625E3],"tree_param":{"num_deleted":"0","num_feature":"28","num_nodes":"13","size_leaf_vector":"1"}},{"base_weights":[3.7086578E-3,-1.8173482E-1,1.5493076E1,-4.899806E-1,3.7925968E0,1.5022083E1,1.442512E1,-1.1141549E-1,-8.682768E-3,3.3141062E-1,7.881678E-2,3.6987169E0,7.830539E-1],"categories":[],"categories_nodes":[],"categories_segments":[],"categories_sizes":[],"default_left":[0,0,0,0,0,0,0,0,0,0,0,0,0],"id":43,"left_children":[1,3,5,7,9,11,-1,-1,-1,-1,-1,-1,-1],"loss_changes":[2.4182175E5,1.0191796E5,1.02650875E5,3.6671023E4,2.6152938E4,8.7271266E4,0E0,0E0,0E0,0E0,0E0,0E0,0E0],"parents":[2147483647,0,0,1,1,2,2,3,3,4,4,5,5],"right_children":[2,4,6,8,10,12,-1,-1,-1,-1,-1,-1,-1],"split_conditions":[1.19E2,3.2E1,9.07E2,-1.6E1,4.6218812E-1,6E0,1.442512E1,-1.1141549E-1,-8.682768E-3,3.3141062E-1,7.881678E-2,3.6987169E0,7.830539E-1],"split_indices":[3,3,3,3,14,5,0,0,0,0,0,0,0],"split_type":[0,0,0,0,0,0,0,0,0,0,0,0,0],"sum_hessian":[8.4186E4,8.3191E4,9.95E2,7.7204E4,5.987E3,9.94E2,1E0,1.5417E4,6.1787E4,3.488E3,2.499E3,3.7E1,9.57E2],"tree_param":{"num_deleted":"0","num_feature":"28","num_nodes":"13","size_leaf_vector":"1"}},{"base_weights":[3.7156818E-3,-1.7090146E-1,1.4588801E1,-4.4272703E-1,3.8265114E0,1.4131397E1,1.3995311E1,-3.731987E-2,1.329747E-1,3.323481E-1,7.860216E-2,3.4841034E0,7.3643917E-1],"categories":[],"categories_nodes":[],"categories_segments":[],"categories_sizes":[],"default_left":[0,0,0,0,0,0,0,0,0,0,0,0,0],"id":44,"left_children":[1,3,5,7,9,11,-1,-1,-1,-1,-1,-1,-1],"loss_changes":[2.1441045E5,9.039805E4,9.7027984E4,3.8232086E4,2.3244086E4,7.750466E4,0E0,0E0,0E0,0E0,0E0,0E0,0E0],"parents":[2147483647,0,0,1,1,2,2,3,3,4,4,5,5],"right_children":[2,4,6,8,10,12,-1,-1,-1,-1,-1,-1,-1],"split_conditions":[1.19E2,3.5E1,9.07E2,7.28E2,4.6218812E-1,6E0,1.3995311E1,-3.731987E-2,1.329747E-1,3.323481E-1,7.860216E-2,3.4841034E0,7.3643917E-1],"split_indices":[3,3,3,16,14,5,0,0,0,0,0,0,0],"split_type":[0,0,0,0,0,0,0,0,0,0,0,0,0],"sum_hessian":[8.4186E4,8.3191E4,9.95E2,7.7895E4,5.296E3,9.94E2,1E0,7.2893E4,5.002E3,3.118E3,2.178E3,3.7E1,9.57E2],"tree_param":{"num_deleted":"0","num_feature":"28","num_nodes":"13","size_leaf_vector":"1"}},{"base_weights":[3.7165985E-3,-2.8685024E-1,7.8455424E0,-7.4876875E-1,1.0171504E0,7.696602E0,1.3578309E1,-7.147849E-2,1.7961713E-2,-6.9057055E-2,1.1521852E-1,2.2175932E-1,7.9236937E-1],"categories":[],"categories_nodes":[],"categories_segments":[],"categories_sizes":[],"default_left":[0,0,0,0,0,0,0,0,0,0,0,0,0],"id":45,"left_children":[1,3,5,7,9,11,-1,-1,-1,-1,-1,-1,-1],"loss_changes":[1.918286E5,4.8898887E4,9.681383E4,2.8373809E4,4.2342344E4,6.6891516E4,0E0,0E0,0E0,0E0,0E0,0E0,0E0],"parents":[2147483647,0,0,1,1,2,2,3,3,4,4,5,5],"right_children":[2,4,6,8,10,12,-1,-1,-1,-1,-1,-1,-1],"split_conditions":[6.2E1,4E0,9.07E2,1.368E3,1.1E1,2.72E2,1.3578309E1,-7.147849E-2,1.7961713E-2,-6.9057055E-2,1.1521852E-1,2.2175932E-1,7.9236937E-1],"split_indices":[3,3,3,4,5,16,0,0,0,0,0,0,0],"split_type":[0,0,0,0,0,0,0,0,0,0,0,0,0],"sum_hessian":[8.4186E4,8.1179E4,3.007E3,5.9945E4,2.1234E4,3.006E3,1E0,4.1944E4,1.8001E4,6.292E3,1.4942E4,1.759E3,1.247E3],"tree_param":{"num_deleted":"0","num_feature":"28","num_nodes":"13","size_leaf_vector":"1"}},{"base_weights":[3.668458E-3,-1.2609278E-1,1.6178886E1,-3.9575508E-1,3.6095896E0,1.5542184E1,1.3173731E1,-4.9820043E-2,3.701509E-2,7.7435933E-3,2.9345006E-1,4.0380564E-1,1.7515625E0],"categories":[],"categories_nodes":[],"categories_segments":[],"categories_sizes":[],"default_left":[0,0,0,0,0,0,0,0,0,0,0,0,0],"id":46,"left_children":[1,3,5,7,9,11,-1,-1,-1,-1,-1,-1,-1],"loss_changes":[1.7670348E5,8.413519E4,8.396708E4,3.487511E4,2.5723766E4,8.102633E4,0E0,0E0,0E0,0E0,0E0,0E0,0E0],"parents":[2147483647,0,0,1,1,2,2,3,3,4,4,5,5],"right_children":[2,4,6,8,10,12,-1,-1,-1,-1,-1,-1,-1],"split_conditions":[1.42E2,3.5E1,9.07E2,5.25E2,1.0139E3,5.25E2,1.3173731E1,-4.9820043E-2,3.701509E-2,7.7435933E-3,2.9345006E-1,4.0380564E-1,1.7515625E0],"split_indices":[3,3,3,16,12,16,0,0,0,0,0,0,0],"split_type":[0,0,0,0,0,0,0,0,0,0,0,0,0],"sum_hessian":[8.4186E4,8.3517E4,6.69E2,7.7895E4,5.622E3,6.68E2,1E0,5.436E4,2.3535E4,1.542E3,4.08E3,4.1E2,2.58E2],"tree_param":{"num_deleted":"0","num_feature":"28","num_nodes":"13","size_leaf_vector":"1"}},{"base_weights":[3.6353427E-3,-1.462428E-1,1.2522369E1,-5.397306E-1,1.9227017E0,1.210384E1,1.2781207E1,-7.0219904E-2,9.531088E-3,-3.1563416E-2,1.71576E-1,6.9356173E-1,9.658745E0],"categories":[],"categories_nodes":[],"categories_segments":[],"categories_sizes":[],"default_left":[0,0,0,0,0,0,0,0,0,0,0,0,0],"id":47,"left_children":[1,3,5,7,9,11,-1,-1,-1,-1,-1,-1,-1],"loss_changes":[1.579606E5,6.772801E4,8.1590734E4,3.1232602E4,3.1184629E4,6.7548625E4,0E0,0E0,0E0,0E0,0E0,0E0,0E0],"parents":[2147483647,0,0,1,1,2,2,3,3,4,4,5,5],"right_children":[2,4,6,8,10,12,-1,-1,-1,-1,-1,-1,-1],"split_conditions":[1.19E2,1.4E1,9.07E2,9.54E2,1.1E1,2.724E3,1.2781207E1,-7.0219904E-2,9.531088E-3,-3.1563416E-2,1.71576E-1,6.9356173E-1,9.658745E0],"split_indices":[3,3,3,4,5,4,0,0,0,0,0,0,0],"split_type":[0,0,0,0,0,0,0,0,0,0,0,0,0],"sum_hessian":[8.4186E4,8.3191E4,9.95E2,6.9898E4,1.3293E4,9.94E2,1E0,3.6543E4,3.3355E4,3.73E3,9.563E3,9.92E2,2E0],"tree_param":{"num_deleted":"0","num_feature":"28","num_nodes":"13","size_leaf_vector":"1"}},{"base_weights":[3.6944223E-3,-1.1260069E-1,1.4500309E1,-3.9407137E-1,2.7934897E0,1.3899895E1,1.2400379E1,-9.966292E-2,-4.141791E-3,2.1249436E-1,-1.23459324E-1,3.6815774E0,6.8391114E-1],"categories":[],"categories_nodes":[],"categories_segments":[],"categories_sizes":[],"default_left":[0,0,0,0,0,0,0,0,0,0,0,0,0],"id":48,"left_children":[1,3,5,7,9,11,-1,-1,-1,-1,-1,-1,-1],"loss_changes":[1.4193127E5,6.831709E4,7.498386E4,3.1593105E4,2.7719953E4,7.691332E4,0E0,0E0,0E0,0E0,0E0,0E0,0E0],"parents":[2147483647,0,0,1,1,2,2,3,3,4,4,5,5],"right_children":[2,4,6,8,10,12,-1,-1,-1,-1,-1,-1,-1],"split_conditions":[1.42E2,2.8E1,9.07E2,-1.6E1,2.402E3,6E0,1.2400379E1,-9.966292E-2,-4.141791E-3,2.1249436E-1,-1.23459324E-1,3.6815774E0,6.8391114E-1],"split_indices":[3,3,3,3,4,5,0,0,0,0,0,0,0],"split_type":[0,0,0,0,0,0,0,0,0,0,0,0,0],"sum_hessian":[8.4186E4,8.3517E4,6.69E2,7.6143E4,7.374E3,6.68E2,1E0,1.5417E4,6.0726E4,6.364E3,1.01E3,3.1E1,6.37E2],"tree_param":{"num_deleted":"0","num_feature":"28","num_nodes":"13","size_leaf_vector":"1"}},{"base_weights":[3.6732664E-3,-1.7183618E-1,8.6495285E0,-5.417909E-1,1.2999356E0,8.41349E0,1.2030899E1,-6.316877E-2,1.4774472E-2,-6.280126E-2,1.3403112E-1,2.7182132E-1,9.59995E-1],"categories":[],"categories_nodes":[],"categories_segments":[],"categories_sizes":[],"default_left":[0,0,0,0,0,0,0,0,0,0,0,0,0],"id":49,"left_children":[1,3,5,7,9,11,-1,-1,-1,-1,-1,-1,-1],"loss_changes":[1.277493E5,4.4928113E4,7.470108E4,2.6986393E4,3.7035297E4,4.9553734E4,0E0,0E0,0E0,0E0,0E0,0E0,0E0],"parents":[2147483647,0,0,1,1,2,2,3,3,4,4,5,5],"right_children":[2,4,6,8,10,12,-1,-1,-1,-1,-1,-1,-1],"split_conditions":[8.9E1,9E0,9.07E2,1.009E3,1.1E1,5.25E2,1.2030899E1,-6.316877E-2,1.4774472E-2,-6.280126E-2,1.3403112E-1,2.7182132E-1,9.59995E-1],"split_indices":[3,3,3,4,5,16,0,0,0,0,0,0,0],"split_type":[0,0,0,0,0,0,0,0,0,0,0,0,0],"sum_hessian":[8.4186E4,8.2512E4,1.674E3,6.5938E4,1.6574E4,1.673E3,1E0,3.9812E4,2.6126E4,4.763E3,1.1811E4,1.116E3,5.57E2],"tree_param":{"num_deleted":"0","num_feature":"28","num_nodes":"13","size_leaf_vector":"1"}},{"base_weights":[3.612219E-3,-1.0150828E-1,1.3107269E1,-3.072792E-1,3.1168854E0,9.511352E1,1.1846801E1,-2.8500384E-2,1.2957676E-1,-1.6646389E-2,2.628028E-1,-1.6193663E0,1.3279208E1,6.716707E-1,1.1672427E1],"categories":[],"categories_nodes":[],"categories_segments":[],"categories_sizes":[],"default_left":[0,0,0,0,0,0,0,0,0,0,0,0,0,0,0],"id":50,"left_children":[1,3,5,7,9,11,13,-1,-1,-1,-1,-1,-1,-1,-1],"loss_changes":[1.15965805E5,5.5310902E4,6.8128625E4,3.3310258E4,2.2044082E4,1.6224472E5,6.780966E4,0E0,0E0,0E0,0E0,0E0,0E0,0E0,0E0],"parents":[2147483647,0,0,1,1,2,2,3,3,4,4,5,5,6,6],"right_children":[2,4,6,8,10,12,14,-1,-1,-1,-1,-1,-1,-1,-1],"split_conditions":[1.42E2,3.8E1,1E0,7.28E2,1.0139E3,2.72E2,9.07E2,-2.8500384E-2,1.2957676E-1,-1.6646389E-2,2.628028E-1,-1.6193663E0,1.3279208E1,6.716707E-1,1.1672427E1],"split_indices":[3,3,5,16,12,16,3,0,0,0,0,0,0,0,0],"split_type":[0,0,0,0,0,0,0,0,0,0,0,0,0,0,0],"sum_hessian":[8.4186E4,8.3517E4,6.69E2,7.8499E4,5.018E3,9E0,6.6E2,7.344E4,5.059E3,1.384E3,3.634E3,5E0,4E0,6.59E2,1E0],"tree_param":{"num_deleted":"0","num_feature":"28","num_nodes":"15","size_leaf_vector":"1"}},{"base_weights":[3.6861901E-3,-9.545505E-2,1.2362006E1,-4.0231174E-1,1.8662957E0,1.1812363E1,1.1324636E1,-9.702163E-2,-7.063088E-3,1.4811344E-1,-1.2073227E-1,1.0334729E-1,1.2778493E0],"categories":[],"categories_nodes":[],"categories_segments":[],"categories_sizes":[],"default_left":[0,0,0,0,0,0,0,0,0,0,0,0,0],"id":51,"left_children":[1,3,5,7,9,11,-1,-1,-1,-1,-1,-1,-1],"loss_changes":[1.0314872E5,5.027661E4,6.3186E4,2.5123258E4,2.7230719E4,6.489757E4,0E0,0E0,0E0,0E0,0E0,0E0,0E0],"parents":[2147483647,0,0,1,1,2,2,3,3,4,4,5,5],"right_children":[2,4,6,8,10,12,-1,-1,-1,-1,-1,-1,-1],"split_conditions":[1.42E2,1.8E1,9.07E2,-1.7E1,2.402E3,2.72E2,1.1324636E1,-9.702163E-2,-7.063088E-3,1.4811344E-1,-1.2073227E-1,1.0334729E-1,1.2778493E0],"split_indices":[3,3,3,3,4,16,0,0,0,0,0,0,0],"split_type":[0,0,0,0,0,0,0,0,0,0,0,0,0],"sum_hessian":[8.4186E4,8.3517E4,6.69E2,7.2221E4,1.1296E4,6.68E2,1E0,1.3576E4,5.8645E4,9.746E3,1.55E3,3.27E2,3.41E2],"tree_param":{"num_deleted":"0","num_feature":"28","num_nodes":"13","size_leaf_vector":"1"}},{"base_weights":[3.616443E-3,-1.9984296E-1,5.494584E0,-6.192522E-1,7.764544E-1,5.373781E0,1.0987208E1,-4.01241E-2,4.0838245E-1,-3.0064497E-2,1.3623463E-1,1.2771568E-1,5.914757E-1],"categories":[],"categories_nodes":[],"categories_segments":[],"categories_sizes":[],"default_left":[0,0,0,0,0,0,0,0,0,0,0,0,0],"id":52,"left_children":[1,3,5,7,9,11,-1,-1,-1,-1,-1,-1,-1],"loss_changes":[9.405388E4,3.324111E4,6.4009773E4,2.2944896E4,4.717713E4,4.4195664E4,0E0,0E0,0E0,0E0,0E0,0E0,0E0],"parents":[2147483647,0,0,1,1,2,2,3,3,4,4,5,5],"right_children":[2,4,6,8,10,12,-1,-1,-1,-1,-1,-1,-1],"split_conditions":[6.2E1,5.25E2,9.07E2,1E0,-8E0,2.72E2,1.0987208E1,-4.01241E-2,4.0838245E-1,-3.0064497E-2,1.3623463E-1,1.2771568E-1,5.914757E-1],"split_indices":[3,16,3,23,3,16,0,0,0,0,0,0,0],"split_type":[0,0,0,0,0,0,0,0,0,0,0,0,0],"sum_hessian":[8.4186E4,8.1179E4,3.007E3,5.6785E4,2.4394E4,3.006E3,1E0,5.6378E4,4.07E2,1.3197E4,1.1197E4,1.759E3,1.247E3],"tree_param":{"num_deleted":"0","num_feature":"28","num_nodes":"13","size_leaf_vector":"1"}},{"base_weights":[3.545645E-3,-8.679253E-2,1.126453E1,-4.1681746E-1,1.4249197E0,8.974825E1,1.0060141E1,-4.8648078E-2,3.0402653E-2,3.747848E-2,2.2340705E-1,-4.9413788E-1,1.4235389E1,5.6810755E-1,1.0659836E1],"categories":[],"categories_nodes":[],"categories_segments":[],"categories_sizes":[],"default_left":[0,0,0,0,0,0,0,0,0,0,0,0,0,0,0],"id":53,"left_children":[1,3,5,7,9,11,13,-1,-1,-1,-1,-1,-1,-1,-1],"loss_changes":[8.564414E4,4.1667953E4,6.2428875E4,2.5390488E4,2.7683732E4,1.4819172E5,5.7082906E4,0E0,0E0,0E0,0E0,0E0,0E0,0E0,0E0],"parents":[2147483647,0,0,1,1,2,2,3,3,4,4,5,5,6,6],"right_children":[2,4,6,8,10,12,14,-1,-1,-1,-1,-1,-1,-1,-1],"split_conditions":[1.42E2,1.2E1,1E0,1.368E3,5.25E2,7.107E1,9.07E2,-4.8648078E-2,3.0402653E-2,3.747848E-2,2.2340705E-1,-4.9413788E-1,1.4235389E1,5.6810755E-1,1.0659836E1],"split_indices":[3,3,5,4,16,8,3,0,0,0,0,0,0,0,0],"split_type":[0,0,0,0,0,0,0,0,0,0,0,0,0,0,0],"sum_hessian":[8.4186E4,8.3517E4,6.69E2,6.8552E4,1.4965E4,9E0,6.6E2,4.7905E4,2.0647E4,1.1148E4,3.817E3,6E0,3E0,6.59E2,1E0],"tree_param":{"num_deleted":"0","num_feature":"28","num_nodes":"15","size_leaf_vector":"1"}},{"base_weights":[3.6338677E-3,-1.1801921E-1,7.599935E0,-1.0894867E0,3.2912773E-1,7.3439E0,1.03422165E1,6.8233347E-1,-6.871763E-2,1.7333081E-1,1.0676152E-3,3.9876606E0,4.021811E-1],"categories":[],"categories_nodes":[],"categories_segments":[],"categories_sizes":[],"default_left":[0,0,0,0,0,0,0,0,0,0,0,0,0],"id":54,"left_children":[1,3,5,7,9,11,-1,-1,-1,-1,-1,-1,-1],"loss_changes":[7.7799234E4,3.5994242E4,5.5108695E4,2.0860031E4,4.555259E4,4.6546484E4,0E0,0E0,0E0,0E0,0E0,0E0,0E0],"parents":[2147483647,0,0,1,1,2,2,3,3,4,4,5,5],"right_children":[2,4,6,8,10,12,-1,-1,-1,-1,-1,-1,-1],"split_conditions":[1.02E2,1E1,9.07E2,5E0,6.0361404E-2,1E0,1.03422165E1,6.8233347E-1,-6.871763E-2,1.7333081E-1,1.0676152E-3,3.9876606E0,4.021811E-1],"split_indices":[3,5,3,5,14,5,0,0,0,0,0,0,0],"split_type":[0,0,0,0,0,0,0,0,0,0,0,0,0],"sum_hessian":[8.4186E4,8.286E4,1.326E3,2.6117E4,5.6743E4,1.325E3,1E0,1.31E2,2.5986E4,6.108E3,5.0635E4,1.2E1,1.313E3],"tree_param":{"num_deleted":"0","num_feature":"28","num_nodes":"13","size_leaf_vector":"1"}},{"base_weights":[3.6016344E-3,-5.4918464E-2,1.4607839E1,-2.4371566E-1,2.713741E0,1.3274017E1,1.3748956E1,-2.3380231E-2,1.1402696E-1,-2.3400683E-2,2.3266047E-1,-2.0952728E0,1.0817901E0],"categories":[],"categories_nodes":[],"categories_segments":[],"categories_sizes":[],"default_left":[0,0,0,0,0,0,0,0,0,0,0,0,0],"id":55,"left_children":[1,3,5,7,9,11,-1,-1,-1,-1,-1,-1,-1],"loss_changes":[7.195049E4,4.3831375E4,9.379064E4,2.5168596E4,1.9797918E4,7.980794E4,0E0,0E0,0E0,0E0,0E0,0E0,0E0],"parents":[2147483647,0,0,1,1,2,2,3,3,4,4,5,5],"right_children":[2,4,6,8,10,12,-1,-1,-1,-1,-1,-1,-1],"split_conditions":[1.88E2,3.8E1,2.724E3,7.28E2,1.0139E3,1.0083E3,1.3748956E1,-2.3380231E-2,1.1402696E-1,-2.3400683E-2,2.3266047E-1,-2.0952728E0,1.0817901E0],"split_indices":[3,3,4,16,12,12,0,0,0,0,0,0,0],"split_type":[0,0,0,0,0,0,0,0,0,0,0,0,0],"sum_hessian":[8.4186E4,8.3851E4,3.35E2,7.8499E4,5.352E3,3.34E2,1E0,7.344E4,5.059E3,1.483E3,3.869E3,3E1,3.04E2],"tree_param":{"num_deleted":"0","num_feature":"28","num_nodes":"13","size_leaf_vector":"1"}},{"base_weights":[3.5418586E-3,-1.9912282E-1,3.7752378E0,-1.0580432E0,2.0371498E-1,3.6979072E0,1.0001827E1,8.128674E-1,-6.62533E-2,-2.4695992E-3,1.71322E-1,8.0462724E-2,4.371946E-1],"categories":[],"categories_nodes":[],"categories_segments":[],"categories_sizes":[],"default_left":[0,0,0,0,0,0,0,0,0,0,0,0,0],"id":56,"left_children":[1,3,5,7,9,11,-1,-1,-1,-1,-1,-1,-1],"loss_changes":[6.4352418E4,2.7644334E4,5.384526E4,2.0164932E4,3.5616973E4,3.6653273E4,0E0,0E0,0E0,0E0,0E0,0E0,0E0],"parents":[2147483647,0,0,1,1,2,2,3,3,4,4,5,5],"right_children":[2,4,6,8,10,12,-1,-1,-1,-1,-1,-1,-1],"split_conditions":[4.8E1,1E1,9.07E2,1E0,6.12E2,2.72E2,1.0001827E1,8.128674E-1,-6.62533E-2,-2.4695992E-3,1.71322E-1,8.0462724E-2,4.371946E-1],"split_indices":[3,5,3,5,16,16,0,0,0,0,0,0,0],"split_type":[0,0,0,0,0,0,0,0,0,0,0,0,0],"sum_hessian":[8.4186E4,7.9894E4,4.292E3,2.5507E4,5.4387E4,4.291E3,1E0,9.2E1,2.5415E4,4.9816E4,4.571E3,2.609E3,1.682E3],"tree_param":{"num_deleted":"0","num_feature":"28","num_nodes":"13","size_leaf_vector":"1"}},{"base_weights":[3.4666609E-3,-5.0418545E-2,1.3451023E1,-4.9543506E-1,8.88639E-1,1.21560955E1,1.3326266E1,-5.1174656E-2,2.160573E-2,-6.4850554E-2,9.061867E-2,-3.8636634E-1,1.4576646E0],"categories":[],"categories_nodes":[],"categories_segments":[],"categories_sizes":[],"default_left":[0,0,0,0,0,0,0,0,0,0,0,0,0],"id":57,"left_children":[1,3,5,7,9,11,-1,-1,-1,-1,-1,-1,-1],"loss_changes":[6.100463E4,3.5041863E4,8.8727766E4,1.7735037E4,3.368746E4,7.699282E4,0E0,0E0,0E0,0E0,0E0,0E0,0E0],"parents":[2147483647,0,0,1,1,2,2,3,3,4,4,5,5],"right_children":[2,4,6,8,10,12,-1,-1,-1,-1,-1,-1,-1],"split_conditions":[1.88E2,2E0,2.724E3,1.399E3,1E1,2.72E2,1.3326266E1,-5.1174656E-2,2.160573E-2,-6.4850554E-2,9.061867E-2,-3.8636634E-1,1.4576646E0],"split_indices":[3,3,4,4,5,16,0,0,0,0,0,0,0],"split_type":[0,0,0,0,0,0,0,0,0,0,0,0,0],"sum_hessian":[8.4186E4,8.3851E4,3.35E2,5.6891E4,2.696E4,3.34E2,1E0,3.9967E4,1.6924E4,6.531E3,2.0429E4,1.33E2,2.01E2],"tree_param":{"num_deleted":"0","num_feature":"28","num_nodes":"13","size_leaf_vector":"1"}},{"base_weights":[3.430956E-3,-8.470063E-2,7.364715E0,-1.0356599E0,3.0365342E-1,7.044416E0,9.715325E0,-1.11704975E-1,-4.206784E-2,-1.222586E-2,1.08956836E-1,3.9690095E-1,7.8559194E0],"categories":[],"categories_nodes":[],"categories_segments":[],"categories_sizes":[],"default_left":[0,0,0,0,0,0,0,0,0,0,0,0,0],"id":58,"left_children":[1,3,5,7,9,11,-1,-1,-1,-1,-1,-1,-1],"loss_changes":[5.461792E4,3.072386E4,4.8512E4,6.670824E3,4.5827176E4,4.681035E4,0E0,0E0,0E0,0E0,0E0,0E0,0E0],"parents":[2147483647,0,0,1,1,2,2,3,3,4,4,5,5],"right_children":[2,4,6,8,10,12,-1,-1,-1,-1,-1,-1,-1],"split_conditions":[1.19E2,-1.2E1,9.07E2,-2.2E1,5.25E2,2.724E3,9.715325E0,-1.11704975E-1,-4.206784E-2,-1.222586E-2,1.08956836E-1,3.9690095E-1,7.8559194E0],"split_indices":[3,3,3,3,16,4,0,0,0,0,0,0,0],"split_type":[0,0,0,0,0,0,0,0,0,0,0,0,0],"sum_hessian":[8.4186E4,8.3191E4,9.95E2,2.4122E4,5.9069E4,9.94E2,1E0,6.805E3,1.7317E4,4.429E4,1.4779E4,9.92E2,2E0],"tree_param":{"num_deleted":"0","num_feature":"28","num_nodes":"13","size_leaf_vector":"1"}},{"base_weights":[3.439229E-3,-4.5620054E-2,1.224664E1,-2.2717753E-1,1.9747584E0,1.1011348E1,1.2695125E1,-7.4815474E-2,1.8190468E-3,1.5836537E-1,-1.3391009E-1,1.0923947E0,-1.0726395E0],"categories":[],"categories_nodes":[],"categories_segments":[],"categories_sizes":[],"default_left":[0,0,0,0,0,0,0,0,0,0,0,0,0],"id":59,"left_children":[1,3,5,7,9,11,-1,-1,-1,-1,-1,-1,-1],"loss_changes":[5.056686E4,3.0758605E4,8.099297E4,2.0388314E4,1.9935355E4,7.147055E4,0E0,0E0,0E0,0E0,0E0,0E0,0E0],"parents":[2147483647,0,0,1,1,2,2,3,3,4,4,5,5],"right_children":[2,4,6,8,10,12,-1,-1,-1,-1,-1,-1,-1],"split_conditions":[1.88E2,3.1E1,2.724E3,-1.6E1,2.402E3,1.5E1,1.2695125E1,-7.4815474E-2,1.8190468E-3,1.5836537E-1,-1.3391009E-1,1.0923947E0,-1.0726395E0],"split_indices":[3,3,4,3,4,5,0,0,0,0,0,0,0],"split_type":[0,0,0,0,0,0,0,0,0,0,0,0,0],"sum_hessian":[8.4186E4,8.3851E4,3.35E2,7.6938E4,6.913E3,3.34E2,1E0,1.5417E4,6.1521E4,5.951E3,9.62E2,2.67E2,6.7E1],"tree_param":{"num_deleted":"0","num_feature":"28","num_nodes":"13","size_leaf_vector":"1"}},{"base_weights":[3.384656E-3,-3.6004538E-4,9.393299E0,-1.8759654E-1,2.7504985E0,-6.557208E-2,6.209135E-3,5.032689E-2,3.4959388E-1],"categories":[],"categories_nodes":[],"categories_segments":[],"categories_sizes":[],"default_left":[0,0,0,0,0,0,0,0,0],"id":60,"left_children":[1,3,-1,5,7,-1,-1,-1,-1],"loss_changes":[4.9691848E4,4.336145E4,0E0,2.0993137E4,3.1857605E4,0E0,0E0,0E0,0E0],"parents":[2147483647,0,0,1,1,3,3,4,4],"right_children":[2,4,-1,6,8,-1,-1,-1,-1],"split_conditions":[9.07E2,4E1,9.393299E0,9E0,2.72E2,-6.557208E-2,6.209135E-3,5.032689E-2,3.4959388E-1],"split_indices":[3,3,0,5,16,0,0,0,0],"split_type":[0,0,0,0,0,0,0,0,0],"sum_hessian":[8.4186E4,8.4185E4,1E0,7.8821E4,5.364E3,1.9093E4,5.9728E4,3.329E3,2.035E3],"tree_param":{"num_deleted":"0","num_feature":"28","num_nodes":"9","size_leaf_vector":"1"}},{"base_weights":[3.2986652E-3,-3.3445927E-4,9.113418E0,-1.07182324E-1,4.3881707E0,-2.687873E-2,4.1354995E-2,-4.2996594E-1,3.5286844E-1],"categories":[],"categories_nodes":[],"categories_segments":[],"categories_sizes":[],"default_left":[0,0,0,0,0,0,0,0,0],"id":61,"left_children":[1,3,-1,5,7,-1,-1,-1,-1],"loss_changes":[4.6774723E4,3.9475492E4,0E0,2.2641643E4,3.5642367E4,0E0,0E0,0E0,0E0],"parents":[2147483647,0,0,1,1,3,3,4,4],"right_children":[2,4,-1,6,8,-1,-1,-1,-1],"split_conditions":[9.07E2,8E1,9.113418E0,5.25E2,1.0083E3,-2.687873E-2,4.1354995E-2,-4.2996594E-1,3.5286844E-1],"split_indices":[3,3,0,16,12,0,0,0,0],"split_type":[0,0,0,0,0,0,0,0,0],"sum_hessian":[8.4186E4,8.4185E4,1E0,8.2185E4,2E3,5.7504E4,2.4681E4,2.33E2,1.767E3],"tree_param":{"num_deleted":"0","num_feature":"28","num_nodes":"9","size_leaf_vector":"1"}},{"base_weights":[3.209558E-3,-3.1531425E-4,8.841875E0,-1.7012356E-1,2.4944892E0,-6.151815E-2,6.7444243E-3,-7.4229494E-2,2.3629464E-1],"categories":[],"categories_nodes":[],"categories_segments":[],"categories_sizes":[],"default_left":[0,0,0,0,0,0,0,0,0],"id":62,"left_children":[1,3,-1,5,7,-1,-1,-1,-1],"loss_changes":[4.402886E4,3.5664844E4,0E0,1.9253373E4,2.9516297E4,0E0,0E0,0E0,0E0],"parents":[2147483647,0,0,1,1,3,3,4,4],"right_children":[2,4,-1,6,8,-1,-1,-1,-1],"split_conditions":[9.07E2,4E1,8.841875E0,-1.4E1,1.014E3,-6.151815E-2,6.7444243E-3,-7.4229494E-2,2.3629464E-1],"split_indices":[3,3,0,3,12,0,0,0,0],"split_type":[0,0,0,0,0,0,0,0,0],"sum_hessian":[8.4186E4,8.4185E4,1E0,7.8821E4,5.364E3,1.9493E4,5.9328E4,1.514E3,3.85E3],"tree_param":{"num_deleted":"0","num_feature":"28","num_nodes":"9","size_leaf_vector":"1"}},{"base_weights":[3.1245735E-3,-2.9527224E-4,8.578424E0,-5.7063397E-2,7.0866413E0,-5.0301954E-2,1.810461E-2,2.719663E0,3.064158E-1],"categories":[],"categories_nodes":[],"categories_segments":[],"categories_sizes":[],"default_left":[0,0,0,0,0,0,0,0,0],"id":63,"left_children":[1,3,-1,5,7,-1,-1,-1,-1],"loss_changes":[4.144419E4,3.3869453E4,0E0,2.3721387E4,4.992183E4,0E0,0E0,0E0,0E0],"parents":[2147483647,0,0,1,1,3,3,4,4],"right_children":[2,4,-1,6,8,-1,-1,-1,-1],"split_conditions":[9.07E2,1.42E2,8.578424E0,1E1,6E0,-5.0301954E-2,1.810461E-2,2.719663E0,3.064158E-1],"split_indices":[3,3,0,5,5,0,0,0,0],"split_type":[0,0,0,0,0,0,0,0,0],"sum_hessian":[8.4186E4,8.4185E4,1E0,8.3517E4,6.68E2,2.6255E4,5.7262E4,3.1E1,6.37E2],"tree_param":{"num_deleted":"0","num_feature":"28","num_nodes":"9","size_leaf_vector":"1"}},{"base_weights":[3.0758523E-3,-2.4209543E-4,8.322823E0,-1.22603826E-1,2.9625316E0,-2.672208E-2,3.7882548E-2,6.7265555E-2,4.1503358E-1],"categories":[],"categories_nodes":[],"categories_segments":[],"categories_sizes":[],"default_left":[0,0,0,0,0,0,0,0,0],"id":64,"left_children":[1,3,-1,5,7,-1,-1,-1,-1],"loss_changes":[3.9011223E4,3.0520324E4,0E0,1.9975158E4,2.4496555E4,0E0,0E0,0E0,0E0],"parents":[2147483647,0,0,1,1,3,3,4,4],"right_children":[2,4,-1,6,8,-1,-1,-1,-1],"split_conditions":[9.07E2,5.8E1,8.322823E0,5.25E2,5.25E2,-2.672208E-2,3.7882548E-2,6.7265555E-2,4.1503358E-1],"split_indices":[3,3,0,16,16,0,0,0,0],"split_type":[0,0,0,0,0,0,0,0,0],"sum_hessian":[8.4186E4,8.4185E4,1E0,8.0847E4,3.338E3,5.655E4,2.4297E4,2.29E3,1.048E3],"tree_param":{"num_deleted":"0","num_feature":"28","num_nodes":"9","size_leaf_vector":"1"}},{"base_weights":[2.9972629E-3,-2.2182349E-4,8.074837E0,1.5176221E1,-2.351242E-2,5.7814467E-1,5.7663918E0,-1.0499572E-2,1.1192814E-1],"categories":[],"categories_nodes":[],"categories_segments":[],"categories_sizes":[],"default_left":[0,0,0,0,0,0,0,0,0],"id":65,"left_children":[1,3,-1,5,7,-1,-1,-1,-1],"loss_changes":[3.67211E4,2.975745E4,0E0,5.6679664E4,2.4407342E4,0E0,0E0,0E0,0E0],"parents":[2147483647,0,0,1,1,3,3,4,4],"right_children":[2,4,-1,6,8,-1,-1,-1,-1],"split_conditions":[9.07E2,1E0,8.074837E0,1.88E2,3.5E1,5.7814467E-1,5.7663918E0,-1.0499572E-2,1.1192814E-1],"split_indices":[3,5,0,3,3,0,0,0,0],"split_type":[0,0,0,0,0,0,0,0,0],"sum_hessian":[8.4186E4,8.4185E4,1E0,1.28E2,8.4057E4,1.21E2,7E0,7.7811E4,6.246E3],"tree_param":{"num_deleted":"0","num_feature":"28","num_nodes":"9","size_leaf_vector":"1"}},{"base_weights":[2.9911273E-3,-1.3204262E-4,7.83424E0,-3.6229666E-2,9.035266E0,-4.170788E-2,2.1866523E-2,-6.383099E-1,1.3067412E0],"categories":[],"categories_nodes":[],"categories_segments":[],"categories_sizes":[],"default_left":[0,0,0,0,0,0,0,0,0],"id":66,"left_children":[1,3,-1,5,7,-1,-1,-1,-1],"loss_changes":[3.4565383E4,2.7458129E4,0E0,2.243637E4,8.55233E4,0E0,0E0,0E0,0E0],"parents":[2147483647,0,0,1,1,3,3,4,4],"right_children":[2,4,-1,6,8,-1,-1,-1,-1],"split_conditions":[9.07E2,1.88E2,7.83424E0,-9E0,2.72E2,-4.170788E-2,2.1866523E-2,-6.383099E-1,1.3067412E0],"split_indices":[3,3,0,3,16,0,0,0,0],"split_type":[0,0,0,0,0,0,0,0,0],"sum_hessian":[8.4186E4,8.4185E4,1E0,8.3851E4,3.34E2,3.1688E4,5.2163E4,1.32E2,2.02E2],"tree_param":{"num_deleted":"0","num_feature":"28","num_nodes":"9","size_leaf_vector":"1"}},{"base_weights":[2.9137554E-3,-1.1635691E-4,7.600812E0,1.4293368E1,-2.2051917E-2,5.428994E-1,5.455533E0,-2.1954348E-2,4.6687797E-2],"categories":[],"categories_nodes":[],"categories_segments":[],"categories_sizes":[],"default_left":[0,0,0,0,0,0,0,0,0],"id":67,"left_children":[1,3,-1,5,7,-1,-1,-1,-1],"loss_changes":[3.2536258E4,2.6395623E4,0E0,5.0819844E4,2.3452262E4,0E0,0E0,0E0,0E0],"parents":[2147483647,0,0,1,1,3,3,4,4],"right_children":[2,4,-1,6,8,-1,-1,-1,-1],"split_conditions":[9.07E2,1E0,7.600812E0,1.88E2,5.25E2,5.428994E-1,5.455533E0,-2.1954348E-2,4.6687797E-2],"split_indices":[3,5,0,3,16,0,0,0,0],"split_type":[0,0,0,0,0,0,0,0,0],"sum_hessian":[8.4186E4,8.4185E4,1E0,1.28E2,8.4057E4,1.21E2,7E0,5.8782E4,2.5275E4],"tree_param":{"num_deleted":"0","num_feature":"28","num_nodes":"9","size_leaf_vector":"1"}},{"base_weights":[2.9019576E-3,-3.786869E-5,7.374338E0,-4.771985E-2,5.952584E0,-5.6692794E-2,1.3848399E-2,2.3471127E0,2.5423744E-1],"categories":[],"categories_nodes":[],"categories_segments":[],"categories_sizes":[],"default_left":[0,0,0,0,0,0,0,0,0],"id":68,"left_children":[1,3,-1,5,7,-1,-1,-1,-1],"loss_changes":[3.0626207E4,2.3895033E4,0E0,2.1139822E4,3.75492E4,0E0,0E0,0E0,0E0],"parents":[2147483647,0,0,1,1,3,3,4,4],"right_children":[2,4,-1,6,8,-1,-1,-1,-1],"split_conditions":[9.07E2,1.42E2,7.374338E0,9E0,6E0,-5.6692794E-2,1.3848399E-2,2.3471127E0,2.5423744E-1],"split_indices":[3,3,0,5,5,0,0,0,0],"split_type":[0,0,0,0,0,0,0,0,0],"sum_hessian":[8.4186E4,8.4185E4,1E0,8.3517E4,6.68E2,1.9762E4,6.3755E4,3.1E1,6.37E2],"tree_param":{"num_deleted":"0","num_feature":"28","num_nodes":"9","size_leaf_vector":"1"}},{"base_weights":[2.8470284E-3,-5.202861E-6,7.1546135E0,-3.4473717E-1,8.002936E-1,-2.357498E-2,3.7198725E-1,3.928813E-2,1.4310403E0],"categories":[],"categories_nodes":[],"categories_segments":[],"categories_sizes":[],"default_left":[0,0,0,0,0,0,0,0,0],"id":69,"left_children":[1,3,-1,5,7,-1,-1,-1,-1],"loss_changes":[2.8828314E4,2.3226234E4,0E0,1.9719197E4,8.29487E4,0E0,0E0,0E0,0E0],"parents":[2147483647,0,0,1,1,3,3,4,4],"right_children":[2,4,-1,6,8,-1,-1,-1,-1],"split_conditions":[9.07E2,5.25E2,7.1546135E0,1E0,1.88E2,-2.357498E-2,3.7198725E-1,3.928813E-2,1.4310403E0],"split_indices":[3,16,0,23,3,0,0,0,0],"split_type":[0,0,0,0,0,0,0,0,0],"sum_hessian":[8.4186E4,8.4185E4,1E0,5.884E4,2.5345E4,5.839E4,4.5E2,2.5193E4,1.52E2],"tree_param":{"num_deleted":"0","num_feature":"28","num_nodes":"9","size_leaf_vector":"1"}},{"base_weights":[2.7839714E-3,1.672503E-5,6.941436E0,1.3333561E1,-2.0445662E-2,5.111507E-1,5.017405E0,-2.9328601E-2,3.0402869E-2],"categories":[],"categories_nodes":[],"categories_segments":[],"categories_sizes":[],"default_left":[0,0,0,0,0,0,0,0,0],"id":70,"left_children":[1,3,-1,5,7,-1,-1,-1,-1],"loss_changes":[2.7135969E4,2.2969256E4,0E0,4.2753992E4,2.1040432E4,0E0,0E0,0E0,0E0],"parents":[2147483647,0,0,1,1,3,3,4,4],"right_children":[2,4,-1,6,8,-1,-1,-1,-1],"split_conditions":[9.07E2,1E0,6.941436E0,1.88E2,-4E0,5.111507E-1,5.017405E0,-2.9328601E-2,3.0402869E-2],"split_indices":[3,5,0,3,3,0,0,0,0],"split_type":[0,0,0,0,0,0,0,0,0],"sum_hessian":[8.4186E4,8.4185E4,1E0,1.28E2,8.4057E4,1.21E2,7E0,4.4499E4,3.9558E4],"tree_param":{"num_deleted":"0","num_feature":"28","num_nodes":"9","size_leaf_vector":"1"}},{"base_weights":[2.7662364E-3,8.144307E-5,6.7346106E0,-2.2472781E-1,1.0998814E0,-4.489134E-2,2.1118429E-2,8.787789E-2,-2.1099474E-1],"categories":[],"categories_nodes":[],"categories_segments":[],"categories_sizes":[],"default_left":[0,0,0,0,0,0,0,0,0],"id":71,"left_children":[1,3,-1,5,7,-1,-1,-1,-1],"loss_changes":[2.5542957E4,2.0814832E4,0E0,2.1397123E4,2.4854904E4,0E0,0E0,0E0,0E0],"parents":[2147483647,0,0,1,1,3,3,4,4],"right_children":[2,4,-1,6,8,-1,-1,-1,-1],"split_conditions":[9.07E2,1.4E1,6.7346106E0,9.54E2,2.554E3,-4.489134E-2,2.1118429E-2,8.787789E-2,-2.1099474E-1],"split_indices":[3,3,0,4,4,0,0,0,0],"split_type":[0,0,0,0,0,0,0,0,0],"sum_hessian":[8.4186E4,8.4185E4,1E0,6.9898E4,1.4287E4,3.6543E4,3.3355E4,1.322E4,1.067E3],"tree_param":{"num_deleted":"0","num_feature":"28","num_nodes":"9","size_leaf_vector":"1"}},{"base_weights":[2.6796663E-3,7.486884E-5,6.5339465E0,1.253391E1,-1.916024E-2,4.7807387E-1,4.7534275E0,-7.683311E-2,9.71554E-3],"categories":[],"categories_nodes":[],"categories_segments":[],"categories_sizes":[],"default_left":[0,0,0,0,0,0,0,0,0],"id":72,"left_children":[1,3,-1,5,7,-1,-1,-1,-1],"loss_changes":[2.4043482E4,2.0296617E4,0E0,3.8487723E4,1.9452707E4,0E0,0E0,0E0,0E0],"parents":[2147483647,0,0,1,1,3,3,4,4],"right_children":[2,4,-1,6,8,-1,-1,-1,-1],"split_conditions":[9.07E2,1E0,6.5339465E0,1.88E2,-1.9E1,4.7807387E-1,4.7534275E0,-7.683311E-2,9.71554E-3],"split_indices":[3,5,0,3,3,0,0,0,0],"split_type":[0,0,0,0,0,0,0,0,0],"sum_hessian":[8.4186E4,8.4185E4,1E0,1.28E2,8.4057E4,1.21E2,7E0,1.0544E4,7.3513E4],"tree_param":{"num_deleted":"0","num_feature":"28","num_nodes":"9","size_leaf_vector":"1"}},{"base_weights":[2.6589774E-3,1.3179281E-4,6.339262E0,-3.2425705E-1,7.5320387E-1,-2.2155872E-2,3.4748432E-1,3.708823E-2,1.3284204E0],"categories":[],"categories_nodes":[],"categories_segments":[],"categories_sizes":[],"default_left":[0,0,0,0,0,0,0,0,0],"id":73,"left_children":[1,3,-1,5,7,-1,-1,-1,-1],"loss_changes":[2.2632012E4,2.0565889E4,0E0,1.7219396E4,7.141043E4,0E0,0E0,0E0,0E0],"parents":[2147483647,0,0,1,1,3,3,4,4],"right_children":[2,4,-1,6,8,-1,-1,-1,-1],"split_conditions":[9.07E2,5.25E2,6.339262E0,1E0,1.88E2,-2.2155872E-2,3.4748432E-1,3.708823E-2,1.3284204E0],"split_indices":[3,16,0,23,3,0,0,0,0],"split_type":[0,0,0,0,0,0,0,0,0],"sum_hessian":[8.4186E4,8.4185E4,1E0,5.884E4,2.5345E4,5.839E4,4.5E2,2.5193E4,1.52E2],"tree_param":{"num_deleted":"0","num_feature":"28","num_nodes":"9","size_leaf_vector":"1"}},{"base_weights":[2.5958566E-3,1.4397157E-4,6.1503787E0,-7.489918E-1,3.0101308E-1,-1.04871705E-1,-3.2006443E-2,-8.203636E-3,9.558893E-2],"categories":[],"categories_nodes":[],"categories_segments":[],"categories_sizes":[],"default_left":[0,0,0,0,0,0,0,0,0],"id":74,"left_children":[1,3,-1,5,7,-1,-1,-1,-1],"loss_changes":[2.1303424E4,1.897506E4,0E0,5.1660703E3,3.433386E4,0E0,0E0,0E0,0E0],"parents":[2147483647,0,0,1,1,3,3,4,4],"right_children":[2,4,-1,6,8,-1,-1,-1,-1],"split_conditions":[9.07E2,-1.2E1,6.1503787E0,-2.5E1,5.25E2,-1.04871705E-1,-3.2006443E-2,-8.203636E-3,9.558893E-2],"split_indices":[3,3,0,3,16,0,0,0,0],"split_type":[0,0,0,0,0,0,0,0,0],"sum_hessian":[8.4186E4,8.4185E4,1E0,2.4122E4,6.0063E4,4.179E3,1.9943E4,4.4936E4,1.5127E4],"tree_param":{"num_deleted":"0","num_feature":"28","num_nodes":"9","size_leaf_vector":"1"}},{"base_weights":[2.51369E-3,1.3486102E-4,5.9671226E0,1.1740529E1,-1.7882591E-2,3.492621E0,3.5652372E-1,-4.848367E-2,1.3586717E-2],"categories":[],"categories_nodes":[],"categories_segments":[],"categories_sizes":[],"default_left":[0,0,0,0,0,0,0,0,0],"id":75,"left_children":[1,3,-1,5,7,-1,-1,-1,-1],"loss_changes":[2.0052826E4,1.7808242E4,0E0,3.446105E4,1.644608E4,0E0,0E0,0E0,0E0],"parents":[2147483647,0,0,1,1,3,3,4,4],"right_children":[2,4,-1,6,8,-1,-1,-1,-1],"split_conditions":[9.07E2,1E0,5.9671226E0,8E0,9E0,3.492621E0,3.5652372E-1,-4.848367E-2,1.3586717E-2],"split_indices":[3,5,0,13,5,0,0,0,0],"split_type":[0,0,0,0,0,0,0,0,0],"sum_hessian":[8.4186E4,8.4185E4,1E0,1.28E2,8.4057E4,1.3E1,1.15E2,1.9842E4,6.4215E4],"tree_param":{"num_deleted":"0","num_feature":"28","num_nodes":"9","size_leaf_vector":"1"}},{"base_weights":[2.4800766E-3,1.7212745E-4,5.789327E0,-9.975725E-2,2.0252123E0,7.58171E-2,-1.3817818E-2,-8.804775E-2,2.0153356E-1],"categories":[],"categories_nodes":[],"categories_segments":[],"categories_sizes":[],"default_left":[0,0,0,0,0,0,0,0,0],"id":76,"left_children":[1,3,-1,5,7,-1,-1,-1,-1],"loss_changes":[1.8875633E4,1.7036166E4,0E0,1.454315E4,1.881861E4,0E0,0E0,0E0,0E0],"parents":[2147483647,0,0,1,1,3,3,4,4],"right_children":[2,4,-1,6,8,-1,-1,-1,-1],"split_conditions":[9.07E2,5.1E1,5.789327E0,5.1696338E-2,1.014E3,7.58171E-2,-1.3817818E-2,-8.804775E-2,2.0153356E-1],"split_indices":[3,3,0,14,12,0,0,0,0],"split_type":[0,0,0,0,0,0,0,0,0],"sum_hessian":[8.4186E4,8.4185E4,1E0,8.0227E4,3.958E3,7.046E3,7.3181E4,1.105E3,2.853E3],"tree_param":{"num_deleted":"0","num_feature":"28","num_nodes":"9","size_leaf_vector":"1"}},{"base_weights":[2.4031484E-3,1.6396624E-4,5.61683E0,-6.491679E-1,2.9915804E-1,-5.9508614E-2,-3.67802E-3,-7.2171222E-3,9.3058735E-2],"categories":[],"categories_nodes":[],"categories_segments":[],"categories_sizes":[],"default_left":[0,0,0,0,0,0,0,0,0],"id":77,"left_children":[1,3,-1,5,7,-1,-1,-1,-1],"loss_changes":[1.7767562E4,1.6344602E4,0E0,5.4485664E3,3.0584053E4,0E0,0E0,0E0,0E0],"parents":[2147483647,0,0,1,1,3,3,4,4],"right_children":[2,4,-1,6,8,-1,-1,-1,-1],"split_conditions":[9.07E2,-1.1E1,5.61683E0,1.399E3,5.25E2,-5.9508614E-2,-3.67802E-3,-7.2171222E-3,9.3058735E-2],"split_indices":[3,3,0,4,16,0,0,0,0],"split_type":[0,0,0,0,0,0,0,0,0],"sum_hessian":[8.4186E4,8.4185E4,1E0,2.6542E4,5.7643E4,1.6642E4,9.9E3,4.3247E4,1.4396E4],"tree_param":{"num_deleted":"0","num_feature":"28","num_nodes":"9","size_leaf_vector":"1"}},{"base_weights":[2.3269881E-3,1.5452428E-4,5.4494715E0,1.0402277E1,-1.7668564E-2,3.9455438E-1,4.4012823E0,-4.582069E-2,1.2770083E-2],"categories":[],"categories_nodes":[],"categories_segments":[],"categories_sizes":[],"default_left":[0,0,0,0,0,0,0,0,0],"id":78,"left_children":[1,3,-1,5,7,-1,-1,-1,-1],"loss_changes":[1.672454E4,1.5608096E4,0E0,3.4062883E4,1.4645395E4,0E0,0E0,0E0,0E0],"parents":[2147483647,0,0,1,1,3,3,4,4],"right_children":[2,4,-1,6,8,-1,-1,-1,-1],"split_conditions":[9.07E2,5E0,5.4494715E0,1.88E2,9E0,3.9455438E-1,4.4012823E0,-4.582069E-2,1.2770083E-2],"split_indices":[3,5,0,3,5,0,0,0,0],"split_type":[0,0,0,0,0,0,0,0,0],"sum_hessian":[8.4186E4,8.4185E4,1E0,1.43E2,8.4042E4,1.36E2,7E0,1.9827E4,6.4215E4],"tree_param":{"num_deleted":"0","num_feature":"28","num_nodes":"9","size_leaf_vector":"1"}},{"base_weights":[2.3095445E-3,-6.025312E-2,3.0842385E0,-6.6686213E-1,2.1934378E-1,-8.081355E0,4.5865192E0,4.8420447E-1,-4.2306423E-2,1.1611441E-1,6.658953E-4,-1.7491166E-1,-2.1378977E0,2.1853939E-1,1.741007E0],"categories":[],"categories_nodes":[],"categories_segments":[],"categories_sizes":[],"default_left":[0,0,0,0,0,0,0,0,0,0,0,0,0,0,0],"id":79,"left_children":[1,3,5,7,9,11,13,-1,-1,-1,-1,-1,-1,-1,-1],"loss_changes":[1.6232591E4,1.3994846E4,2.8133277E4,9.865117E3,2.0330705E4,2.8358672E4,3.3332336E4,0E0,0E0,0E0,0E0,0E0,0E0,0E0,0E0],"parents":[2147483647,0,0,1,1,2,2,3,3,4,4,5,5,6,6],"right_children":[2,4,6,8,10,12,14,-1,-1,-1,-1,-1,-1,-1,-1],"split_conditions":[8.9E1,1E1,1.0083E3,5E0,6.0361404E-2,1.88E2,5E-2,4.8420447E-1,-4.2306423E-2,1.1611441E-1,6.658953E-4,-1.7491166E-1,-2.1378977E0,2.1853939E-1,1.741007E0],"split_indices":[3,5,12,5,14,3,11,0,0,0,0,0,0,0,0],"split_type":[0,0,0,0,0,0,0,0,0,0,0,0,0,0,0],"sum_hessian":[8.4186E4,8.2512E4,1.674E3,2.6032E4,5.648E4,1.98E2,1.476E3,1.26E2,2.5906E4,6.068E3,5.0412E4,1.68E2,3E1,1.424E3,5.2E1],"tree_param":{"num_deleted":"0","num_feature":"28","num_nodes":"15","size_leaf_vector":"1"}},{"base_weights":[2.1744024E-3,6.9264E-5,5.2805877E0,-1.0977361E0,1.5726703E-1,-8.298134E-2,-1.1598894E-2,-1.0877411E-2,6.316455E-2],"categories":[],"categories_nodes":[],"categories_segments":[],"categories_sizes":[],"default_left":[0,0,0,0,0,0,0,0,0],"id":80,"left_children":[1,3,-1,5,7,-1,-1,-1,-1],"loss_changes":[1.5704013E4,1.4528367E4,0E0,2.8067754E3,2.2588562E4,0E0,0E0,0E0,0E0],"parents":[2147483647,0,0,1,1,3,3,4,4],"right_children":[2,4,-1,6,8,-1,-1,-1,-1],"split_conditions":[9.07E2,-1.9E1,5.2805877E0,2.172E3,5.25E2,-8.298134E-2,-1.1598894E-2,-1.0877411E-2,6.316455E-2],"split_indices":[3,3,0,4,16,0,0,0,0],"split_type":[0,0,0,0,0,0,0,0,0],"sum_hessian":[8.4186E4,8.4185E4,1E0,1.0544E4,7.3641E4,7.949E3,2.595E3,5.3502E4,2.0139E4],"tree_param":{"num_deleted":"0","num_feature":"28","num_nodes":"9","size_leaf_vector":"1"}},{"base_weights":[2.107042E-3,6.4627886E-5,5.123248E0,-2.383941E-1,6.9594103E-1,-3.4604408E-2,3.3417422E-2,6.712922E-3,1.4262463E-1],"categories":[],"categories_nodes":[],"categories_segments":[],"categories_sizes":[],"default_left":[0,0,0,0,0,0,0,0,0],"id":81,"left_children":[1,3,-1,5,7,-1,-1,-1,-1],"loss_changes":[1.4782127E4,1.3969806E4,0E0,1.7152312E4,2.127285E4,0E0,0E0,0E0,0E0],"parents":[2147483647,0,0,1,1,3,3,4,4],"right_children":[2,4,-1,6,8,-1,-1,-1,-1],"split_conditions":[9.07E2,6E0,5.123248E0,1.368E3,5.25E2,-3.4604408E-2,3.3417422E-2,6.712922E-3,1.4262463E-1],"split_indices":[3,3,0,4,16,0,0,0,0],"split_type":[0,0,0,0,0,0,0,0,0],"sum_hessian":[8.4186E4,8.4185E4,1E0,6.27E4,2.1485E4,4.3898E4,1.8802E4,1.5991E4,5.494E3],"tree_param":{"num_deleted":"0","num_feature":"28","num_nodes":"9","size_leaf_vector":"1"}},{"base_weights":[2.0439927E-3,-3.4709886E-2,4.583549E0,-7.5893134E-1,1.8978386E-1,8.920216E0,-7.5458126E0,3.7246847E-1,-4.8096497E-2,-1.9786049E-2,4.2536777E-2,4.8751512E-1,1.1125711E1,1.0683663E-2,-1.187743E0],"categories":[],"categories_nodes":[],"categories_segments":[],"categories_sizes":[],"default_left":[0,0,0,0,0,0,0,0,0,0,0,0,0,0,0],"id":82,"left_children":[1,3,5,7,9,11,13,-1,-1,-1,-1,-1,-1,-1,-1],"loss_changes":[1.4176246E4,1.3578767E4,3.530998E4,6.6774854E3,1.7433574E4,6.340029E4,1.693879E4,0E0,0E0,0E0,0E0,0E0,0E0,0E0,0E0],"parents":[2147483647,0,0,1,1,2,2,3,3,4,4,5,5,6,6],"right_children":[2,4,6,8,10,12,14,-1,-1,-1,-1,-1,-1,-1,-1],"split_conditions":[1.42E2,9E0,1.5E1,5E0,-4E0,2.724E3,1.88E2,3.7246847E-1,-4.8096497E-2,-1.9786049E-2,4.2536777E-2,4.8751512E-1,1.1125711E1,1.0683663E-2,-1.187743E0],"split_indices":[3,5,5,5,3,4,3,0,0,0,0,0,0,0,0],"split_type":[0,0,0,0,0,0,0,0,0,0,0,0,0,0,0],"sum_hessian":[8.4186E4,8.3517E4,6.69E2,1.9762E4,6.3755E4,4.93E2,1.76E2,1.34E2,1.9628E4,3.1945E4,3.181E4,4.92E2,1E0,1.09E2,6.7E1],"tree_param":{"num_deleted":"0","num_feature":"28","num_nodes":"15","size_leaf_vector":"1"}},{"base_weights":[2.050246E-3,7.447832E-5,4.956072E0,-2.8188676E-2,5.2476206E0,-1.6810091E-2,3.3176724E-2,-8.00795E-2,6.149419E-1],"categories":[],"categories_nodes":[],"categories_segments":[],"categories_sizes":[],"default_left":[0,0,0,0,0,0,0,0,0],"id":83,"left_children":[1,3,-1,5,7,-1,-1,-1,-1],"loss_changes":[1.3833154E4,1.2485961E4,0E0,1.2435863E4,1.5090422E4,0E0,0E0,0E0,0E0],"parents":[2147483647,0,0,1,1,3,3,4,4],"right_children":[2,4,-1,6,8,-1,-1,-1,-1],"split_conditions":[9.07E2,1E0,4.956072E0,5.25E2,4E0,-1.6810091E-2,3.3176724E-2,-8.00795E-2,6.149419E-1],"split_indices":[3,23,0,16,1,0,0,0,0],"split_type":[0,0,0,0,0,0,0,0,0],"sum_hessian":[8.4186E4,8.4185E4,1E0,8.3735E4,4.5E2,5.839E4,2.5345E4,1.96E2,2.54E2],"tree_param":{"num_deleted":"0","num_feature":"28","num_nodes":"9","size_leaf_vector":"1"}},{"base_weights":[1.9935097E-3,-2.2995321E-2,6.2381883E0,-7.188563E-1,1.9260693E-1,5.175501E0,1.07932205E1,-5.4790284E-2,4.156474E-2,-1.4221244E-2,4.7208633E-2,7.435844E-2,3.0872574E0],"categories":[],"categories_nodes":[],"categories_segments":[],"categories_sizes":[],"default_left":[0,0,0,0,0,0,0,0,0,0,0,0,0],"id":84,"left_children":[1,3,5,7,9,11,-1,-1,-1,-1,-1,-1,-1],"loss_changes":[1.3119444E4,1.2580386E4,6.1506188E4,5.6353164E3,1.6553672E4,6.129188E4,0E0,0E0,0E0,0E0,0E0,0E0,0E0],"parents":[2147483647,0,0,1,1,2,2,3,3,4,4,5,5],"right_children":[2,4,6,8,10,12,-1,-1,-1,-1,-1,-1,-1],"split_conditions":[1.88E2,9E0,2.724E3,1.15078E1,-1E0,1E0,1.07932205E1,-5.4790284E-2,4.156474E-2,-1.4221244E-2,4.7208633E-2,7.435844E-2,3.0872574E0],"split_indices":[3,5,4,10,3,27,0,0,0,0,0,0,0],"split_type":[0,0,0,0,0,0,0,0,0,0,0,0,0],"sum_hessian":[8.4186E4,8.3851E4,3.35E2,1.9834E4,6.4017E4,3.34E2,1E0,1.7374E4,2.46E3,3.7236E4,2.6781E4,3.09E2,2.5E1],"tree_param":{"num_deleted":"0","num_feature":"28","num_nodes":"13","size_leaf_vector":"1"}},{"base_weights":[2.0406467E-3,1.2463215E-4,4.8061867E0,-9.8841447E-1,1.4167626E-1,-6.558227E-2,5.7266977E-2,-9.193245E-3,5.5293277E-2],"categories":[],"categories_nodes":[],"categories_segments":[],"categories_sizes":[],"default_left":[0,0,0,0,0,0,0,0,0],"id":85,"left_children":[1,3,-1,5,7,-1,-1,-1,-1],"loss_changes":[1.3009084E4,1.178023E4,0E0,2.3056562E3,1.7134469E4,0E0,0E0,0E0,0E0],"parents":[2147483647,0,0,1,1,3,3,4,4],"right_children":[2,4,-1,6,8,-1,-1,-1,-1],"split_conditions":[9.07E2,-1.9E1,4.8061867E0,2.64E3,5.25E2,-6.558227E-2,5.7266977E-2,-9.193245E-3,5.5293277E-2],"split_indices":[3,3,0,4,16,0,0,0,0],"split_type":[0,0,0,0,0,0,0,0,0],"sum_hessian":[8.4186E4,8.4185E4,1E0,1.0544E4,7.3641E4,9.971E3,5.73E2,5.3502E4,2.0139E4],"tree_param":{"num_deleted":"0","num_feature":"28","num_nodes":"9","size_leaf_vector":"1"}},{"base_weights":[1.9765573E-3,1.1763225E-4,4.662981E0,9.265815E0,-1.4102014E-2,3.0870523E0,2.414719E-1,-2.4300579E-3,2.9386464E-1],"categories":[],"categories_nodes":[],"categories_segments":[],"categories_sizes":[],"default_left":[0,0,0,0,0,0,0,0,0],"id":86,"left_children":[1,3,-1,5,7,-1,-1,-1,-1],"loss_changes":[1.22453955E4,1.1092051E4,0E0,2.8399496E4,1.1089578E4,0E0,0E0,0E0,0E0],"parents":[2147483647,0,0,1,1,3,3,4,4],"right_children":[2,4,-1,6,8,-1,-1,-1,-1],"split_conditions":[9.07E2,1E0,4.662981E0,8E0,1E0,3.0870523E0,2.414719E-1,-2.4300579E-3,2.9386464E-1],"split_indices":[3,5,0,13,23,0,0,0,0],"split_type":[0,0,0,0,0,0,0,0,0],"sum_hessian":[8.4186E4,8.4185E4,1E0,1.28E2,8.4057E4,1.3E1,1.15E2,8.3607E4,4.5E2],"tree_param":{"num_deleted":"0","num_feature":"28","num_nodes":"9","size_leaf_vector":"1"}},{"base_weights":[1.9571816E-3,-4.5021713E-2,2.9354284E0,-5.597855E-1,1.919134E-1,-8.727601E0,4.519249E0,3.3959123E-1,-3.525172E-2,1.0010615E-1,7.386472E-4,-1.9883752E0,-7.418673E-2,2.0357749E-1,2.1195247E0],"categories":[],"categories_nodes":[],"categories_segments":[],"categories_sizes":[],"default_left":[0,0,0,0,0,0,0,0,0,0,0,0,0,0,0],"id":87,"left_children":[1,3,5,7,9,11,13,-1,-1,-1,-1,-1,-1,-1,-1],"loss_changes":[1.1602047E4,1.0106301E4,2.455198E4,5.1960493E3,1.5157123E4,2.9272633E4,3.991396E4,0E0,0E0,0E0,0E0,0E0,0E0,0E0,0E0],"parents":[2147483647,0,0,1,1,2,2,3,3,4,4,5,5,6,6],"right_children":[2,4,6,8,10,12,14,-1,-1,-1,-1,-1,-1,-1,-1],"split_conditions":[1.02E2,1E1,1.0083E3,5E0,6.0361404E-2,9E0,5E-2,3.3959123E-1,-3.525172E-2,1.0010615E-1,7.386472E-4,-1.9883752E0,-7.418673E-2,2.0357749E-1,2.1195247E0],"split_indices":[3,5,12,5,14,5,11,0,0,0,0,0,0,0,0],"split_type":[0,0,0,0,0,0,0,0,0,0,0,0,0,0,0],"sum_hessian":[8.4186E4,8.286E4,1.326E3,2.6117E4,5.6743E4,1.58E2,1.168E3,1.31E2,2.5986E4,6.108E3,5.0635E4,3.6E1,1.22E2,1.129E3,3.9E1],"tree_param":{"num_deleted":"0","num_feature":"28","num_nodes":"15","size_leaf_vector":"1"}},{"base_weights":[1.8483831E-3,4.7263282E-5,4.5179787E0,-7.9986763E-1,1.5385614E-1,-6.1896555E-2,1.7859406E-3,-7.8012655E-3,5.576286E-2],"categories":[],"categories_nodes":[],"categories_segments":[],"categories_sizes":[],"default_left":[0,0,0,0,0,0,0,0,0],"id":88,"left_children":[1,3,-1,5,7,-1,-1,-1,-1],"loss_changes":[1.149568E4,1.0357865E4,0E0,2.6906123E3,1.572197E4,0E0,0E0,0E0,0E0],"parents":[2147483647,0,0,1,1,3,3,4,4],"right_children":[2,4,-1,6,8,-1,-1,-1,-1],"split_conditions":[9.07E2,-1.7E1,4.5179787E0,2.172E3,5.25E2,-6.1896555E-2,1.7859406E-3,-7.8012655E-3,5.576286E-2],"split_indices":[3,3,0,4,16,0,0,0,0],"split_type":[0,0,0,0,0,0,0,0,0],"sum_hessian":[8.4186E4,8.4185E4,1E0,1.3576E4,7.0609E4,1.0542E4,3.034E3,5.1759E4,1.885E4],"tree_param":{"num_deleted":"0","num_feature":"28","num_nodes":"9","size_leaf_vector":"1"}},{"base_weights":[1.7917862E-3,4.433258E-5,4.383361E0,-3.259001E-1,3.5035205E-1,-3.5606388E-2,6.943552E-2,1.6964145E-2,8.2305455E-1],"categories":[],"categories_nodes":[],"categories_segments":[],"categories_sizes":[],"default_left":[0,0,0,0,0,0,0,0,0],"id":89,"left_children":[1,3,-1,5,7,-1,-1,-1,-1],"loss_changes":[1.0820834E4,9.612543E3,0E0,1.7662145E4,3.58712E4,0E0,0E0,0E0,0E0],"parents":[2147483647,0,0,1,1,3,3,4,4],"right_children":[2,4,-1,6,8,-1,-1,-1,-1],"split_conditions":[9.07E2,9.54E2,4.383361E0,1.5E1,1.88E2,-3.5606388E-2,6.943552E-2,1.6964145E-2,8.2305455E-1],"split_indices":[3,4,0,3,3,0,0,0,0],"split_type":[0,0,0,0,0,0,0,0,0],"sum_hessian":[8.4186E4,8.4185E4,1E0,4.3609E4,4.0576E4,3.689E4,6.719E3,4.038E4,1.96E2],"tree_param":{"num_deleted":"0","num_feature":"28","num_nodes":"9","size_leaf_vector":"1"}},{"base_weights":[1.7474246E-3,5.2038176E-5,4.2527547E0,-1.1394302E0,1.00274526E-1,-7.538111E-2,6.507926E-2,4.2413413E-3,3.4310412E-1],"categories":[],"categories_nodes":[],"categories_segments":[],"categories_sizes":[],"default_left":[0,0,0,0,0,0,0,0,0],"id":90,"left_children":[1,3,-1,5,7,-1,-1,-1,-1],"loss_changes":[1.0185605E4,9.614303E3,0E0,1.9078564E3,1.2739182E4,0E0,0E0,0E0,0E0],"parents":[2147483647,0,0,1,1,3,3,4,4],"right_children":[2,4,-1,6,8,-1,-1,-1,-1],"split_conditions":[9.07E2,-2.2E1,4.2527547E0,2.677E3,1E0,-7.538111E-2,6.507926E-2,4.2413413E-3,3.4310412E-1],"split_indices":[3,3,0,4,23,0,0,0,0],"split_type":[0,0,0,0,0,0,0,0,0],"sum_hessian":[8.4186E4,8.4185E4,1E0,6.805E3,7.738E4,6.443E3,3.62E2,7.6985E4,3.95E2],"tree_param":{"num_deleted":"0","num_feature":"28","num_nodes":"9","size_leaf_vector":"1"}},{"base_weights":[1.6977839E-3,5.2912957E-5,4.1260405E0,8.325748E0,-1.2724156E-2,2.7340296E-1,3.830963E0,7.933008E-3,-4.1360434E-2],"categories":[],"categories_nodes":[],"categories_segments":[],"categories_sizes":[],"default_left":[0,0,0,0,0,0,0,0,0],"id":91,"left_children":[1,3,-1,5,7,-1,-1,-1,-1],"loss_changes":[9.587671E3,8.955644E3,0E0,2.6688258E4,8.353015E3,0E0,0E0,0E0,0E0],"parents":[2147483647,0,0,1,1,3,3,4,4],"right_children":[2,4,-1,6,8,-1,-1,-1,-1],"split_conditions":[9.07E2,1E0,4.1260405E0,1.88E2,2.6E1,2.7340296E-1,3.830963E0,7.933008E-3,-4.1360434E-2],"split_indices":[3,5,0,3,2,0,0,0,0],"split_type":[0,0,0,0,0,0,0,0,0],"sum_hessian":[8.4186E4,8.4185E4,1E0,1.28E2,8.4057E4,1.21E2,7E0,6.9237E4,1.482E4],"tree_param":{"num_deleted":"0","num_feature":"28","num_nodes":"9","size_leaf_vector":"1"}},{"base_weights":[1.6939121E-3,9.805203E-5,4.0031013E0,-3.0687734E-1,3.3001885E-1,-3.3464007E-2,6.503104E-2,1.602547E-2,7.6588625E-1],"categories":[],"categories_nodes":[],"categories_segments":[],"categories_sizes":[],"default_left":[0,0,0,0,0,0,0,0,0],"id":92,"left_children":[1,3,-1,5,7,-1,-1,-1,-1],"loss_changes":[9.024824E3,8.526255E3,0E0,1.5529121E4,3.1041273E4,0E0,0E0,0E0,0E0],"parents":[2147483647,0,0,1,1,3,3,4,4],"right_children":[2,4,-1,6,8,-1,-1,-1,-1],"split_conditions":[9.07E2,9.54E2,4.0031013E0,1.5E1,1.88E2,-3.3464007E-2,6.503104E-2,1.602547E-2,7.6588625E-1],"split_indices":[3,4,0,3,3,0,0,0,0],"split_type":[0,0,0,0,0,0,0,0,0],"sum_hessian":[8.4186E4,8.4185E4,1E0,4.3609E4,4.0576E4,3.689E4,6.719E3,4.038E4,1.96E2],"tree_param":{"num_deleted":"0","num_feature":"28","num_nodes":"9","size_leaf_vector":"1"}},{"base_weights":[1.6501896E-3,-1.0752969E0,9.637118E-2,-1.3955493E0,-3.0829427E-1,-1.4455336E-1,7.093935E-1,-6.472889E-2,-1.4676857E-1,-1.00846E-1,5.2720006E-3,-1.0986378E-2,3.2181212E-1,3.5262246E-2,1.0355626E0],"categories":[],"categories_nodes":[],"categories_segments":[],"categories_sizes":[],"default_left":[0,0,0,0,0,0,0,0,0,0,0,0,0,0,0],"id":93,"left_children":[1,3,5,7,9,11,13,-1,-1,-1,-1,-1,-1,-1,-1],"loss_changes":[8.587978E3,1.6713579E3,1.1428815E4,1.5825127E3,1.1016727E3,1.2262455E4,4.2807527E4,0E0,0E0,0E0,0E0,0E0,0E0,0E0,0E0],"parents":[2147483647,0,0,1,1,2,2,3,3,4,4,5,5,6,6],"right_children":[2,4,6,8,10,12,14,-1,-1,-1,-1,-1,-1,-1,-1],"split_conditions":[-2.2E1,2.172E3,5.25E2,1.6E1,1.9933502E-1,1E0,1.88E2,-6.472889E-2,-1.4676857E-1,-1.00846E-1,5.2720006E-3,-1.0986378E-2,3.2181212E-1,3.5262246E-2,1.0355626E0],"split_indices":[3,4,16,5,14,23,3,0,0,0,0,0,0,0,0],"split_type":[0,0,0,0,0,0,0,0,0,0,0,0,0,0,0],"sum_hessian":[8.4186E4,6.805E3,7.7381E4,4.8E3,2.005E3,5.555E4,2.1831E4,3.723E3,1.077E3,4.46E2,1.559E3,5.5155E4,3.95E2,2.1679E4,1.52E2],"tree_param":{"num_deleted":"0","num_feature":"28","num_nodes":"15","size_leaf_vector":"1"}},{"base_weights":[1.5645745E-3,1.613323E-5,3.8841524E0,-5.197832E-1,1.8115617E-1,-3.5706747E-2,8.631189E-2,-5.114415E-3,5.7430264E-2],"categories":[],"categories_nodes":[],"categories_segments":[],"categories_sizes":[],"default_left":[0,0,0,0,0,0,0,0,0],"id":94,"left_children":[1,3,-1,5,7,-1,-1,-1,-1],"loss_changes":[8.496481E3,7.9267505E3,0E0,3.4009849E3,1.3043869E4,0E0,0E0,0E0,0E0],"parents":[2147483647,0,0,1,1,3,3,4,4],"right_children":[2,4,-1,6,8,-1,-1,-1,-1],"split_conditions":[9.07E2,-1.3E1,3.8841524E0,2.64E3,5.25E2,-3.5706747E-2,8.631189E-2,-5.114415E-3,5.7430264E-2],"split_indices":[3,3,0,4,16,0,0,0,0],"split_type":[0,0,0,0,0,0,0,0,0],"sum_hessian":[8.4186E4,8.4185E4,1E0,2.1755E4,6.243E4,2.0912E4,8.43E2,4.655E4,1.588E4],"tree_param":{"num_deleted":"0","num_feature":"28","num_nodes":"9","size_leaf_vector":"1"}},{"base_weights":[1.518638E-3,1.6333894E-5,3.7684205E0,7.3412423E0,-1.25621855E-2,3.4190494E-1,7.0521955E0,-3.385927E-2,9.475003E-3],"categories":[],"categories_nodes":[],"categories_segments":[],"categories_sizes":[],"default_left":[0,0,0,0,0,0,0,0,0],"id":95,"left_children":[1,3,-1,5,7,-1,-1,-1,-1],"loss_changes":[7.9977036E3,7.7739756E3,0E0,2.4956143E4,8.0113486E3,0E0,0E0,0E0,0E0],"parents":[2147483647,0,0,1,1,3,3,4,4],"right_children":[2,4,-1,6,8,-1,-1,-1,-1],"split_conditions":[9.07E2,5E0,3.7684205E0,1.3E-1,9E0,3.4190494E-1,7.0521955E0,-3.385927E-2,9.475003E-3],"split_indices":[3,5,0,11,5,0,0,0,0],"split_type":[0,0,0,0,0,0,0,0,0],"sum_hessian":[8.4186E4,8.4185E4,1E0,1.43E2,8.4042E4,1.42E2,1E0,1.9827E4,6.4215E4],"tree_param":{"num_deleted":"0","num_feature":"28","num_nodes":"9","size_leaf_vector":"1"}},{"base_weights":[1.5603921E-3,1.02851765E-4,3.6561368E0,1.362182E-1,-6.3616943E-1,6.1045317E-3,5.100551E-1,-3.3394072E-2,-1.168512E0],"categories":[],"categories_nodes":[],"categories_segments":[],"categories_sizes":[],"default_left":[0,0,0,0,0,0,0,0,0],"id":96,"left_children":[1,3,-1,5,7,-1,-1,-1,-1],"loss_changes":[7.5281836E3,7.2911353E3,0E0,1.9730781E4,2.1321732E4,0E0,0E0,0E0,0E0],"parents":[2147483647,0,0,1,1,3,3,4,4],"right_children":[2,4,-1,6,8,-1,-1,-1,-1],"split_conditions":[9.07E2,2.6E1,3.6561368E0,1.88E2,1.88E2,6.1045317E-3,5.100551E-1,-3.3394072E-2,-1.168512E0],"split_indices":[3,2,0,3,3,0,0,0,0],"split_type":[0,0,0,0,0,0,0,0,0],"sum_hessian":[8.4186E4,8.4185E4,1E0,6.935E4,1.4835E4,